TreeEnsembleModel classifier with 20 trees

  Tree 0:
    If (feature 217278 <= 0.551132940275275)
     If (feature 45365 <= 0.787673923611338)
      If (feature 318655 <= 0.802739949279625)
       If (feature 40729 <= 0.916096408485729)
        Predict: 1.0
       Else (feature 40729 > 0.916096408485729)
        Predict: 0.0
      Else (feature 318655 > 0.802739949279625)
       If (feature 391754 <= 0.0129820170008062)
        If (feature 320977 <= 0.835779420217728)
         Predict: 0.0
        Else (feature 320977 > 0.835779420217728)
         Predict: 1.0
       Else (feature 391754 > 0.0129820170008062)
        Predict: 1.0
     Else (feature 45365 > 0.787673923611338)
      If (feature 166672 <= 0.596899489288228)
       If (feature 109343 <= 0.0392745704362791)
        Predict: 0.0
       Else (feature 109343 > 0.0392745704362791)
        Predict: 1.0
      Else (feature 166672 > 0.596899489288228)
       If (feature 229739 <= 0.132064721075984)
        If (feature 207484 <= 0.663430255497993)
         Predict: 1.0
        Else (feature 207484 > 0.663430255497993)
         Predict: 0.0
       Else (feature 229739 > 0.132064721075984)
        Predict: 1.0
    Else (feature 217278 > 0.551132940275275)
     If (feature 456997 <= 0.0128970855157054)
      If (feature 198059 <= 0.629459276135138)
       Predict: 1.0
      Else (feature 198059 > 0.629459276135138)
       Predict: 0.0
     Else (feature 456997 > 0.0128970855157054)
      If (feature 73226 <= 0.325791373902913)
       If (feature 79423 <= 0.928831405139586)
        Predict: 1.0
       Else (feature 79423 > 0.928831405139586)
        Predict: 0.0
      Else (feature 73226 > 0.325791373902913)
       Predict: 1.0
  Tree 1:
    If (feature 25474 <= 0.339429302426896)
     If (feature 287784 <= 0.79853442695792)
      Predict: 1.0
     Else (feature 287784 > 0.79853442695792)
      If (feature 276214 <= 0.0898272282016461)
       If (feature 245386 <= 0.349651465571008)
        Predict: 1.0
       Else (feature 245386 > 0.349651465571008)
        If (feature 374083 <= 0.854154788034032)
         Predict: 0.0
        Else (feature 374083 > 0.854154788034032)
         Predict: 1.0
      Else (feature 276214 > 0.0898272282016461)
       If (feature 403035 <= 0.0463838540641006)
        Predict: 0.0
       Else (feature 403035 > 0.0463838540641006)
        Predict: 1.0
    Else (feature 25474 > 0.339429302426896)
     If (feature 223193 <= 0.48458997088231)
      If (feature 327706 <= 0.0196564752478925)
       Predict: 0.0
      Else (feature 327706 > 0.0196564752478925)
       Predict: 1.0
     Else (feature 223193 > 0.48458997088231)
      If (feature 254725 <= 0.528214400733414)
       If (feature 37375 <= 0.0297528465861505)
        Predict: 1.0
       Else (feature 37375 > 0.0297528465861505)
        Predict: 0.0
      Else (feature 254725 > 0.528214400733414)
       Predict: 1.0
  Tree 2:
    If (feature 25798 <= 0.723694657126976)
     If (feature 443868 <= 0.217770244736173)
      If (feature 394534 <= 0.486220189762899)
       If (feature 238869 <= 0.831781590746506)
        Predict: 1.0
       Else (feature 238869 > 0.831781590746506)
        Predict: 0.0
      Else (feature 394534 > 0.486220189762899)
       Predict: 1.0
     Else (feature 443868 > 0.217770244736173)
      If (feature 161467 <= 0.159590748189467)
       If (feature 70308 <= 0.941533340535851)
        If (feature 25341 <= 0.0226462917527259)
         Predict: 1.0
        Else (feature 25341 > 0.0226462917527259)
         Predict: 1.0
       Else (feature 70308 > 0.941533340535851)
        If (feature 10538 <= 0.02120922949928)
         Predict: 0.0
        Else (feature 10538 > 0.02120922949928)
         Predict: 1.0
      Else (feature 161467 > 0.159590748189467)
       Predict: 0.0
    Else (feature 25798 > 0.723694657126976)
     If (feature 324978 <= 0.906107958018237)
      If (feature 467361 <= 0.991468742447326)
       Predict: 1.0
      Else (feature 467361 > 0.991468742447326)
       Predict: 0.0
     Else (feature 324978 > 0.906107958018237)
      If (feature 272648 <= 0.0169400113296075)
       If (feature 308982 <= 0.0199162036221596)
        Predict: 1.0
       Else (feature 308982 > 0.0199162036221596)
        Predict: 0.0
      Else (feature 272648 > 0.0169400113296075)
       Predict: 1.0
  Tree 3:
    If (feature 267047 <= 0.86235766541809)
     If (feature 227986 <= 0.887450953909798)
      If (feature 129309 <= 0.0458288802796188)
       If (feature 157037 <= 0.942506158278599)
        Predict: 1.0
       Else (feature 157037 > 0.942506158278599)
        Predict: 0.0
      Else (feature 129309 > 0.0458288802796188)
       Predict: 0.0
     Else (feature 227986 > 0.887450953909798)
      If (feature 325486 <= 0.761745532997593)
       Predict: 1.0
      Else (feature 325486 > 0.761745532997593)
       If (feature 62501 <= 0.213322112577741)
        Predict: 0.0
       Else (feature 62501 > 0.213322112577741)
        Predict: 1.0
    Else (feature 267047 > 0.86235766541809)
     If (feature 220544 <= 0.53042423950295)
      If (feature 224847 <= 0.0173764127466722)
       If (feature 424110 <= 0.0597679032216253)
        Predict: 1.0
       Else (feature 424110 > 0.0597679032216253)
        Predict: 0.0
      Else (feature 224847 > 0.0173764127466722)
       If (feature 296449 <= 0.776303876253717)
        If (feature 265751 <= 0.605398004779043)
         Predict: 0.0
        Else (feature 265751 > 0.605398004779043)
         Predict: 1.0
       Else (feature 296449 > 0.776303876253717)
        Predict: 1.0
     Else (feature 220544 > 0.53042423950295)
      If (feature 227164 <= 0.184795816735831)
       If (feature 87873 <= 0.446819793562037)
        Predict: 0.0
       Else (feature 87873 > 0.446819793562037)
        Predict: 1.0
      Else (feature 227164 > 0.184795816735831)
       If (feature 357393 <= 0.795959413966229)
        Predict: 0.0
       Else (feature 357393 > 0.795959413966229)
        Predict: 1.0
  Tree 4:
    If (feature 328920 <= 0.747691553453509)
     If (feature 213138 <= 0.665466688619699)
      If (feature 240577 <= 0.0706570255980038)
       If (feature 12778 <= 0.597080910844096)
        Predict: 1.0
       Else (feature 12778 > 0.597080910844096)
        Predict: 0.0
      Else (feature 240577 > 0.0706570255980038)
       If (feature 132880 <= 0.0278606227148843)
        Predict: 1.0
       Else (feature 132880 > 0.0278606227148843)
        Predict: 0.0
     Else (feature 213138 > 0.665466688619699)
      If (feature 356482 <= 0.0227086667910653)
       If (feature 277495 <= 0.0296810141214723)
        Predict: 1.0
       Else (feature 277495 > 0.0296810141214723)
        Predict: 0.0
      Else (feature 356482 > 0.0227086667910653)
       If (feature 428010 <= 0.0129581100214225)
        Predict: 0.0
       Else (feature 428010 > 0.0129581100214225)
        If (feature 70527 <= 0.149918715419517)
         Predict: 0.0
        Else (feature 70527 > 0.149918715419517)
         Predict: 1.0
    Else (feature 328920 > 0.747691553453509)
     If (feature 217024 <= 0.943658289223725)
      If (feature 67869 <= 0.0234399683118085)
       If (feature 13001 <= 0.193418354616405)
        Predict: 0.0
       Else (feature 13001 > 0.193418354616405)
        Predict: 1.0
      Else (feature 67869 > 0.0234399683118085)
       If (feature 185223 <= 0.882057685357046)
        Predict: 1.0
       Else (feature 185223 > 0.882057685357046)
        If (feature 304849 <= 0.053321982205434)
         Predict: 0.0
        Else (feature 304849 > 0.053321982205434)
         Predict: 1.0
     Else (feature 217024 > 0.943658289223725)
      If (feature 434289 <= 0.667231603849805)
       If (feature 334979 <= 0.90946047793762)
        Predict: 1.0
       Else (feature 334979 > 0.90946047793762)
        Predict: 0.0
      Else (feature 434289 > 0.667231603849805)
       If (feature 91943 <= 0.333862481255311)
        Predict: 0.0
       Else (feature 91943 > 0.333862481255311)
        Predict: 1.0
  Tree 5:
    If (feature 317806 <= 0.0372962141406238)
     If (feature 218090 <= 0.510690466349595)
      If (feature 230926 <= 0.877398149989305)
       If (feature 55887 <= 0.956289796115483)
        Predict: 1.0
       Else (feature 55887 > 0.956289796115483)
        Predict: 0.0
      Else (feature 230926 > 0.877398149989305)
       If (feature 129409 <= 0.466796221599541)
        Predict: 1.0
       Else (feature 129409 > 0.466796221599541)
        If (feature 249952 <= 0.952184500386087)
         Predict: 0.0
        Else (feature 249952 > 0.952184500386087)
         Predict: 1.0
     Else (feature 218090 > 0.510690466349595)
      If (feature 363876 <= 0.425203973054448)
       If (feature 165569 <= 0.590355586346799)
        Predict: 1.0
       Else (feature 165569 > 0.590355586346799)
        Predict: 0.0
      Else (feature 363876 > 0.425203973054448)
       Predict: 1.0
    Else (feature 317806 > 0.0372962141406238)
     If (feature 179757 <= 0.0414927499247612)
      If (feature 331067 <= 0.932703527859896)
       Predict: 1.0
      Else (feature 331067 > 0.932703527859896)
       Predict: 0.0
     Else (feature 179757 > 0.0414927499247612)
      Predict: 1.0
  Tree 6:
    If (feature 213057 <= 0.0879113109369324)
     If (feature 154737 <= 0.883178606927928)
      If (feature 464557 <= 0.960933136080189)
       Predict: 1.0
      Else (feature 464557 > 0.960933136080189)
       If (feature 30218 <= 0.847355205522504)
        If (feature 139580 <= 0.880548294623195)
         Predict: 0.0
        Else (feature 139580 > 0.880548294623195)
         Predict: 1.0
       Else (feature 30218 > 0.847355205522504)
        Predict: 0.0
     Else (feature 154737 > 0.883178606927928)
      If (feature 270970 <= 0.88763840031442)
       If (feature 343714 <= 0.894378504991555)
        Predict: 1.0
       Else (feature 343714 > 0.894378504991555)
        Predict: 0.0
      Else (feature 270970 > 0.88763840031442)
       If (feature 51145 <= 0.293709274803126)
        Predict: 1.0
       Else (feature 51145 > 0.293709274803126)
        If (feature 367895 <= 0.580320061271722)
         Predict: 1.0
        Else (feature 367895 > 0.580320061271722)
         Predict: 0.0
    Else (feature 213057 > 0.0879113109369324)
     If (feature 10390 <= 0.142112670408107)
      If (feature 399174 <= 0.213763493645774)
       Predict: 1.0
      Else (feature 399174 > 0.213763493645774)
       Predict: 0.0
     Else (feature 10390 > 0.142112670408107)
      If (feature 427699 <= 0.00647017870511809)
       Predict: 0.0
      Else (feature 427699 > 0.00647017870511809)
       Predict: 1.0
  Tree 7:
    If (feature 394905 <= 0.731527831250738)
     If (feature 227400 <= 0.842880985475956)
      If (feature 295688 <= 0.0359012082156155)
       Predict: 0.0
      Else (feature 295688 > 0.0359012082156155)
       Predict: 1.0
     Else (feature 227400 > 0.842880985475956)
      If (feature 207540 <= 0.756906215989509)
       If (feature 320373 <= 0.0960976362912972)
        Predict: 0.0
       Else (feature 320373 > 0.0960976362912972)
        Predict: 1.0
      Else (feature 207540 > 0.756906215989509)
       Predict: 0.0
    Else (feature 394905 > 0.731527831250738)
     If (feature 271764 <= 0.960014425502599)
      If (feature 86997 <= 0.941957108308703)
       If (feature 397907 <= 0.740191969433565)
        If (feature 164249 <= 0.0303985820973553)
         Predict: 0.0
        Else (feature 164249 > 0.0303985820973553)
         Predict: 1.0
       Else (feature 397907 > 0.740191969433565)
        If (feature 278090 <= 0.59291109120969)
         Predict: 1.0
        Else (feature 278090 > 0.59291109120969)
         Predict: 1.0
      Else (feature 86997 > 0.941957108308703)
       If (feature 306861 <= 0.0392969400092842)
        Predict: 0.0
       Else (feature 306861 > 0.0392969400092842)
        Predict: 1.0
     Else (feature 271764 > 0.960014425502599)
      If (feature 336508 <= 0.681178948936118)
       Predict: 1.0
      Else (feature 336508 > 0.681178948936118)
       If (feature 81810 <= 0.721867602401965)
        Predict: 0.0
       Else (feature 81810 > 0.721867602401965)
        Predict: 1.0
  Tree 8:
    If (feature 192177 <= 0.83014962632042)
     If (feature 352540 <= 0.0305489404974415)
      If (feature 340560 <= 0.374571627705497)
       Predict: 1.0
      Else (feature 340560 > 0.374571627705497)
       Predict: 0.0
     Else (feature 352540 > 0.0305489404974415)
      If (feature 63661 <= 0.929379214976176)
       Predict: 1.0
      Else (feature 63661 > 0.929379214976176)
       If (feature 350823 <= 0.597729088484251)
        Predict: 0.0
       Else (feature 350823 > 0.597729088484251)
        Predict: 1.0
    Else (feature 192177 > 0.83014962632042)
     If (feature 405321 <= 0.761314377247509)
      If (feature 247671 <= 0.772782833463019)
       If (feature 81528 <= 0.792607090751301)
        Predict: 0.0
       Else (feature 81528 > 0.792607090751301)
        Predict: 1.0
      Else (feature 247671 > 0.772782833463019)
       If (feature 161687 <= 0.159817528138208)
        Predict: 0.0
       Else (feature 161687 > 0.159817528138208)
        If (feature 303986 <= 0.496596794039905)
         Predict: 1.0
        Else (feature 303986 > 0.496596794039905)
         Predict: 0.0
     Else (feature 405321 > 0.761314377247509)
      If (feature 348839 <= 0.0164502131089649)
       If (feature 369037 <= 0.0125178653572596)
        Predict: 1.0
       Else (feature 369037 > 0.0125178653572596)
        Predict: 0.0
      Else (feature 348839 > 0.0164502131089649)
       If (feature 302652 <= 0.0247543659636109)
        If (feature 98498 <= 0.360363126286419)
         Predict: 1.0
        Else (feature 98498 > 0.360363126286419)
         Predict: 0.0
       Else (feature 302652 > 0.0247543659636109)
        Predict: 1.0
  Tree 9:
    If (feature 222839 <= 0.0507926072160479)
     If (feature 148174 <= 0.524538535730792)
      If (feature 336272 <= 0.603579775530748)
       Predict: 1.0
      Else (feature 336272 > 0.603579775530748)
       If (feature 139180 <= 0.62849145422368)
        Predict: 0.0
       Else (feature 139180 > 0.62849145422368)
        Predict: 1.0
     Else (feature 148174 > 0.524538535730792)
      If (feature 56073 <= 0.966600132473259)
       If (feature 237826 <= 0.992101725626795)
        Predict: 1.0
       Else (feature 237826 > 0.992101725626795)
        Predict: 0.0
      Else (feature 56073 > 0.966600132473259)
       Predict: 0.0
    Else (feature 222839 > 0.0507926072160479)
     If (feature 18920 <= 0.588308722316846)
      If (feature 32838 <= 0.503264089640681)
       Predict: 1.0
      Else (feature 32838 > 0.503264089640681)
       If (feature 15940 <= 0.0501974203365332)
        Predict: 0.0
       Else (feature 15940 > 0.0501974203365332)
        If (feature 178879 <= 0.752691094831996)
         Predict: 0.0
        Else (feature 178879 > 0.752691094831996)
         Predict: 1.0
     Else (feature 18920 > 0.588308722316846)
      If (feature 402475 <= 0.924237318037004)
       Predict: 0.0
      Else (feature 402475 > 0.924237318037004)
       Predict: 1.0
  Tree 10:
    If (feature 463216 <= 0.491441380316343)
     If (feature 9121 <= 0.748600625755827)
      If (feature 56237 <= 0.030931187091709)
       If (feature 156350 <= 0.0312367735735873)
        Predict: 0.0
       Else (feature 156350 > 0.0312367735735873)
        Predict: 1.0
      Else (feature 56237 > 0.030931187091709)
       If (feature 41429 <= 0.0464643173267913)
        Predict: 1.0
       Else (feature 41429 > 0.0464643173267913)
        If (feature 242801 <= 0.0292935317731686)
         Predict: 0.0
        Else (feature 242801 > 0.0292935317731686)
         Predict: 1.0
     Else (feature 9121 > 0.748600625755827)
      If (feature 413778 <= 0.137881769602063)
       If (feature 88282 <= 0.0418296007619971)
        Predict: 0.0
       Else (feature 88282 > 0.0418296007619971)
        Predict: 1.0
      Else (feature 413778 > 0.137881769602063)
       If (feature 272490 <= 0.549678180401262)
        Predict: 1.0
       Else (feature 272490 > 0.549678180401262)
        Predict: 0.0
    Else (feature 463216 > 0.491441380316343)
     Predict: 1.0
  Tree 11:
    If (feature 413660 <= 0.877817343352919)
     If (feature 48414 <= 0.609079777792367)
      If (feature 283502 <= 0.479739554763359)
       If (feature 153938 <= 0.445105760332738)
        Predict: 0.0
       Else (feature 153938 > 0.445105760332738)
        Predict: 1.0
      Else (feature 283502 > 0.479739554763359)
       If (feature 123826 <= 0.389194975243917)
        Predict: 0.0
       Else (feature 123826 > 0.389194975243917)
        Predict: 1.0
     Else (feature 48414 > 0.609079777792367)
      If (feature 380529 <= 0.0230104938208789)
       If (feature 88647 <= 0.069497531740544)
        Predict: 1.0
       Else (feature 88647 > 0.069497531740544)
        Predict: 0.0
      Else (feature 380529 > 0.0230104938208789)
       If (feature 176998 <= 0.0284312520025336)
        If (feature 383932 <= 0.0238282601826912)
         Predict: 1.0
        Else (feature 383932 > 0.0238282601826912)
         Predict: 0.0
       Else (feature 176998 > 0.0284312520025336)
        Predict: 1.0
    Else (feature 413660 > 0.877817343352919)
     If (feature 338097 <= 0.515284398396033)
      If (feature 452256 <= 0.702614872126395)
       Predict: 0.0
      Else (feature 452256 > 0.702614872126395)
       If (feature 312394 <= 0.0170424108480313)
        If (feature 266393 <= 0.0753422211806549)
         Predict: 0.0
        Else (feature 266393 > 0.0753422211806549)
         Predict: 1.0
       Else (feature 312394 > 0.0170424108480313)
        Predict: 1.0
     Else (feature 338097 > 0.515284398396033)
      If (feature 177762 <= 0.644932018143545)
       If (feature 41611 <= 0.0396191263336956)
        Predict: 1.0
       Else (feature 41611 > 0.0396191263336956)
        If (feature 249883 <= 0.814639194455387)
         Predict: 1.0
        Else (feature 249883 > 0.814639194455387)
         Predict: 0.0
      Else (feature 177762 > 0.644932018143545)
       Predict: 1.0
  Tree 12:
    If (feature 352829 <= 0.982448370341413)
     If (feature 74936 <= 0.487141777594683)
      If (feature 38231 <= 0.944133238679135)
       Predict: 1.0
      Else (feature 38231 > 0.944133238679135)
       If (feature 477998 <= 0.376524414224815)
        Predict: 1.0
       Else (feature 477998 > 0.376524414224815)
        Predict: 0.0
     Else (feature 74936 > 0.487141777594683)
      If (feature 216859 <= 0.35157430142025)
       If (feature 25949 <= 0.744504447938436)
        If (feature 148656 <= 0.906276617735566)
         Predict: 1.0
        Else (feature 148656 > 0.906276617735566)
         Predict: 0.0
       Else (feature 25949 > 0.744504447938436)
        Predict: 1.0
      Else (feature 216859 > 0.35157430142025)
       If (feature 22934 <= 0.366755677079781)
        Predict: 0.0
       Else (feature 22934 > 0.366755677079781)
        Predict: 1.0
    Else (feature 352829 > 0.982448370341413)
     If (feature 62464 <= 0.137556930656124)
      If (feature 394235 <= 0.0482930789615687)
       If (feature 131430 <= 0.94520061231609)
        Predict: 1.0
       Else (feature 131430 > 0.94520061231609)
        Predict: 0.0
      Else (feature 394235 > 0.0482930789615687)
       Predict: 0.0
     Else (feature 62464 > 0.137556930656124)
      Predict: 1.0
  Tree 13:
    If (feature 324828 <= 0.755080727635153)
     If (feature 135634 <= 0.0323656621835226)
      If (feature 346592 <= 0.0176905734638014)
       Predict: 0.0
      Else (feature 346592 > 0.0176905734638014)
       Predict: 1.0
     Else (feature 135634 > 0.0323656621835226)
      If (feature 445353 <= 0.940154092488586)
       If (feature 183200 <= 0.180278673172203)
        Predict: 0.0
       Else (feature 183200 > 0.180278673172203)
        Predict: 1.0
      Else (feature 445353 > 0.940154092488586)
       If (feature 305293 <= 0.886004010820018)
        Predict: 1.0
       Else (feature 305293 > 0.886004010820018)
        If (feature 422169 <= 0.0135205074283538)
         Predict: 0.0
        Else (feature 422169 > 0.0135205074283538)
         Predict: 1.0
    Else (feature 324828 > 0.755080727635153)
     If (feature 54511 <= 0.120021778810862)
      If (feature 346572 <= 0.422101967557931)
       If (feature 56741 <= 0.717484485029537)
        If (feature 472042 <= 0.461829554500673)
         Predict: 1.0
        Else (feature 472042 > 0.461829554500673)
         Predict: 0.0
       Else (feature 56741 > 0.717484485029537)
        Predict: 1.0
      Else (feature 346572 > 0.422101967557931)
       If (feature 346940 <= 0.0141208166820146)
        Predict: 0.0
       Else (feature 346940 > 0.0141208166820146)
        Predict: 1.0
     Else (feature 54511 > 0.120021778810862)
      If (feature 266452 <= 0.593228732628392)
       Predict: 0.0
      Else (feature 266452 > 0.593228732628392)
       Predict: 1.0
  Tree 14:
    If (feature 319224 <= 0.0264814917443343)
     If (feature 299836 <= 0.836719543236227)
      If (feature 381365 <= 0.540569117590279)
       Predict: 1.0
      Else (feature 381365 > 0.540569117590279)
       Predict: 0.0
     Else (feature 299836 > 0.836719543236227)
      If (feature 286765 <= 0.385342319425342)
       Predict: 1.0
      Else (feature 286765 > 0.385342319425342)
       If (feature 144297 <= 0.489937716070224)
        Predict: 1.0
       Else (feature 144297 > 0.489937716070224)
        Predict: 0.0
    Else (feature 319224 > 0.0264814917443343)
     If (feature 734 <= 0.23086839824964)
      Predict: 1.0
     Else (feature 734 > 0.23086839824964)
      If (feature 397997 <= 0.984853154209878)
       Predict: 1.0
      Else (feature 397997 > 0.984853154209878)
       Predict: 0.0
  Tree 15:
    If (feature 351938 <= 0.0483406710558569)
     If (feature 158675 <= 0.772116477134304)
      Predict: 1.0
     Else (feature 158675 > 0.772116477134304)
      If (feature 293662 <= 0.595070857477039)
       If (feature 309604 <= 0.0657521932541669)
        If (feature 141776 <= 0.0390124117545597)
         Predict: 1.0
        Else (feature 141776 > 0.0390124117545597)
         Predict: 0.0
       Else (feature 309604 > 0.0657521932541669)
        Predict: 0.0
      Else (feature 293662 > 0.595070857477039)
       If (feature 58182 <= 0.703326661599973)
        Predict: 0.0
       Else (feature 58182 > 0.703326661599973)
        Predict: 1.0
    Else (feature 351938 > 0.0483406710558569)
     If (feature 215980 <= 0.9353256288766)
      If (feature 321750 <= 0.81896044762949)
       If (feature 383887 <= 0.0467413780221419)
        Predict: 1.0
       Else (feature 383887 > 0.0467413780221419)
        Predict: 0.0
      Else (feature 321750 > 0.81896044762949)
       Predict: 1.0
     Else (feature 215980 > 0.9353256288766)
      If (feature 231334 <= 0.86944180286573)
       If (feature 405264 <= 0.592237800834474)
        Predict: 1.0
       Else (feature 405264 > 0.592237800834474)
        Predict: 0.0
      Else (feature 231334 > 0.86944180286573)
       Predict: 1.0
  Tree 16:
    If (feature 368003 <= 0.936869023723507)
     If (feature 17214 <= 0.598728556258041)
      If (feature 6004 <= 0.703987895509964)
       Predict: 1.0
      Else (feature 6004 > 0.703987895509964)
       Predict: 0.0
     Else (feature 17214 > 0.598728556258041)
      If (feature 391991 <= 0.0460211254939697)
       If (feature 143056 <= 0.0157083995681168)
        Predict: 0.0
       Else (feature 143056 > 0.0157083995681168)
        Predict: 1.0
      Else (feature 391991 > 0.0460211254939697)
       Predict: 1.0
    Else (feature 368003 > 0.936869023723507)
     If (feature 341971 <= 0.0769173180125856)
      If (feature 346155 <= 0.807533209551637)
       If (feature 452269 <= 0.830618838965294)
        Predict: 0.0
       Else (feature 452269 > 0.830618838965294)
        Predict: 1.0
      Else (feature 346155 > 0.807533209551637)
       Predict: 1.0
     Else (feature 341971 > 0.0769173180125856)
      If (feature 303381 <= 0.35209263040406)
       If (feature 233320 <= 0.884969370422844)
        If (feature 401839 <= 0.900089769643279)
         Predict: 0.0
        Else (feature 401839 > 0.900089769643279)
         Predict: 1.0
       Else (feature 233320 > 0.884969370422844)
        If (feature 100772 <= 0.628029745058897)
         Predict: 1.0
        Else (feature 100772 > 0.628029745058897)
         Predict: 0.0
      Else (feature 303381 > 0.35209263040406)
       Predict: 1.0
  Tree 17:
    If (feature 382328 <= 0.804883263606155)
     If (feature 162824 <= 0.802460211124389)
      If (feature 218331 <= 0.0168553008374505)
       Predict: 0.0
      Else (feature 218331 > 0.0168553008374505)
       If (feature 64505 <= 0.923824404791751)
        Predict: 1.0
       Else (feature 64505 > 0.923824404791751)
        Predict: 0.0
     Else (feature 162824 > 0.802460211124389)
      If (feature 233195 <= 0.817994611447565)
       If (feature 456184 <= 0.558921493681506)
        Predict: 1.0
       Else (feature 456184 > 0.558921493681506)
        Predict: 0.0
      Else (feature 233195 > 0.817994611447565)
       Predict: 1.0
    Else (feature 382328 > 0.804883263606155)
     If (feature 310691 <= 0.561377545184726)
      If (feature 231012 <= 0.858835185170084)
       If (feature 223047 <= 0.480646832502105)
        Predict: 0.0
       Else (feature 223047 > 0.480646832502105)
        Predict: 1.0
      Else (feature 231012 > 0.858835185170084)
       If (feature 81826 <= 0.912650612934567)
        Predict: 1.0
       Else (feature 81826 > 0.912650612934567)
        If (feature 467174 <= 0.317232625176905)
         Predict: 0.0
        Else (feature 467174 > 0.317232625176905)
         Predict: 1.0
     Else (feature 310691 > 0.561377545184726)
      If (feature 238111 <= 0.840932012864662)
       If (feature 346940 <= 0.0150209863229919)
        Predict: 0.0
       Else (feature 346940 > 0.0150209863229919)
        Predict: 1.0
      Else (feature 238111 > 0.840932012864662)
       If (feature 477047 <= 0.540984961033209)
        If (feature 228254 <= 0.302627985458198)
         Predict: 1.0
        Else (feature 228254 > 0.302627985458198)
         Predict: 1.0
       Else (feature 477047 > 0.540984961033209)
        If (feature 158941 <= 0.793368397750988)
         Predict: 0.0
        Else (feature 158941 > 0.793368397750988)
         Predict: 1.0
  Tree 18:
    If (feature 416645 <= 0.669883916337745)
     If (feature 164465 <= 0.943139266361952)
      If (feature 377957 <= 0.700351394049261)
       Predict: 1.0
      Else (feature 377957 > 0.700351394049261)
       Predict: 0.0
     Else (feature 164465 > 0.943139266361952)
      If (feature 411461 <= 0.936404941230069)
       Predict: 1.0
      Else (feature 411461 > 0.936404941230069)
       If (feature 337367 <= 0.927289910509)
        Predict: 0.0
       Else (feature 337367 > 0.927289910509)
        Predict: 1.0
    Else (feature 416645 > 0.669883916337745)
     If (feature 371442 <= 0.655977252145857)
      If (feature 272347 <= 0.314404923705883)
       If (feature 323756 <= 0.905998509330692)
        If (feature 195387 <= 0.803908767179012)
         Predict: 0.0
        Else (feature 195387 > 0.803908767179012)
         Predict: 1.0
       Else (feature 323756 > 0.905998509330692)
        If (feature 112335 <= 0.803708712903439)
         Predict: 1.0
        Else (feature 112335 > 0.803708712903439)
         Predict: 0.0
      Else (feature 272347 > 0.314404923705883)
       Predict: 1.0
     Else (feature 371442 > 0.655977252145857)
      If (feature 154446 <= 0.0183385246845911)
       Predict: 0.0
      Else (feature 154446 > 0.0183385246845911)
       If (feature 70163 <= 0.017425039751693)
        Predict: 0.0
       Else (feature 70163 > 0.017425039751693)
        If (feature 358240 <= 0.0117617410953976)
         Predict: 0.0
        Else (feature 358240 > 0.0117617410953976)
         Predict: 1.0
  Tree 19:
    If (feature 166381 <= 0.611029033257538)
     If (feature 250672 <= 0.606118178844218)
      Predict: 1.0
     Else (feature 250672 > 0.606118178844218)
      If (feature 32587 <= 0.0575485031792306)
       Predict: 1.0
      Else (feature 32587 > 0.0575485031792306)
       Predict: 0.0
    Else (feature 166381 > 0.611029033257538)
     If (feature 453893 <= 0.383906187473233)
      If (feature 165817 <= 0.741722794195603)
       Predict: 1.0
      Else (feature 165817 > 0.741722794195603)
       If (feature 183162 <= 0.19907366552875)
        If (feature 381334 <= 0.369089704717401)
         Predict: 0.0
        Else (feature 381334 > 0.369089704717401)
         Predict: 1.0
       Else (feature 183162 > 0.19907366552875)
        Predict: 1.0
     Else (feature 453893 > 0.383906187473233)
      If (feature 365100 <= 0.936347677725604)
       If (feature 181759 <= 0.990201147783622)
        Predict: 1.0
       Else (feature 181759 > 0.990201147783622)
        Predict: 0.0
      Else (feature 365100 > 0.936347677725604)
       If (feature 460394 <= 0.836316696168066)
        Predict: 1.0
       Else (feature 460394 > 0.836316696168066)
        Predict: 0.0
