TreeEnsembleModel classifier with 10 trees

  Tree 0:
    If (feature 427895 <= 0.752076040088673)
     If (feature 127874 <= 0.719641159149796)
      Predict: 1.0
     Else (feature 127874 > 0.719641159149796)
      If (feature 78709 <= 0.415480542807322)
       Predict: 1.0
      Else (feature 78709 > 0.415480542807322)
       If (feature 115498 <= 0.928269971082731)
        Predict: 0.0
       Else (feature 115498 > 0.928269971082731)
        Predict: 1.0
    Else (feature 427895 > 0.752076040088673)
     If (feature 31769 <= 0.0786679253334164)
      If (feature 425222 <= 0.893644475316845)
       If (feature 29096 <= 0.487244596761475)
        Predict: 0.0
       Else (feature 29096 > 0.487244596761475)
        Predict: 1.0
      Else (feature 425222 > 0.893644475316845)
       If (feature 199210 <= 0.466250644933291)
        If (feature 410461 <= 0.848553577834967)
         Predict: 1.0
        Else (feature 410461 > 0.848553577834967)
         Predict: 0.0
       Else (feature 199210 > 0.466250644933291)
        Predict: 1.0
     Else (feature 31769 > 0.0786679253334164)
      If (feature 336405 <= 0.695629408235215)
       Predict: 1.0
      Else (feature 336405 > 0.695629408235215)
       Predict: 0.0
  Tree 1:
    If (feature 368122 <= 0.284131970478818)
     If (feature 21461 <= 0.128631931310207)
      If (feature 371693 <= 0.713898823670582)
       Predict: 0.0
      Else (feature 371693 > 0.713898823670582)
       If (feature 84973 <= 0.931005329003567)
        Predict: 1.0
       Else (feature 84973 > 0.931005329003567)
        Predict: 0.0
     Else (feature 21461 > 0.128631931310207)
      If (feature 384465 <= 0.0139517980202747)
       If (feature 261282 <= 0.772700240686835)
        Predict: 1.0
       Else (feature 261282 > 0.772700240686835)
        Predict: 0.0
      Else (feature 384465 > 0.0139517980202747)
       If (feature 374170 <= 0.172649906000803)
        Predict: 1.0
       Else (feature 374170 > 0.172649906000803)
        If (feature 4862 <= 0.961222654304439)
         Predict: 1.0
        Else (feature 4862 > 0.961222654304439)
         Predict: 0.0
    Else (feature 368122 > 0.284131970478818)
     If (feature 441492 <= 0.103596274451712)
      If (feature 285620 <= 0.8939632444245)
       Predict: 0.0
      Else (feature 285620 > 0.8939632444245)
       Predict: 1.0
     Else (feature 441492 > 0.103596274451712)
      If (feature 413812 <= 0.615755421308944)
       Predict: 0.0
      Else (feature 413812 > 0.615755421308944)
       Predict: 1.0
  Tree 2:
    If (feature 194012 <= 0.38580389047526)
     If (feature 123996 <= 0.451212191943697)
      If (feature 219256 <= 0.910627455689597)
       Predict: 1.0
      Else (feature 219256 > 0.910627455689597)
       If (feature 190778 <= 0.983249833382522)
        Predict: 0.0
       Else (feature 190778 > 0.983249833382522)
        Predict: 1.0
     Else (feature 123996 > 0.451212191943697)
      If (feature 2730 <= 0.919164378792125)
       Predict: 0.0
      Else (feature 2730 > 0.919164378792125)
       Predict: 1.0
    Else (feature 194012 > 0.38580389047526)
     If (feature 123090 <= 0.955248377222533)
      If (feature 271923 <= 0.992537931188699)
       Predict: 1.0
      Else (feature 271923 > 0.992537931188699)
       If (feature 411435 <= 0.577667349716368)
        Predict: 1.0
       Else (feature 411435 > 0.577667349716368)
        Predict: 0.0
     Else (feature 123090 > 0.955248377222533)
      If (feature 288687 <= 0.860485555005917)
       Predict: 0.0
      Else (feature 288687 > 0.860485555005917)
       Predict: 1.0
  Tree 3:
    If (feature 299409 <= 0.833274556055423)
     If (feature 330560 <= 0.888386984617943)
      If (feature 449626 <= 0.764085963103074)
       Predict: 1.0
      Else (feature 449626 > 0.764085963103074)
       If (feature 380272 <= 0.960292182526961)
        Predict: 0.0
       Else (feature 380272 > 0.960292182526961)
        Predict: 1.0
     Else (feature 330560 > 0.888386984617943)
      If (feature 33609 <= 0.466433190551348)
       Predict: 0.0
      Else (feature 33609 > 0.466433190551348)
       Predict: 1.0
    Else (feature 299409 > 0.833274556055423)
     If (feature 329501 <= 0.546126623664469)
      If (feature 177720 <= 0.924693060198361)
       Predict: 0.0
      Else (feature 177720 > 0.924693060198361)
       Predict: 1.0
     Else (feature 329501 > 0.546126623664469)
      If (feature 144187 <= 0.581052634595901)
       If (feature 60201 <= 0.0191991407558944)
        Predict: 0.0
       Else (feature 60201 > 0.0191991407558944)
        Predict: 1.0
      Else (feature 144187 > 0.581052634595901)
       Predict: 1.0
  Tree 4:
    If (feature 62849 <= 0.663091876730897)
     Predict: 1.0
    Else (feature 62849 > 0.663091876730897)
     If (feature 172697 <= 0.468964991515085)
      If (feature 293166 <= 0.349203008549386)
       If (feature 74264 <= 0.773740154016005)
        If (feature 413659 <= 0.460713683224769)
         Predict: 1.0
        Else (feature 413659 > 0.460713683224769)
         Predict: 0.0
       Else (feature 74264 > 0.773740154016005)
        Predict: 1.0
      Else (feature 293166 > 0.349203008549386)
       Predict: 1.0
     Else (feature 172697 > 0.468964991515085)
      If (feature 34566 <= 0.959671344133231)
       If (feature 101302 <= 0.818986903464342)
        Predict: 0.0
       Else (feature 101302 > 0.818986903464342)
        Predict: 1.0
      Else (feature 34566 > 0.959671344133231)
       Predict: 0.0
  Tree 5:
    If (feature 472889 <= 0.79981694857952)
     If (feature 264361 <= 0.307740971056324)
      If (feature 480156 <= 0.616707566896509)
       Predict: 0.0
      Else (feature 480156 > 0.616707566896509)
       Predict: 1.0
     Else (feature 264361 > 0.307740971056324)
      If (feature 237886 <= 0.469579257791133)
       If (feature 379044 <= 0.0803099678320286)
        Predict: 1.0
       Else (feature 379044 > 0.0803099678320286)
        Predict: 0.0
      Else (feature 237886 > 0.469579257791133)
       Predict: 1.0
    Else (feature 472889 > 0.79981694857952)
     If (feature 159507 <= 0.465251355207781)
      If (feature 59854 <= 0.756478027490947)
       Predict: 1.0
      Else (feature 59854 > 0.756478027490947)
       If (feature 271208 <= 0.0343489558094816)
        Predict: 1.0
       Else (feature 271208 > 0.0343489558094816)
        Predict: 0.0
     Else (feature 159507 > 0.465251355207781)
      Predict: 1.0
  Tree 6:
    If (feature 280576 <= 0.663067315791774)
     Predict: 1.0
    Else (feature 280576 > 0.663067315791774)
     If (feature 324972 <= 0.512929645859071)
      Predict: 1.0
     Else (feature 324972 > 0.512929645859071)
      If (feature 162756 <= 0.564184735148594)
       Predict: 1.0
      Else (feature 162756 > 0.564184735148594)
       If (feature 228661 <= 0.873592024792013)
        If (feature 189274 <= 0.559442604147247)
         Predict: 1.0
        Else (feature 189274 > 0.559442604147247)
         Predict: 0.0
       Else (feature 228661 > 0.873592024792013)
        Predict: 1.0
  Tree 7:
    If (feature 124957 <= 0.348876897359629)
     If (feature 260296 <= 0.858004203620951)
      Predict: 1.0
     Else (feature 260296 > 0.858004203620951)
      If (feature 195557 <= 0.892729331333783)
       Predict: 1.0
      Else (feature 195557 > 0.892729331333783)
       Predict: 0.0
    Else (feature 124957 > 0.348876897359629)
     If (feature 374320 <= 0.758162745511721)
      If (feature 367993 <= 0.952134363479393)
       If (feature 364242 <= 0.0357494159655386)
        Predict: 0.0
       Else (feature 364242 > 0.0357494159655386)
        Predict: 1.0
      Else (feature 367993 > 0.952134363479393)
       If (feature 296818 <= 0.649942992561393)
        Predict: 1.0
       Else (feature 296818 > 0.649942992561393)
        Predict: 0.0
     Else (feature 374320 > 0.758162745511721)
      If (feature 434487 <= 0.685734767250329)
       If (feature 149623 <= 0.0485499885249128)
        Predict: 1.0
       Else (feature 149623 > 0.0485499885249128)
        Predict: 0.0
      Else (feature 434487 > 0.685734767250329)
       Predict: 1.0
  Tree 8:
    If (feature 78272 <= 0.594308927340626)
     If (feature 47835 <= 0.86430721595215)
      If (feature 483345 <= 0.907974405752011)
       Predict: 1.0
      Else (feature 483345 > 0.907974405752011)
       Predict: 0.0
     Else (feature 47835 > 0.86430721595215)
      If (feature 194645 <= 0.135618054190701)
       If (feature 421564 <= 0.294103895880834)
        If (feature 271969 <= 0.76870625963375)
         Predict: 1.0
        Else (feature 271969 > 0.76870625963375)
         Predict: 0.0
       Else (feature 421564 > 0.294103895880834)
        Predict: 1.0
      Else (feature 194645 > 0.135618054190701)
       Predict: 1.0
    Else (feature 78272 > 0.594308927340626)
     If (feature 404781 <= 0.652372827247839)
      Predict: 0.0
     Else (feature 404781 > 0.652372827247839)
      If (feature 123480 <= 0.66197697559227)
       If (feature 316935 <= 0.0191752727478627)
        Predict: 0.0
       Else (feature 316935 > 0.0191752727478627)
        Predict: 1.0
      Else (feature 123480 > 0.66197697559227)
       Predict: 1.0
  Tree 9:
    If (feature 287897 <= 0.768450838065814)
     If (feature 146722 <= 0.569728026640591)
      Predict: 1.0
     Else (feature 146722 > 0.569728026640591)
      If (feature 276840 <= 0.197292949490253)
       Predict: 0.0
      Else (feature 276840 > 0.197292949490253)
       Predict: 1.0
    Else (feature 287897 > 0.768450838065814)
     If (feature 308838 <= 0.880010298281785)
      If (feature 472345 <= 0.412425072259005)
       If (feature 158132 <= 0.903697976591148)
        Predict: 1.0
       Else (feature 158132 > 0.903697976591148)
        If (feature 405096 <= 0.225986857655014)
         Predict: 1.0
        Else (feature 405096 > 0.225986857655014)
         Predict: 0.0
      Else (feature 472345 > 0.412425072259005)
       If (feature 277012 <= 0.623210608131245)
        If (feature 380538 <= 0.0998662510024936)
         Predict: 0.0
        Else (feature 380538 > 0.0998662510024936)
         Predict: 1.0
       Else (feature 277012 > 0.623210608131245)
        If (feature 50892 <= 0.697534193556837)
         Predict: 1.0
        Else (feature 50892 > 0.697534193556837)
         Predict: 1.0
     Else (feature 308838 > 0.880010298281785)
      If (feature 7139 <= 0.273597557935024)
       Predict: 1.0
      Else (feature 7139 > 0.273597557935024)
       Predict: 0.0
