TreeEnsembleModel classifier with 20 trees

  Tree 0:
    If (feature 397184 <= 0.653642385127859)
     If (feature 172150 <= 0.496065211903628)
      If (feature 481424 <= 0.639862806855119)
       Predict: 1.0
      Else (feature 481424 > 0.639862806855119)
       Predict: 0.0
     Else (feature 172150 > 0.496065211903628)
      If (feature 395116 <= 0.443732391175667)
       If (feature 298754 <= 0.63393999157889)
        If (feature 10950 <= 0.214275494870586)
         Predict: 1.0
        Else (feature 10950 > 0.214275494870586)
         Predict: 0.0
       Else (feature 298754 > 0.63393999157889)
        Predict: 1.0
      Else (feature 395116 > 0.443732391175667)
       Predict: 1.0
    Else (feature 397184 > 0.653642385127859)
     If (feature 348527 <= 0.752809004399942)
      If (feature 76126 <= 0.699056685388189)
       Predict: 1.0
      Else (feature 76126 > 0.699056685388189)
       If (feature 322873 <= 0.845339283230459)
        Predict: 1.0
       Else (feature 322873 > 0.845339283230459)
        If (feature 373210 <= 0.228568305400331)
         Predict: 1.0
        Else (feature 373210 > 0.228568305400331)
         Predict: 0.0
     Else (feature 348527 > 0.752809004399942)
      If (feature 190086 <= 0.599894055875885)
       Predict: 0.0
      Else (feature 190086 > 0.599894055875885)
       Predict: 1.0
  Tree 1:
    If (feature 380117 <= 0.594893245502791)
     If (feature 220027 <= 0.828382660224774)
      If (feature 215885 <= 0.818675231212535)
       If (feature 327716 <= 0.849699291986169)
        If (feature 336478 <= 0.835651326380183)
         Predict: 1.0
        Else (feature 336478 > 0.835651326380183)
         Predict: 0.0
       Else (feature 327716 > 0.849699291986169)
        Predict: 0.0
      Else (feature 215885 > 0.818675231212535)
       If (feature 259400 <= 0.798680713424312)
        Predict: 1.0
       Else (feature 259400 > 0.798680713424312)
        Predict: 0.0
     Else (feature 220027 > 0.828382660224774)
      If (feature 391891 <= 0.540774400578303)
       If (feature 228100 <= 0.96934035044017)
        Predict: 0.0
       Else (feature 228100 > 0.96934035044017)
        Predict: 1.0
      Else (feature 391891 > 0.540774400578303)
       If (feature 245120 <= 0.835332380075009)
        Predict: 0.0
       Else (feature 245120 > 0.835332380075009)
        If (feature 286822 <= 0.528941359520389)
         Predict: 1.0
        Else (feature 286822 > 0.528941359520389)
         Predict: 0.0
    Else (feature 380117 > 0.594893245502791)
     If (feature 140014 <= 0.0221671398055154)
      If (feature 299213 <= 0.885424523036578)
       Predict: 1.0
      Else (feature 299213 > 0.885424523036578)
       Predict: 0.0
     Else (feature 140014 > 0.0221671398055154)
      Predict: 1.0
  Tree 2:
    If (feature 459171 <= 0.673001900904295)
     If (feature 288687 <= 0.829920001304035)
      If (feature 331978 <= 0.796788049758066)
       If (feature 305300 <= 0.687058758068373)
        Predict: 1.0
       Else (feature 305300 > 0.687058758068373)
        Predict: 0.0
      Else (feature 331978 > 0.796788049758066)
       If (feature 474294 <= 0.205620240966012)
        Predict: 1.0
       Else (feature 474294 > 0.205620240966012)
        Predict: 0.0
     Else (feature 288687 > 0.829920001304035)
      If (feature 27210 <= 0.564704845498442)
       If (feature 237071 <= 0.533425377396647)
        Predict: 1.0
       Else (feature 237071 > 0.533425377396647)
        Predict: 0.0
      Else (feature 27210 > 0.564704845498442)
       If (feature 474393 <= 0.916957838978792)
        Predict: 1.0
       Else (feature 474393 > 0.916957838978792)
        If (feature 245966 <= 0.693496061574021)
         Predict: 0.0
        Else (feature 245966 > 0.693496061574021)
         Predict: 1.0
    Else (feature 459171 > 0.673001900904295)
     If (feature 369148 <= 0.310948634239953)
      If (feature 3391 <= 0.23598012025268)
       Predict: 1.0
      Else (feature 3391 > 0.23598012025268)
       If (feature 352635 <= 0.501368948771695)
        If (feature 280955 <= 0.01264473567586)
         Predict: 0.0
        Else (feature 280955 > 0.01264473567586)
         Predict: 1.0
       Else (feature 352635 > 0.501368948771695)
        If (feature 135143 <= 0.82719073052089)
         Predict: 1.0
        Else (feature 135143 > 0.82719073052089)
         Predict: 0.0
     Else (feature 369148 > 0.310948634239953)
      If (feature 199531 <= 0.957492294973473)
       Predict: 1.0
      Else (feature 199531 > 0.957492294973473)
       If (feature 293342 <= 0.0417601630434608)
        Predict: 0.0
       Else (feature 293342 > 0.0417601630434608)
        Predict: 1.0
  Tree 3:
    If (feature 23293 <= 0.139572299416343)
     If (feature 215840 <= 0.80367863702874)
      If (feature 218799 <= 0.943562409927251)
       Predict: 1.0
      Else (feature 218799 > 0.943562409927251)
       If (feature 415814 <= 0.612295168265072)
        Predict: 0.0
       Else (feature 415814 > 0.612295168265072)
        Predict: 1.0
     Else (feature 215840 > 0.80367863702874)
      If (feature 308866 <= 0.747086978864793)
       If (feature 58431 <= 0.127406439144581)
        If (feature 17523 <= 0.260215044688123)
         Predict: 1.0
        Else (feature 17523 > 0.260215044688123)
         Predict: 0.0
       Else (feature 58431 > 0.127406439144581)
        Predict: 1.0
      Else (feature 308866 > 0.747086978864793)
       If (feature 413111 <= 0.896055661721059)
        If (feature 470745 <= 0.0159084788760824)
         Predict: 0.0
        Else (feature 470745 > 0.0159084788760824)
         Predict: 1.0
       Else (feature 413111 > 0.896055661721059)
        Predict: 1.0
    Else (feature 23293 > 0.139572299416343)
     If (feature 77271 <= 0.0126967796366402)
      If (feature 200826 <= 0.557847990814489)
       Predict: 1.0
      Else (feature 200826 > 0.557847990814489)
       Predict: 0.0
     Else (feature 77271 > 0.0126967796366402)
      If (feature 50347 <= 0.0393718319089799)
       If (feature 150075 <= 0.219793133727404)
        Predict: 0.0
       Else (feature 150075 > 0.219793133727404)
        Predict: 1.0
      Else (feature 50347 > 0.0393718319089799)
       If (feature 306483 <= 0.0300341947786054)
        If (feature 60945 <= 0.0196112126893908)
         Predict: 0.0
        Else (feature 60945 > 0.0196112126893908)
         Predict: 1.0
       Else (feature 306483 > 0.0300341947786054)
        Predict: 1.0
  Tree 4:
    If (feature 472425 <= 0.705908493435854)
     If (feature 203802 <= 0.882366843710517)
      If (feature 394968 <= 0.0224086857720843)
       Predict: 0.0
      Else (feature 394968 > 0.0224086857720843)
       Predict: 1.0
     Else (feature 203802 > 0.882366843710517)
      If (feature 301443 <= 0.798171623442969)
       Predict: 1.0
      Else (feature 301443 > 0.798171623442969)
       If (feature 425910 <= 0.080739091300085)
        Predict: 0.0
       Else (feature 425910 > 0.080739091300085)
        Predict: 1.0
    Else (feature 472425 > 0.705908493435854)
     If (feature 151353 <= 0.751769955963433)
      If (feature 448806 <= 0.0169116635843266)
       If (feature 7438 <= 0.0667164115018668)
        Predict: 0.0
       Else (feature 7438 > 0.0667164115018668)
        Predict: 1.0
      Else (feature 448806 > 0.0169116635843266)
       Predict: 1.0
     Else (feature 151353 > 0.751769955963433)
      If (feature 405983 <= 0.490385157576657)
       If (feature 117292 <= 0.809884233790103)
        If (feature 118091 <= 0.00817046095426961)
         Predict: 0.0
        Else (feature 118091 > 0.00817046095426961)
         Predict: 1.0
       Else (feature 117292 > 0.809884233790103)
        Predict: 0.0
      Else (feature 405983 > 0.490385157576657)
       If (feature 66037 <= 0.0481481834573028)
        If (feature 174272 <= 0.772403942483548)
         Predict: 0.0
        Else (feature 174272 > 0.772403942483548)
         Predict: 1.0
       Else (feature 66037 > 0.0481481834573028)
        Predict: 1.0
  Tree 5:
    If (feature 443585 <= 0.456465814984897)
     If (feature 3524 <= 0.433548775580035)
      Predict: 1.0
     Else (feature 3524 > 0.433548775580035)
      If (feature 412065 <= 0.3833037334471)
       If (feature 438716 <= 0.513910104489425)
        Predict: 0.0
       Else (feature 438716 > 0.513910104489425)
        Predict: 1.0
      Else (feature 412065 > 0.3833037334471)
       Predict: 1.0
    Else (feature 443585 > 0.456465814984897)
     If (feature 1615 <= 0.799976960656638)
      If (feature 302100 <= 0.527678830091937)
       Predict: 1.0
      Else (feature 302100 > 0.527678830091937)
       If (feature 106563 <= 0.254741209668158)
        Predict: 1.0
       Else (feature 106563 > 0.254741209668158)
        Predict: 0.0
     Else (feature 1615 > 0.799976960656638)
      If (feature 429592 <= 0.663678234081747)
       If (feature 369513 <= 0.0195653750788202)
        Predict: 0.0
       Else (feature 369513 > 0.0195653750788202)
        Predict: 1.0
      Else (feature 429592 > 0.663678234081747)
       If (feature 260279 <= 0.183157906337613)
        If (feature 431898 <= 0.107912019277731)
         Predict: 1.0
        Else (feature 431898 > 0.107912019277731)
         Predict: 0.0
       Else (feature 260279 > 0.183157906337613)
        Predict: 1.0
  Tree 6:
    If (feature 233291 <= 0.309588146972346)
     If (feature 296780 <= 0.495796590568271)
      If (feature 355620 <= 0.664708305751038)
       Predict: 1.0
      Else (feature 355620 > 0.664708305751038)
       If (feature 300543 <= 0.574112553887034)
        If (feature 31288 <= 0.870930899011775)
         Predict: 1.0
        Else (feature 31288 > 0.870930899011775)
         Predict: 0.0
       Else (feature 300543 > 0.574112553887034)
        If (feature 89891 <= 0.92280714123009)
         Predict: 1.0
        Else (feature 89891 > 0.92280714123009)
         Predict: 0.0
     Else (feature 296780 > 0.495796590568271)
      If (feature 434737 <= 0.831605899854782)
       If (feature 402299 <= 0.0209296803092232)
        Predict: 1.0
       Else (feature 402299 > 0.0209296803092232)
        Predict: 0.0
      Else (feature 434737 > 0.831605899854782)
       If (feature 233414 <= 0.326236941453229)
        Predict: 1.0
       Else (feature 233414 > 0.326236941453229)
        If (feature 22624 <= 0.0604679087423984)
         Predict: 0.0
        Else (feature 22624 > 0.0604679087423984)
         Predict: 1.0
    Else (feature 233291 > 0.309588146972346)
     If (feature 319089 <= 0.0287488507026594)
      If (feature 263962 <= 0.359984641077747)
       Predict: 0.0
      Else (feature 263962 > 0.359984641077747)
       Predict: 1.0
     Else (feature 319089 > 0.0287488507026594)
      Predict: 1.0
  Tree 7:
    If (feature 143508 <= 0.204747928020628)
     If (feature 217572 <= 0.833278603529931)
      Predict: 1.0
     Else (feature 217572 > 0.833278603529931)
      If (feature 255685 <= 0.839302366480308)
       Predict: 1.0
      Else (feature 255685 > 0.839302366480308)
       If (feature 259750 <= 0.785968831235807)
        If (feature 112594 <= 0.786118643119873)
         Predict: 1.0
        Else (feature 112594 > 0.786118643119873)
         Predict: 0.0
       Else (feature 259750 > 0.785968831235807)
        Predict: 0.0
    Else (feature 143508 > 0.204747928020628)
     If (feature 355554 <= 0.931080565260118)
      If (feature 459903 <= 0.890814953179692)
       Predict: 1.0
      Else (feature 459903 > 0.890814953179692)
       If (feature 446104 <= 0.230266849802006)
        Predict: 0.0
       Else (feature 446104 > 0.230266849802006)
        Predict: 1.0
     Else (feature 355554 > 0.931080565260118)
      If (feature 28658 <= 0.0265721180333917)
       Predict: 0.0
      Else (feature 28658 > 0.0265721180333917)
       If (feature 264526 <= 0.0367951230434252)
        Predict: 0.0
       Else (feature 264526 > 0.0367951230434252)
        Predict: 1.0
  Tree 8:
    If (feature 270875 <= 0.859303217313292)
     If (feature 368685 <= 0.148026945934768)
      If (feature 245358 <= 0.94114070224882)
       Predict: 1.0
      Else (feature 245358 > 0.94114070224882)
       If (feature 46787 <= 0.338574036515131)
        Predict: 1.0
       Else (feature 46787 > 0.338574036515131)
        Predict: 0.0
     Else (feature 368685 > 0.148026945934768)
      If (feature 153932 <= 0.291205244105468)
       If (feature 284901 <= 0.0832548805692008)
        Predict: 0.0
       Else (feature 284901 > 0.0832548805692008)
        If (feature 93614 <= 0.654060646911597)
         Predict: 0.0
        Else (feature 93614 > 0.654060646911597)
         Predict: 1.0
      Else (feature 153932 > 0.291205244105468)
       Predict: 1.0
    Else (feature 270875 > 0.859303217313292)
     If (feature 44289 <= 0.832743645239459)
      If (feature 91813 <= 0.689052210978599)
       Predict: 1.0
      Else (feature 91813 > 0.689052210978599)
       If (feature 89949 <= 0.332979601884846)
        Predict: 1.0
       Else (feature 89949 > 0.332979601884846)
        If (feature 73862 <= 0.0289839915886013)
         Predict: 0.0
        Else (feature 73862 > 0.0289839915886013)
         Predict: 1.0
     Else (feature 44289 > 0.832743645239459)
      If (feature 192525 <= 0.908663370385544)
       Predict: 0.0
      Else (feature 192525 > 0.908663370385544)
       Predict: 1.0
  Tree 9:
    If (feature 248682 <= 0.396657520427497)
     If (feature 308144 <= 0.971438569486871)
      Predict: 1.0
     Else (feature 308144 > 0.971438569486871)
      If (feature 70703 <= 0.444548577251663)
       Predict: 1.0
      Else (feature 70703 > 0.444548577251663)
       Predict: 0.0
    Else (feature 248682 > 0.396657520427497)
     If (feature 396334 <= 0.689352520875606)
      If (feature 359077 <= 0.0218339988995984)
       If (feature 164382 <= 0.483486043188001)
        If (feature 79643 <= 0.857710051388877)
         Predict: 0.0
        Else (feature 79643 > 0.857710051388877)
         Predict: 1.0
       Else (feature 164382 > 0.483486043188001)
        Predict: 1.0
      Else (feature 359077 > 0.0218339988995984)
       If (feature 430333 <= 0.044392222318324)
        Predict: 0.0
       Else (feature 430333 > 0.044392222318324)
        Predict: 1.0
     Else (feature 396334 > 0.689352520875606)
      If (feature 407082 <= 0.820820037221954)
       If (feature 106081 <= 0.872856138945687)
        If (feature 484081 <= 0.65051676633694)
         Predict: 0.0
        Else (feature 484081 > 0.65051676633694)
         Predict: 1.0
       Else (feature 106081 > 0.872856138945687)
        If (feature 231020 <= 0.0381857920129651)
         Predict: 1.0
        Else (feature 231020 > 0.0381857920129651)
         Predict: 0.0
      Else (feature 407082 > 0.820820037221954)
       If (feature 89074 <= 0.687398254403531)
        Predict: 0.0
       Else (feature 89074 > 0.687398254403531)
        Predict: 1.0
  Tree 10:
    If (feature 143160 <= 0.792776131952938)
     If (feature 261577 <= 0.922037002250506)
      If (feature 105277 <= 0.096151304377681)
       Predict: 1.0
      Else (feature 105277 > 0.096151304377681)
       Predict: 0.0
     Else (feature 261577 > 0.922037002250506)
      If (feature 215707 <= 0.669684712043904)
       Predict: 1.0
      Else (feature 215707 > 0.669684712043904)
       If (feature 78889 <= 0.542085412111691)
        Predict: 0.0
       Else (feature 78889 > 0.542085412111691)
        Predict: 1.0
    Else (feature 143160 > 0.792776131952938)
     If (feature 468020 <= 0.519483022438358)
      If (feature 244290 <= 0.785592370200862)
       If (feature 375738 <= 0.929970145805132)
        Predict: 1.0
       Else (feature 375738 > 0.929970145805132)
        Predict: 0.0
      Else (feature 244290 > 0.785592370200862)
       If (feature 192429 <= 0.900068528201555)
        Predict: 1.0
       Else (feature 192429 > 0.900068528201555)
        If (feature 42699 <= 0.0521923829480987)
         Predict: 0.0
        Else (feature 42699 > 0.0521923829480987)
         Predict: 1.0
     Else (feature 468020 > 0.519483022438358)
      If (feature 480723 <= 0.65300640727131)
       If (feature 357862 <= 0.624929508282163)
        If (feature 92733 <= 0.880449957764637)
         Predict: 1.0
        Else (feature 92733 > 0.880449957764637)
         Predict: 0.0
       Else (feature 357862 > 0.624929508282163)
        Predict: 1.0
      Else (feature 480723 > 0.65300640727131)
       If (feature 6755 <= 0.025549655427969)
        Predict: 0.0
       Else (feature 6755 > 0.025549655427969)
        Predict: 1.0
  Tree 11:
    If (feature 378469 <= 0.729433911732333)
     If (feature 431378 <= 0.601086138443062)
      If (feature 100967 <= 0.011661733336991)
       If (feature 252814 <= 0.0198520491470633)
        Predict: 1.0
       Else (feature 252814 > 0.0198520491470633)
        Predict: 0.0
      Else (feature 100967 > 0.011661733336991)
       If (feature 185454 <= 0.829521195972626)
        Predict: 1.0
       Else (feature 185454 > 0.829521195972626)
        If (feature 220897 <= 0.433618515818289)
         Predict: 0.0
        Else (feature 220897 > 0.433618515818289)
         Predict: 1.0
     Else (feature 431378 > 0.601086138443062)
      If (feature 468785 <= 0.472607950706554)
       If (feature 431499 <= 0.29324452027341)
        If (feature 352594 <= 0.880418220445939)
         Predict: 1.0
        Else (feature 352594 > 0.880418220445939)
         Predict: 0.0
       Else (feature 431499 > 0.29324452027341)
        Predict: 1.0
      Else (feature 468785 > 0.472607950706554)
       If (feature 458102 <= 0.946122404886544)
        Predict: 1.0
       Else (feature 458102 > 0.946122404886544)
        If (feature 88249 <= 0.942922587384763)
         Predict: 0.0
        Else (feature 88249 > 0.942922587384763)
         Predict: 1.0
    Else (feature 378469 > 0.729433911732333)
     Predict: 1.0
  Tree 12:
    If (feature 247156 <= 0.436935262165595)
     If (feature 248107 <= 0.212758660799639)
      If (feature 61276 <= 0.694253972168955)
       If (feature 411986 <= 0.856250281982798)
        Predict: 1.0
       Else (feature 411986 > 0.856250281982798)
        Predict: 0.0
      Else (feature 61276 > 0.694253972168955)
       If (feature 252462 <= 0.956124295424333)
        Predict: 1.0
       Else (feature 252462 > 0.956124295424333)
        Predict: 0.0
     Else (feature 248107 > 0.212758660799639)
      If (feature 64555 <= 0.568091154024828)
       Predict: 1.0
      Else (feature 64555 > 0.568091154024828)
       If (feature 279079 <= 0.0886768241940262)
        If (feature 189611 <= 0.0785716878238789)
         Predict: 1.0
        Else (feature 189611 > 0.0785716878238789)
         Predict: 0.0
       Else (feature 279079 > 0.0886768241940262)
        If (feature 105557 <= 0.6955718125092)
         Predict: 1.0
        Else (feature 105557 > 0.6955718125092)
         Predict: 0.0
    Else (feature 247156 > 0.436935262165595)
     If (feature 250281 <= 0.963083243063359)
      If (feature 260625 <= 0.161348138483043)
       If (feature 422789 <= 0.23482769456833)
        Predict: 1.0
       Else (feature 422789 > 0.23482769456833)
        Predict: 0.0
      Else (feature 260625 > 0.161348138483043)
       Predict: 1.0
     Else (feature 250281 > 0.963083243063359)
      If (feature 45435 <= 0.0360028905421737)
       Predict: 0.0
      Else (feature 45435 > 0.0360028905421737)
       Predict: 1.0
  Tree 13:
    If (feature 428580 <= 0.307376660868111)
     If (feature 82106 <= 0.896154288888595)
      If (feature 113427 <= 0.0160262904774853)
       If (feature 67998 <= 0.800269876512156)
        Predict: 1.0
       Else (feature 67998 > 0.800269876512156)
        Predict: 0.0
      Else (feature 113427 > 0.0160262904774853)
       Predict: 1.0
     Else (feature 82106 > 0.896154288888595)
      If (feature 119432 <= 0.344674793535625)
       If (feature 57257 <= 0.0564766170730365)
        Predict: 1.0
       Else (feature 57257 > 0.0564766170730365)
        Predict: 0.0
      Else (feature 119432 > 0.344674793535625)
       Predict: 1.0
    Else (feature 428580 > 0.307376660868111)
     If (feature 341108 <= 0.920049750432982)
      If (feature 184924 <= 0.828065775492186)
       If (feature 127628 <= 0.67087645609048)
        If (feature 286192 <= 0.917542179328857)
         Predict: 1.0
        Else (feature 286192 > 0.917542179328857)
         Predict: 0.0
       Else (feature 127628 > 0.67087645609048)
        Predict: 1.0
      Else (feature 184924 > 0.828065775492186)
       If (feature 150102 <= 0.45598958066698)
        Predict: 0.0
       Else (feature 150102 > 0.45598958066698)
        Predict: 1.0
     Else (feature 341108 > 0.920049750432982)
      If (feature 448049 <= 0.0789164543070272)
       If (feature 63014 <= 0.935783969587918)
        Predict: 1.0
       Else (feature 63014 > 0.935783969587918)
        Predict: 0.0
      Else (feature 448049 > 0.0789164543070272)
       If (feature 400405 <= 0.106964204706461)
        Predict: 0.0
       Else (feature 400405 > 0.106964204706461)
        Predict: 1.0
  Tree 14:
    If (feature 372580 <= 0.831624881806555)
     If (feature 283506 <= 0.782785977672559)
      If (feature 381926 <= 0.0173393928623271)
       If (feature 99929 <= 0.0193366168964329)
        Predict: 1.0
       Else (feature 99929 > 0.0193366168964329)
        Predict: 0.0
      Else (feature 381926 > 0.0173393928623271)
       If (feature 360382 <= 0.372293884282207)
        Predict: 0.0
       Else (feature 360382 > 0.372293884282207)
        Predict: 1.0
     Else (feature 283506 > 0.782785977672559)
      If (feature 70553 <= 0.210499943617431)
       If (feature 152148 <= 0.157458639155936)
        Predict: 1.0
       Else (feature 152148 > 0.157458639155936)
        Predict: 0.0
      Else (feature 70553 > 0.210499943617431)
       If (feature 330916 <= 0.0383498814638353)
        Predict: 0.0
       Else (feature 330916 > 0.0383498814638353)
        Predict: 1.0
    Else (feature 372580 > 0.831624881806555)
     If (feature 246577 <= 0.853719698759694)
      If (feature 275910 <= 0.604647664198189)
       Predict: 1.0
      Else (feature 275910 > 0.604647664198189)
       Predict: 0.0
     Else (feature 246577 > 0.853719698759694)
      If (feature 404756 <= 0.475666429897366)
       If (feature 171435 <= 0.0974819106821689)
        Predict: 1.0
       Else (feature 171435 > 0.0974819106821689)
        Predict: 0.0
      Else (feature 404756 > 0.475666429897366)
       If (feature 88809 <= 0.957011129886961)
        If (feature 173250 <= 0.700659056235901)
         Predict: 1.0
        Else (feature 173250 > 0.700659056235901)
         Predict: 0.0
       Else (feature 88809 > 0.957011129886961)
        If (feature 90251 <= 0.626917851910702)
         Predict: 1.0
        Else (feature 90251 > 0.626917851910702)
         Predict: 1.0
  Tree 15:
    If (feature 415686 <= 0.914511698448806)
     If (feature 291682 <= 0.788817944268221)
      If (feature 330482 <= 0.73005841142138)
       If (feature 148091 <= 0.862296060928186)
        If (feature 125250 <= 0.932314848486202)
         Predict: 1.0
        Else (feature 125250 > 0.932314848486202)
         Predict: 0.0
       Else (feature 148091 > 0.862296060928186)
        Predict: 0.0
      Else (feature 330482 > 0.73005841142138)
       If (feature 449840 <= 0.461823103974571)
        Predict: 1.0
       Else (feature 449840 > 0.461823103974571)
        Predict: 0.0
     Else (feature 291682 > 0.788817944268221)
      If (feature 13737 <= 0.477506437791099)
       If (feature 334674 <= 0.355555618042471)
        Predict: 0.0
       Else (feature 334674 > 0.355555618042471)
        Predict: 1.0
      Else (feature 13737 > 0.477506437791099)
       If (feature 404689 <= 0.13645197381154)
        Predict: 0.0
       Else (feature 404689 > 0.13645197381154)
        Predict: 1.0
    Else (feature 415686 > 0.914511698448806)
     If (feature 458120 <= 0.0436207332486576)
      If (feature 305546 <= 0.459749943944916)
       If (feature 388135 <= 0.98166276453751)
        Predict: 1.0
       Else (feature 388135 > 0.98166276453751)
        If (feature 445406 <= 0.0422402723615253)
         Predict: 0.0
        Else (feature 445406 > 0.0422402723615253)
         Predict: 1.0
      Else (feature 305546 > 0.459749943944916)
       Predict: 0.0
     Else (feature 458120 > 0.0436207332486576)
      If (feature 311461 <= 0.0103028353154753)
       If (feature 273398 <= 0.0492989125247862)
        Predict: 0.0
       Else (feature 273398 > 0.0492989125247862)
        Predict: 1.0
      Else (feature 311461 > 0.0103028353154753)
       Predict: 1.0
  Tree 16:
    If (feature 442509 <= 0.722073319050111)
     If (feature 296982 <= 0.0394355408567802)
      If (feature 139489 <= 0.713675791337169)
       Predict: 0.0
      Else (feature 139489 > 0.713675791337169)
       Predict: 1.0
     Else (feature 296982 > 0.0394355408567802)
      If (feature 159447 <= 0.0120728840215088)
       If (feature 121557 <= 0.968776775796258)
        Predict: 0.0
       Else (feature 121557 > 0.968776775796258)
        Predict: 1.0
      Else (feature 159447 > 0.0120728840215088)
       Predict: 1.0
    Else (feature 442509 > 0.722073319050111)
     If (feature 96957 <= 0.817286512003955)
      If (feature 361271 <= 0.655082444938663)
       Predict: 1.0
      Else (feature 361271 > 0.655082444938663)
       If (feature 91647 <= 0.438730848593476)
        If (feature 19881 <= 0.0700729613801185)
         Predict: 0.0
        Else (feature 19881 > 0.0700729613801185)
         Predict: 1.0
       Else (feature 91647 > 0.438730848593476)
        Predict: 1.0
     Else (feature 96957 > 0.817286512003955)
      If (feature 196669 <= 0.0196307819751277)
       If (feature 347347 <= 0.537474841094997)
        Predict: 0.0
       Else (feature 347347 > 0.537474841094997)
        Predict: 1.0
      Else (feature 196669 > 0.0196307819751277)
       Predict: 1.0
  Tree 17:
    If (feature 254675 <= 0.776737486008898)
     If (feature 420682 <= 0.474187126830334)
      If (feature 21241 <= 0.0306861144024158)
       If (feature 257438 <= 0.0941328627645327)
        Predict: 0.0
       Else (feature 257438 > 0.0941328627645327)
        Predict: 1.0
      Else (feature 21241 > 0.0306861144024158)
       If (feature 224146 <= 0.955670346210223)
        If (feature 467173 <= 0.65328663608327)
         Predict: 0.0
        Else (feature 467173 > 0.65328663608327)
         Predict: 1.0
       Else (feature 224146 > 0.955670346210223)
        Predict: 0.0
     Else (feature 420682 > 0.474187126830334)
      If (feature 151365 <= 0.89061549505271)
       If (feature 284911 <= 0.503213679492702)
        Predict: 0.0
       Else (feature 284911 > 0.503213679492702)
        Predict: 1.0
      Else (feature 151365 > 0.89061549505271)
       Predict: 1.0
    Else (feature 254675 > 0.776737486008898)
     If (feature 464559 <= 0.978337466428739)
      If (feature 220371 <= 0.61358219120119)
       If (feature 376249 <= 0.941966403239774)
        Predict: 1.0
       Else (feature 376249 > 0.941966403239774)
        If (feature 171159 <= 0.116927127596339)
         Predict: 1.0
        Else (feature 171159 > 0.116927127596339)
         Predict: 0.0
      Else (feature 220371 > 0.61358219120119)
       If (feature 34692 <= 0.763383311033215)
        If (feature 309925 <= 0.522299500251266)
         Predict: 1.0
        Else (feature 309925 > 0.522299500251266)
         Predict: 0.0
       Else (feature 34692 > 0.763383311033215)
        Predict: 1.0
     Else (feature 464559 > 0.978337466428739)
      If (feature 99659 <= 0.916648398547377)
       Predict: 0.0
      Else (feature 99659 > 0.916648398547377)
       Predict: 1.0
  Tree 18:
    If (feature 264405 <= 0.0517347279934615)
     If (feature 273462 <= 0.779327248798185)
      If (feature 156599 <= 0.0996091459728165)
       If (feature 314176 <= 0.0631462007852822)
        Predict: 1.0
       Else (feature 314176 > 0.0631462007852822)
        Predict: 0.0
      Else (feature 156599 > 0.0996091459728165)
       Predict: 0.0
     Else (feature 273462 > 0.779327248798185)
      If (feature 64154 <= 0.58750698212939)
       Predict: 1.0
      Else (feature 64154 > 0.58750698212939)
       If (feature 475138 <= 0.79046448513263)
        Predict: 1.0
       Else (feature 475138 > 0.79046448513263)
        Predict: 0.0
    Else (feature 264405 > 0.0517347279934615)
     If (feature 469487 <= 0.613083227732088)
      If (feature 457125 <= 0.931380645166889)
       If (feature 103859 <= 0.0496532465208707)
        Predict: 1.0
       Else (feature 103859 > 0.0496532465208707)
        Predict: 0.0
      Else (feature 457125 > 0.931380645166889)
       If (feature 481523 <= 0.471291491263107)
        Predict: 1.0
       Else (feature 481523 > 0.471291491263107)
        Predict: 0.0
     Else (feature 469487 > 0.613083227732088)
      If (feature 358853 <= 0.599607860643341)
       If (feature 353640 <= 0.0297593398969089)
        Predict: 0.0
       Else (feature 353640 > 0.0297593398969089)
        Predict: 1.0
      Else (feature 358853 > 0.599607860643341)
       If (feature 265443 <= 0.030344830887544)
        If (feature 146489 <= 0.990106010295766)
         Predict: 1.0
        Else (feature 146489 > 0.990106010295766)
         Predict: 0.0
       Else (feature 265443 > 0.030344830887544)
        Predict: 1.0
  Tree 19:
    If (feature 247765 <= 0.0670615479861814)
     If (feature 352835 <= 0.35941855655152)
      If (feature 451923 <= 0.0163032465288303)
       Predict: 1.0
      Else (feature 451923 > 0.0163032465288303)
       Predict: 0.0
     Else (feature 352835 > 0.35941855655152)
      If (feature 215853 <= 0.817838228239508)
       If (feature 347257 <= 0.911364405957185)
        Predict: 1.0
       Else (feature 347257 > 0.911364405957185)
        Predict: 0.0
      Else (feature 215853 > 0.817838228239508)
       If (feature 131405 <= 0.362398598636987)
        Predict: 1.0
       Else (feature 131405 > 0.362398598636987)
        If (feature 403122 <= 0.110248182704243)
         Predict: 1.0
        Else (feature 403122 > 0.110248182704243)
         Predict: 0.0
    Else (feature 247765 > 0.0670615479861814)
     If (feature 194906 <= 0.103752301555059)
      If (feature 394376 <= 0.0297018241080612)
       If (feature 395943 <= 0.0953802804661636)
        Predict: 1.0
       Else (feature 395943 > 0.0953802804661636)
        Predict: 0.0
      Else (feature 394376 > 0.0297018241080612)
       If (feature 49436 <= 0.642815943924925)
        If (feature 179118 <= 0.915463449657023)
         Predict: 1.0
        Else (feature 179118 > 0.915463449657023)
         Predict: 0.0
       Else (feature 49436 > 0.642815943924925)
        Predict: 1.0
     Else (feature 194906 > 0.103752301555059)
      If (feature 89748 <= 0.801129857317127)
       If (feature 326984 <= 0.0304666097727144)
        Predict: 1.0
       Else (feature 326984 > 0.0304666097727144)
        Predict: 0.0
      Else (feature 89748 > 0.801129857317127)
       Predict: 1.0
