TreeEnsembleModel classifier with 20 trees

  Tree 0:
    If (feature 219059 <= 0.645673364797148)
     If (feature 317479 <= 0.573952361611396)
      Predict: 1.0
     Else (feature 317479 > 0.573952361611396)
      If (feature 260886 <= 0.57106459208713)
       Predict: 0.0
      Else (feature 260886 > 0.57106459208713)
       Predict: 1.0
    Else (feature 219059 > 0.645673364797148)
     If (feature 75702 <= 0.369819446828079)
      If (feature 348833 <= 0.823692629935608)
       If (feature 272458 <= 0.449218657637143)
        Predict: 0.0
       Else (feature 272458 > 0.449218657637143)
        Predict: 1.0
      Else (feature 348833 > 0.823692629935608)
       If (feature 389986 <= 0.893941217464274)
        Predict: 1.0
       Else (feature 389986 > 0.893941217464274)
        Predict: 0.0
     Else (feature 75702 > 0.369819446828079)
      Predict: 1.0
  Tree 1:
    If (feature 291281 <= 0.576611282361207)
     If (feature 259903 <= 0.898591432242231)
      If (feature 435451 <= 0.0812361158617816)
       Predict: 1.0
      Else (feature 435451 > 0.0812361158617816)
       Predict: 0.0
     Else (feature 259903 > 0.898591432242231)
      If (feature 113677 <= 0.686921767576552)
       Predict: 1.0
      Else (feature 113677 > 0.686921767576552)
       Predict: 0.0
    Else (feature 291281 > 0.576611282361207)
     If (feature 413812 <= 0.707810516146375)
      If (feature 344905 <= 0.929186936224156)
       If (feature 304260 <= 0.0606566432916288)
        Predict: 0.0
       Else (feature 304260 > 0.0606566432916288)
        Predict: 1.0
      Else (feature 344905 > 0.929186936224156)
       Predict: 0.0
     Else (feature 413812 > 0.707810516146375)
      Predict: 1.0
  Tree 2:
    If (feature 323980 <= 0.575245105110863)
     If (feature 166503 <= 0.698615705252487)
      If (feature 410205 <= 0.710442043246154)
       Predict: 1.0
      Else (feature 410205 > 0.710442043246154)
       Predict: 0.0
     Else (feature 166503 > 0.698615705252487)
      Predict: 1.0
    Else (feature 323980 > 0.575245105110863)
     If (feature 77053 <= 0.694090995437856)
      If (feature 381854 <= 0.942747013445157)
       Predict: 1.0
      Else (feature 381854 > 0.942747013445157)
       Predict: 0.0
     Else (feature 77053 > 0.694090995437856)
      If (feature 127293 <= 0.918327556631117)
       If (feature 182478 <= 0.0432766245278796)
        Predict: 0.0
       Else (feature 182478 > 0.0432766245278796)
        Predict: 1.0
      Else (feature 127293 > 0.918327556631117)
       If (feature 415768 <= 0.957729575525147)
        Predict: 1.0
       Else (feature 415768 > 0.957729575525147)
        Predict: 0.0
  Tree 3:
    If (feature 150816 <= 0.861055203622205)
     If (feature 241930 <= 0.733475230593283)
      Predict: 1.0
     Else (feature 241930 > 0.733475230593283)
      If (feature 320019 <= 0.593719951511952)
       Predict: 1.0
      Else (feature 320019 > 0.593719951511952)
       If (feature 182440 <= 0.207509953346967)
        Predict: 0.0
       Else (feature 182440 > 0.207509953346967)
        Predict: 1.0
    Else (feature 150816 > 0.861055203622205)
     If (feature 232512 <= 0.468430214521804)
      Predict: 1.0
     Else (feature 232512 > 0.468430214521804)
      If (feature 270403 <= 0.0167971934728459)
       Predict: 0.0
      Else (feature 270403 > 0.0167971934728459)
       Predict: 1.0
  Tree 4:
    If (feature 226833 <= 0.74497752570369)
     If (feature 280784 <= 0.29460188822289)
      If (feature 193013 <= 0.760134742091385)
       If (feature 89761 <= 0.575893819840762)
        Predict: 1.0
       Else (feature 89761 > 0.575893819840762)
        If (feature 179477 <= 0.011583803628763)
         Predict: 1.0
        Else (feature 179477 > 0.011583803628763)
         Predict: 0.0
      Else (feature 193013 > 0.760134742091385)
       Predict: 1.0
     Else (feature 280784 > 0.29460188822289)
      If (feature 297770 <= 0.671524592826142)
       If (feature 351418 <= 0.138240741053962)
        Predict: 0.0
       Else (feature 351418 > 0.138240741053962)
        Predict: 1.0
      Else (feature 297770 > 0.671524592826142)
       Predict: 1.0
    Else (feature 226833 > 0.74497752570369)
     If (feature 22561 <= 0.0536413889293695)
      If (feature 435751 <= 0.0731840858406843)
       Predict: 1.0
      Else (feature 435751 > 0.0731840858406843)
       If (feature 282410 <= 0.946783287608465)
        Predict: 0.0
       Else (feature 282410 > 0.946783287608465)
        Predict: 1.0
     Else (feature 22561 > 0.0536413889293695)
      Predict: 1.0
  Tree 5:
    If (feature 208543 <= 0.456301653575785)
     If (feature 474364 <= 0.339416115460893)
      Predict: 1.0
     Else (feature 474364 > 0.339416115460893)
      If (feature 348328 <= 0.939634493540399)
       Predict: 0.0
      Else (feature 348328 > 0.939634493540399)
       Predict: 1.0
    Else (feature 208543 > 0.456301653575785)
     If (feature 413030 <= 0.703543239552252)
      If (feature 116538 <= 0.16135731981697)
       If (feature 234525 <= 0.586806434282469)
        Predict: 1.0
       Else (feature 234525 > 0.586806434282469)
        Predict: 0.0
      Else (feature 116538 > 0.16135731981697)
       If (feature 134194 <= 0.0117449060086614)
        Predict: 0.0
       Else (feature 134194 > 0.0117449060086614)
        Predict: 1.0
     Else (feature 413030 > 0.703543239552252)
      Predict: 1.0
  Tree 6:
    If (feature 236320 <= 0.679633391349391)
     If (feature 462241 <= 0.658618884685274)
      If (feature 485124 <= 0.415014746377103)
       Predict: 1.0
      Else (feature 485124 > 0.415014746377103)
       If (feature 225501 <= 0.0102300779702753)
        Predict: 0.0
       Else (feature 225501 > 0.0102300779702753)
        Predict: 1.0
     Else (feature 462241 > 0.658618884685274)
      If (feature 286135 <= 0.0307229480788131)
       Predict: 0.0
      Else (feature 286135 > 0.0307229480788131)
       Predict: 1.0
    Else (feature 236320 > 0.679633391349391)
     If (feature 157170 <= 0.569578243823474)
      If (feature 177647 <= 0.157476119292221)
       If (feature 92895 <= 0.879187600477775)
        Predict: 0.0
       Else (feature 92895 > 0.879187600477775)
        If (feature 41042 <= 0.833843168798534)
         Predict: 1.0
        Else (feature 41042 > 0.833843168798534)
         Predict: 0.0
      Else (feature 177647 > 0.157476119292221)
       Predict: 1.0
     Else (feature 157170 > 0.569578243823474)
      Predict: 1.0
  Tree 7:
    If (feature 157552 <= 0.579740295389681)
     If (feature 387121 <= 0.966046018976074)
      Predict: 0.0
     Else (feature 387121 > 0.966046018976074)
      Predict: 1.0
    Else (feature 157552 > 0.579740295389681)
     If (feature 219215 <= 0.883880386284941)
      If (feature 324398 <= 0.979389693827309)
       If (feature 368301 <= 0.955565481759408)
        Predict: 1.0
       Else (feature 368301 > 0.955565481759408)
        If (feature 144105 <= 0.418022467234164)
         Predict: 0.0
        Else (feature 144105 > 0.418022467234164)
         Predict: 1.0
      Else (feature 324398 > 0.979389693827309)
       If (feature 87447 <= 0.0465382627426216)
        Predict: 0.0
       Else (feature 87447 > 0.0465382627426216)
        Predict: 1.0
     Else (feature 219215 > 0.883880386284941)
      If (feature 31623 <= 0.433008165217534)
       Predict: 0.0
      Else (feature 31623 > 0.433008165217534)
       If (feature 365778 <= 0.0191044445131592)
        Predict: 1.0
       Else (feature 365778 > 0.0191044445131592)
        Predict: 0.0
  Tree 8:
    If (feature 304486 <= 0.415081719601796)
     If (feature 252280 <= 0.471691257265101)
      If (feature 42573 <= 0.3582019417721)
       If (feature 6883 <= 0.760665070224691)
        Predict: 1.0
       Else (feature 6883 > 0.760665070224691)
        If (feature 203428 <= 0.391008700844181)
         Predict: 0.0
        Else (feature 203428 > 0.391008700844181)
         Predict: 1.0
      Else (feature 42573 > 0.3582019417721)
       If (feature 265540 <= 0.813563947957155)
        Predict: 1.0
       Else (feature 265540 > 0.813563947957155)
        Predict: 0.0
     Else (feature 252280 > 0.471691257265101)
      Predict: 0.0
    Else (feature 304486 > 0.415081719601796)
     If (feature 448192 <= 0.450135918659587)
      If (feature 396594 <= 0.678706723424091)
       If (feature 101572 <= 0.0101669573926926)
        Predict: 0.0
       Else (feature 101572 > 0.0101669573926926)
        Predict: 1.0
      Else (feature 396594 > 0.678706723424091)
       If (feature 409775 <= 0.0576513925475913)
        Predict: 0.0
       Else (feature 409775 > 0.0576513925475913)
        Predict: 1.0
     Else (feature 448192 > 0.450135918659587)
      If (feature 270830 <= 0.541023120206923)
       Predict: 1.0
      Else (feature 270830 > 0.541023120206923)
       Predict: 0.0
  Tree 9:
    If (feature 436378 <= 0.672777002832334)
     If (feature 170716 <= 0.900584481801051)
      Predict: 1.0
     Else (feature 170716 > 0.900584481801051)
      If (feature 293371 <= 0.444923446145821)
       If (feature 368592 <= 0.711998817590579)
        Predict: 1.0
       Else (feature 368592 > 0.711998817590579)
        Predict: 0.0
      Else (feature 293371 > 0.444923446145821)
       Predict: 1.0
    Else (feature 436378 > 0.672777002832334)
     If (feature 232114 <= 0.865279435616754)
      If (feature 32656 <= 0.712624850382097)
       Predict: 1.0
      Else (feature 32656 > 0.712624850382097)
       If (feature 344894 <= 0.048100696700049)
        Predict: 1.0
       Else (feature 344894 > 0.048100696700049)
        Predict: 0.0
     Else (feature 232114 > 0.865279435616754)
      If (feature 238992 <= 0.169926493473843)
       If (feature 351199 <= 0.916120483600884)
        Predict: 1.0
       Else (feature 351199 > 0.916120483600884)
        Predict: 0.0
      Else (feature 238992 > 0.169926493473843)
       Predict: 1.0
  Tree 10:
    If (feature 40440 <= 0.211394350346934)
     If (feature 3028 <= 0.50494715322486)
      If (feature 23344 <= 0.605291926121783)
       Predict: 1.0
      Else (feature 23344 > 0.605291926121783)
       If (feature 419357 <= 0.067701422234799)
        Predict: 1.0
       Else (feature 419357 > 0.067701422234799)
        Predict: 0.0
     Else (feature 3028 > 0.50494715322486)
      If (feature 267506 <= 0.0310689290784954)
       If (feature 466578 <= 0.502042685343207)
        If (feature 24511 <= 0.810762281755063)
         Predict: 0.0
        Else (feature 24511 > 0.810762281755063)
         Predict: 1.0
       Else (feature 466578 > 0.502042685343207)
        Predict: 0.0
      Else (feature 267506 > 0.0310689290784954)
       If (feature 139925 <= 0.0136210106009747)
        Predict: 0.0
       Else (feature 139925 > 0.0136210106009747)
        If (feature 288785 <= 0.649092237243918)
         Predict: 0.0
        Else (feature 288785 > 0.649092237243918)
         Predict: 1.0
    Else (feature 40440 > 0.211394350346934)
     If (feature 273606 <= 0.829738100332903)
      Predict: 0.0
     Else (feature 273606 > 0.829738100332903)
      Predict: 1.0
  Tree 11:
    If (feature 227410 <= 0.136867862791497)
     If (feature 41063 <= 0.545922522873802)
      If (feature 261282 <= 0.800460498506517)
       If (feature 19927 <= 0.806159961625768)
        Predict: 1.0
       Else (feature 19927 > 0.806159961625768)
        Predict: 0.0
      Else (feature 261282 > 0.800460498506517)
       Predict: 0.0
     Else (feature 41063 > 0.545922522873802)
      If (feature 53639 <= 0.528265369269317)
       Predict: 1.0
      Else (feature 53639 > 0.528265369269317)
       Predict: 0.0
    Else (feature 227410 > 0.136867862791497)
     If (feature 411668 <= 0.516482699572333)
      If (feature 430907 <= 0.684751793296236)
       If (feature 23504 <= 0.293672656917097)
        Predict: 0.0
       Else (feature 23504 > 0.293672656917097)
        Predict: 1.0
      Else (feature 430907 > 0.684751793296236)
       Predict: 1.0
     Else (feature 411668 > 0.516482699572333)
      If (feature 33293 <= 0.600638772067911)
       If (feature 19182 <= 0.904666391335858)
        Predict: 0.0
       Else (feature 19182 > 0.904666391335858)
        Predict: 1.0
      Else (feature 33293 > 0.600638772067911)
       Predict: 1.0
  Tree 12:
    If (feature 413598 <= 0.71010905232465)
     If (feature 301721 <= 0.716629112186626)
      Predict: 1.0
     Else (feature 301721 > 0.716629112186626)
      If (feature 69742 <= 0.483574433561466)
       If (feature 360892 <= 0.368346355156607)
        Predict: 1.0
       Else (feature 360892 > 0.368346355156607)
        Predict: 0.0
      Else (feature 69742 > 0.483574433561466)
       Predict: 1.0
    Else (feature 413598 > 0.71010905232465)
     If (feature 475922 <= 0.700653909337667)
      If (feature 188866 <= 0.723693433541556)
       If (feature 319509 <= 0.0333225562050721)
        Predict: 1.0
       Else (feature 319509 > 0.0333225562050721)
        Predict: 0.0
      Else (feature 188866 > 0.723693433541556)
       Predict: 1.0
     Else (feature 475922 > 0.700653909337667)
      If (feature 293937 <= 0.800154057654002)
       Predict: 0.0
      Else (feature 293937 > 0.800154057654002)
       Predict: 1.0
  Tree 13:
    If (feature 51970 <= 0.447708323903757)
     If (feature 260695 <= 0.809369586113284)
      Predict: 1.0
     Else (feature 260695 > 0.809369586113284)
      If (feature 472531 <= 0.429510108167076)
       Predict: 1.0
      Else (feature 472531 > 0.429510108167076)
       Predict: 0.0
    Else (feature 51970 > 0.447708323903757)
     If (feature 324038 <= 0.850913503073962)
      If (feature 277025 <= 0.202710528255768)
       Predict: 1.0
      Else (feature 277025 > 0.202710528255768)
       If (feature 416046 <= 0.952543532189696)
        Predict: 1.0
       Else (feature 416046 > 0.952543532189696)
        Predict: 0.0
     Else (feature 324038 > 0.850913503073962)
      If (feature 443068 <= 0.973719013173941)
       Predict: 0.0
      Else (feature 443068 > 0.973719013173941)
       Predict: 1.0
  Tree 14:
    If (feature 219248 <= 0.529041748647979)
     If (feature 202281 <= 0.520359861712367)
      If (feature 202041 <= 0.698726699206206)
       Predict: 1.0
      Else (feature 202041 > 0.698726699206206)
       Predict: 0.0
     Else (feature 202281 > 0.520359861712367)
      Predict: 1.0
    Else (feature 219248 > 0.529041748647979)
     If (feature 378125 <= 0.688617754720927)
      If (feature 362883 <= 0.871966490726087)
       Predict: 1.0
      Else (feature 362883 > 0.871966490726087)
       If (feature 346593 <= 0.103974179752468)
        Predict: 0.0
       Else (feature 346593 > 0.103974179752468)
        Predict: 1.0
     Else (feature 378125 > 0.688617754720927)
      If (feature 55721 <= 0.449725338894949)
       Predict: 0.0
      Else (feature 55721 > 0.449725338894949)
       Predict: 1.0
  Tree 15:
    If (feature 446740 <= 0.660053067877995)
     If (feature 419047 <= 0.915400434182099)
      If (feature 192587 <= 0.84393078313803)
       If (feature 94397 <= 0.0348889488909023)
        Predict: 1.0
       Else (feature 94397 > 0.0348889488909023)
        Predict: 0.0
      Else (feature 192587 > 0.84393078313803)
       Predict: 1.0
     Else (feature 419047 > 0.915400434182099)
      If (feature 296702 <= 0.0273688823696214)
       Predict: 0.0
      Else (feature 296702 > 0.0273688823696214)
       Predict: 1.0
    Else (feature 446740 > 0.660053067877995)
     If (feature 37153 <= 0.704008968802091)
      If (feature 65530 <= 0.0343541553213595)
       Predict: 0.0
      Else (feature 65530 > 0.0343541553213595)
       If (feature 127545 <= 0.774403232317036)
        Predict: 0.0
       Else (feature 127545 > 0.774403232317036)
        Predict: 1.0
     Else (feature 37153 > 0.704008968802091)
      If (feature 246209 <= 0.0739124479959791)
       Predict: 0.0
      Else (feature 246209 > 0.0739124479959791)
       If (feature 353203 <= 0.978094636763924)
        Predict: 0.0
       Else (feature 353203 > 0.978094636763924)
        Predict: 1.0
  Tree 16:
    If (feature 100185 <= 0.142527576264707)
     If (feature 118996 <= 0.482516819858247)
      Predict: 1.0
     Else (feature 118996 > 0.482516819858247)
      If (feature 349639 <= 0.878663532741924)
       If (feature 335351 <= 0.618294443203859)
        Predict: 1.0
       Else (feature 335351 > 0.618294443203859)
        Predict: 0.0
      Else (feature 349639 > 0.878663532741924)
       Predict: 1.0
    Else (feature 100185 > 0.142527576264707)
     If (feature 352773 <= 0.625656340337844)
      If (feature 448702 <= 0.978931221585981)
       If (feature 251982 <= 0.825475960923358)
        Predict: 1.0
       Else (feature 251982 > 0.825475960923358)
        Predict: 0.0
      Else (feature 448702 > 0.978931221585981)
       Predict: 1.0
     Else (feature 352773 > 0.625656340337844)
      If (feature 399441 <= 0.509375991191293)
       Predict: 1.0
      Else (feature 399441 > 0.509375991191293)
       Predict: 0.0
  Tree 17:
    If (feature 164376 <= 0.805173804610716)
     If (feature 324719 <= 0.869719626972031)
      If (feature 153149 <= 0.0327656172531187)
       Predict: 1.0
      Else (feature 153149 > 0.0327656172531187)
       Predict: 0.0
     Else (feature 324719 > 0.869719626972031)
      If (feature 253952 <= 0.0905153761364193)
       Predict: 0.0
      Else (feature 253952 > 0.0905153761364193)
       Predict: 1.0
    Else (feature 164376 > 0.805173804610716)
     If (feature 194015 <= 0.0870922507426751)
      If (feature 101481 <= 0.0463460752295145)
       Predict: 1.0
      Else (feature 101481 > 0.0463460752295145)
       Predict: 0.0
     Else (feature 194015 > 0.0870922507426751)
      If (feature 213601 <= 0.195449639557359)
       If (feature 326984 <= 0.0265769376831821)
        Predict: 0.0
       Else (feature 326984 > 0.0265769376831821)
        Predict: 1.0
      Else (feature 213601 > 0.195449639557359)
       Predict: 1.0
  Tree 18:
    If (feature 344746 <= 0.314194114943246)
     If (feature 147592 <= 0.498848366741643)
      If (feature 165737 <= 0.888700285183098)
       Predict: 1.0
      Else (feature 165737 > 0.888700285183098)
       Predict: 0.0
     Else (feature 147592 > 0.498848366741643)
      Predict: 0.0
    Else (feature 344746 > 0.314194114943246)
     If (feature 247931 <= 0.837228906125747)
      If (feature 385363 <= 0.308912927849324)
       If (feature 170983 <= 0.0318752440206666)
        Predict: 1.0
       Else (feature 170983 > 0.0318752440206666)
        Predict: 0.0
      Else (feature 385363 > 0.308912927849324)
       Predict: 1.0
     Else (feature 247931 > 0.837228906125747)
      If (feature 128297 <= 0.738817971848864)
       If (feature 218910 <= 0.668995691484161)
        Predict: 1.0
       Else (feature 218910 > 0.668995691484161)
        If (feature 428722 <= 0.801110128571827)
         Predict: 0.0
        Else (feature 428722 > 0.801110128571827)
         Predict: 1.0
      Else (feature 128297 > 0.738817971848864)
       Predict: 1.0
  Tree 19:
    If (feature 283733 <= 0.344607796908713)
     If (feature 164302 <= 0.141131319496004)
      Predict: 1.0
     Else (feature 164302 > 0.141131319496004)
      If (feature 366304 <= 0.144676604180926)
       If (feature 170466 <= 0.802775187161156)
        Predict: 1.0
       Else (feature 170466 > 0.802775187161156)
        Predict: 0.0
      Else (feature 366304 > 0.144676604180926)
       Predict: 1.0
    Else (feature 283733 > 0.344607796908713)
     If (feature 46696 <= 0.586913897225382)
      If (feature 84259 <= 0.905188883564535)
       Predict: 1.0
      Else (feature 84259 > 0.905188883564535)
       If (feature 206756 <= 0.385716952023654)
        Predict: 1.0
       Else (feature 206756 > 0.385716952023654)
        Predict: 0.0
     Else (feature 46696 > 0.586913897225382)
      If (feature 172457 <= 0.0235368804826065)
       If (feature 270660 <= 0.50491597850325)
        Predict: 1.0
       Else (feature 270660 > 0.50491597850325)
        Predict: 0.0
      Else (feature 172457 > 0.0235368804826065)
       Predict: 1.0
