TreeEnsembleModel classifier with 20 trees

  Tree 0:
    If (feature 451451 <= 0.201855852367789)
     If (feature 219277 <= 0.790239156355005)
      If (feature 137463 <= 0.0570509631998033)
       Predict: 1.0
      Else (feature 137463 > 0.0570509631998033)
       Predict: 0.0
     Else (feature 219277 > 0.790239156355005)
      If (feature 251124 <= 0.746708565796935)
       If (feature 184325 <= 0.982110476360883)
        Predict: 1.0
       Else (feature 184325 > 0.982110476360883)
        Predict: 0.0
      Else (feature 251124 > 0.746708565796935)
       If (feature 191141 <= 0.841365591783146)
        Predict: 1.0
       Else (feature 191141 > 0.841365591783146)
        Predict: 0.0
    Else (feature 451451 > 0.201855852367789)
     If (feature 354214 <= 0.855797422497605)
      If (feature 320597 <= 0.744615491103151)
       If (feature 106442 <= 0.926801923756663)
        Predict: 0.0
       Else (feature 106442 > 0.926801923756663)
        Predict: 1.0
      Else (feature 320597 > 0.744615491103151)
       Predict: 1.0
     Else (feature 354214 > 0.855797422497605)
      If (feature 228183 <= 0.85238327890916)
       Predict: 0.0
      Else (feature 228183 > 0.85238327890916)
       Predict: 1.0
  Tree 1:
    If (feature 432947 <= 0.493535968451298)
     If (feature 158852 <= 0.511125059005749)
      Predict: 1.0
     Else (feature 158852 > 0.511125059005749)
      If (feature 214944 <= 0.0544425519767961)
       Predict: 1.0
      Else (feature 214944 > 0.0544425519767961)
       If (feature 213287 <= 0.229655944623448)
        Predict: 1.0
       Else (feature 213287 > 0.229655944623448)
        Predict: 0.0
    Else (feature 432947 > 0.493535968451298)
     If (feature 44649 <= 0.0418322517444725)
      If (feature 323128 <= 0.688321332484323)
       If (feature 51909 <= 0.91108094994616)
        Predict: 1.0
       Else (feature 51909 > 0.91108094994616)
        Predict: 0.0
      Else (feature 323128 > 0.688321332484323)
       If (feature 383711 <= 0.547067563483304)
        If (feature 448316 <= 0.0556192684623564)
         Predict: 1.0
        Else (feature 448316 > 0.0556192684623564)
         Predict: 0.0
       Else (feature 383711 > 0.547067563483304)
        Predict: 1.0
     Else (feature 44649 > 0.0418322517444725)
      If (feature 407259 <= 0.0472844548816186)
       Predict: 0.0
      Else (feature 407259 > 0.0472844548816186)
       Predict: 1.0
  Tree 2:
    If (feature 95267 <= 0.895124910727535)
     If (feature 412581 <= 0.784150305718429)
      If (feature 10919 <= 0.0108127384593032)
       Predict: 0.0
      Else (feature 10919 > 0.0108127384593032)
       Predict: 1.0
     Else (feature 412581 > 0.784150305718429)
      If (feature 424680 <= 0.987990162342683)
       Predict: 1.0
      Else (feature 424680 > 0.987990162342683)
       If (feature 396075 <= 0.861521859072865)
        Predict: 0.0
       Else (feature 396075 > 0.861521859072865)
        Predict: 1.0
    Else (feature 95267 > 0.895124910727535)
     If (feature 64058 <= 0.475310448664589)
      If (feature 169598 <= 0.712234516873003)
       Predict: 0.0
      Else (feature 169598 > 0.712234516873003)
       Predict: 1.0
     Else (feature 64058 > 0.475310448664589)
      Predict: 1.0
  Tree 3:
    If (feature 236838 <= 0.484410365052833)
     If (feature 276436 <= 0.670339369770454)
      If (feature 33172 <= 0.892575424485495)
       Predict: 1.0
      Else (feature 33172 > 0.892575424485495)
       If (feature 172526 <= 0.553188003535419)
        Predict: 1.0
       Else (feature 172526 > 0.553188003535419)
        Predict: 0.0
     Else (feature 276436 > 0.670339369770454)
      If (feature 352014 <= 0.937178920315487)
       If (feature 34534 <= 0.0789401132048399)
        Predict: 0.0
       Else (feature 34534 > 0.0789401132048399)
        Predict: 1.0
      Else (feature 352014 > 0.937178920315487)
       Predict: 1.0
    Else (feature 236838 > 0.484410365052833)
     If (feature 404297 <= 0.860025096355425)
      If (feature 380538 <= 0.122554024983094)
       Predict: 0.0
      Else (feature 380538 > 0.122554024983094)
       Predict: 1.0
     Else (feature 404297 > 0.860025096355425)
      Predict: 1.0
  Tree 4:
    If (feature 250475 <= 0.909533717769923)
     If (feature 293274 <= 0.68899676435132)
      If (feature 108435 <= 0.768253776420406)
       Predict: 1.0
      Else (feature 108435 > 0.768253776420406)
       Predict: 0.0
     Else (feature 293274 > 0.68899676435132)
      If (feature 237307 <= 0.589586517995985)
       If (feature 290931 <= 0.30747853764994)
        Predict: 1.0
       Else (feature 290931 > 0.30747853764994)
        Predict: 0.0
      Else (feature 237307 > 0.589586517995985)
       Predict: 1.0
    Else (feature 250475 > 0.909533717769923)
     If (feature 99892 <= 0.160180485538255)
      If (feature 335840 <= 0.686658092061958)
       If (feature 108023 <= 0.0752594714161263)
        Predict: 1.0
       Else (feature 108023 > 0.0752594714161263)
        Predict: 0.0
      Else (feature 335840 > 0.686658092061958)
       Predict: 1.0
     Else (feature 99892 > 0.160180485538255)
      If (feature 346287 <= 0.0138652914805643)
       If (feature 299276 <= 0.800160639396038)
        Predict: 1.0
       Else (feature 299276 > 0.800160639396038)
        Predict: 0.0
      Else (feature 346287 > 0.0138652914805643)
       Predict: 1.0
  Tree 5:
    If (feature 264838 <= 0.315132732572839)
     If (feature 72034 <= 0.570609739308002)
      If (feature 242790 <= 0.914507337002106)
       Predict: 1.0
      Else (feature 242790 > 0.914507337002106)
       Predict: 0.0
     Else (feature 72034 > 0.570609739308002)
      If (feature 434011 <= 0.839742843125194)
       If (feature 339708 <= 0.125338099449827)
        Predict: 0.0
       Else (feature 339708 > 0.125338099449827)
        Predict: 1.0
      Else (feature 434011 > 0.839742843125194)
       Predict: 1.0
    Else (feature 264838 > 0.315132732572839)
     If (feature 386299 <= 0.832890820369434)
      Predict: 1.0
     Else (feature 386299 > 0.832890820369434)
      If (feature 27133 <= 0.0283323546745516)
       Predict: 0.0
      Else (feature 27133 > 0.0283323546745516)
       Predict: 1.0
  Tree 6:
    If (feature 324075 <= 0.355794524019744)
     If (feature 41499 <= 0.0553987327809815)
      If (feature 197499 <= 0.85970530050693)
       Predict: 1.0
      Else (feature 197499 > 0.85970530050693)
       If (feature 384637 <= 0.0409993439628608)
        Predict: 1.0
       Else (feature 384637 > 0.0409993439628608)
        Predict: 0.0
     Else (feature 41499 > 0.0553987327809815)
      If (feature 429803 <= 0.531755697446465)
       If (feature 407269 <= 0.404436656067289)
        Predict: 0.0
       Else (feature 407269 > 0.404436656067289)
        Predict: 1.0
      Else (feature 429803 > 0.531755697446465)
       Predict: 1.0
    Else (feature 324075 > 0.355794524019744)
     If (feature 272067 <= 0.329241581099352)
      If (feature 255820 <= 0.153780720918512)
       If (feature 228985 <= 0.908278200303322)
        Predict: 0.0
       Else (feature 228985 > 0.908278200303322)
        Predict: 1.0
      Else (feature 255820 > 0.153780720918512)
       Predict: 1.0
     Else (feature 272067 > 0.329241581099352)
      Predict: 1.0
  Tree 7:
    If (feature 64332 <= 0.0483819466761363)
     If (feature 424668 <= 0.387778336349215)
      Predict: 1.0
     Else (feature 424668 > 0.387778336349215)
      If (feature 76033 <= 0.61855018817374)
       If (feature 178695 <= 0.02726202651306)
        Predict: 0.0
       Else (feature 178695 > 0.02726202651306)
        Predict: 1.0
      Else (feature 76033 > 0.61855018817374)
       Predict: 0.0
    Else (feature 64332 > 0.0483819466761363)
     If (feature 323341 <= 0.768823500069682)
      If (feature 7853 <= 0.858880130578143)
       Predict: 1.0
      Else (feature 7853 > 0.858880130578143)
       Predict: 0.0
     Else (feature 323341 > 0.768823500069682)
      If (feature 438250 <= 0.42193501002922)
       If (feature 306008 <= 0.888441332180019)
        Predict: 1.0
       Else (feature 306008 > 0.888441332180019)
        Predict: 0.0
      Else (feature 438250 > 0.42193501002922)
       If (feature 295025 <= 0.0175022943724482)
        If (feature 145696 <= 0.0728239357226376)
         Predict: 0.0
        Else (feature 145696 > 0.0728239357226376)
         Predict: 1.0
       Else (feature 295025 > 0.0175022943724482)
        Predict: 1.0
  Tree 8:
    If (feature 316825 <= 0.352049264826398)
     If (feature 241250 <= 0.534788227904861)
      If (feature 250510 <= 0.807318471605297)
       Predict: 1.0
      Else (feature 250510 > 0.807318471605297)
       Predict: 0.0
     Else (feature 241250 > 0.534788227904861)
      If (feature 393874 <= 0.0110821138113117)
       If (feature 214665 <= 0.979269165291355)
        Predict: 0.0
       Else (feature 214665 > 0.979269165291355)
        Predict: 1.0
      Else (feature 393874 > 0.0110821138113117)
       Predict: 1.0
    Else (feature 316825 > 0.352049264826398)
     If (feature 379737 <= 0.0651244718396488)
      If (feature 373672 <= 0.281218204276089)
       If (feature 431014 <= 0.718954346130957)
        Predict: 1.0
       Else (feature 431014 > 0.718954346130957)
        If (feature 166645 <= 0.468556930778945)
         Predict: 0.0
        Else (feature 166645 > 0.468556930778945)
         Predict: 1.0
      Else (feature 373672 > 0.281218204276089)
       Predict: 1.0
     Else (feature 379737 > 0.0651244718396488)
      Predict: 1.0
  Tree 9:
    If (feature 80101 <= 0.479904443983698)
     If (feature 251863 <= 0.79139963257009)
      If (feature 116217 <= 0.649229097800916)
       Predict: 1.0
      Else (feature 116217 > 0.649229097800916)
       Predict: 0.0
     Else (feature 251863 > 0.79139963257009)
      If (feature 235678 <= 0.763529785692664)
       If (feature 223833 <= 0.0202303550711172)
        Predict: 0.0
       Else (feature 223833 > 0.0202303550711172)
        Predict: 1.0
      Else (feature 235678 > 0.763529785692664)
       If (feature 166042 <= 0.901401269408836)
        If (feature 366646 <= 0.701961742521111)
         Predict: 1.0
        Else (feature 366646 > 0.701961742521111)
         Predict: 0.0
       Else (feature 166042 > 0.901401269408836)
        Predict: 1.0
    Else (feature 80101 > 0.479904443983698)
     If (feature 99141 <= 0.846534457496792)
      If (feature 91633 <= 0.0515231317338873)
       Predict: 0.0
      Else (feature 91633 > 0.0515231317338873)
       Predict: 1.0
     Else (feature 99141 > 0.846534457496792)
      If (feature 375057 <= 0.844030190302509)
       Predict: 0.0
      Else (feature 375057 > 0.844030190302509)
       If (feature 429202 <= 0.958295261002891)
        Predict: 1.0
       Else (feature 429202 > 0.958295261002891)
        Predict: 0.0
  Tree 10:
    If (feature 362771 <= 0.664482157391461)
     If (feature 451389 <= 0.807973494012859)
      If (feature 169516 <= 0.956750114957254)
       Predict: 1.0
      Else (feature 169516 > 0.956750114957254)
       Predict: 0.0
     Else (feature 451389 > 0.807973494012859)
      Predict: 1.0
    Else (feature 362771 > 0.664482157391461)
     If (feature 268619 <= 0.217866648589199)
      If (feature 216963 <= 0.645633433837572)
       Predict: 1.0
      Else (feature 216963 > 0.645633433837572)
       Predict: 0.0
     Else (feature 268619 > 0.217866648589199)
      If (feature 170354 <= 0.932628077515321)
       Predict: 1.0
      Else (feature 170354 > 0.932628077515321)
       If (feature 270916 <= 0.693264885947422)
        Predict: 1.0
       Else (feature 270916 > 0.693264885947422)
        Predict: 0.0
  Tree 11:
    If (feature 300334 <= 0.0628554263851929)
     If (feature 110899 <= 0.319610322358165)
      If (feature 88571 <= 0.555001515501493)
       Predict: 0.0
      Else (feature 88571 > 0.555001515501493)
       Predict: 1.0
     Else (feature 110899 > 0.319610322358165)
      If (feature 426646 <= 0.699142584943474)
       If (feature 196272 <= 0.151057818243954)
        Predict: 1.0
       Else (feature 196272 > 0.151057818243954)
        Predict: 0.0
      Else (feature 426646 > 0.699142584943474)
       If (feature 13205 <= 0.74618215263386)
        Predict: 1.0
       Else (feature 13205 > 0.74618215263386)
        Predict: 0.0
    Else (feature 300334 > 0.0628554263851929)
     If (feature 13715 <= 0.949166286483213)
      Predict: 1.0
     Else (feature 13715 > 0.949166286483213)
      If (feature 459187 <= 0.874908320631615)
       Predict: 1.0
      Else (feature 459187 > 0.874908320631615)
       Predict: 0.0
  Tree 12:
    If (feature 451160 <= 0.445150542400377)
     If (feature 451166 <= 0.574392570103404)
      If (feature 314625 <= 0.408207487993457)
       Predict: 1.0
      Else (feature 314625 > 0.408207487993457)
       If (feature 285665 <= 0.315535461164124)
        Predict: 0.0
       Else (feature 285665 > 0.315535461164124)
        Predict: 1.0
     Else (feature 451166 > 0.574392570103404)
      If (feature 229666 <= 0.0207420624776318)
       Predict: 0.0
      Else (feature 229666 > 0.0207420624776318)
       Predict: 1.0
    Else (feature 451160 > 0.445150542400377)
     If (feature 242299 <= 0.379893279212591)
      If (feature 434331 <= 0.35754660848425)
       If (feature 162685 <= 0.0669501857648343)
        Predict: 1.0
       Else (feature 162685 > 0.0669501857648343)
        Predict: 0.0
      Else (feature 434331 > 0.35754660848425)
       Predict: 1.0
     Else (feature 242299 > 0.379893279212591)
      If (feature 319223 <= 0.0297049578669152)
       If (feature 101948 <= 0.7865430784782)
        If (feature 76628 <= 0.342489800217383)
         Predict: 0.0
        Else (feature 76628 > 0.342489800217383)
         Predict: 1.0
       Else (feature 101948 > 0.7865430784782)
        Predict: 1.0
      Else (feature 319223 > 0.0297049578669152)
       Predict: 1.0
  Tree 13:
    If (feature 483991 <= 0.896918456200917)
     If (feature 128486 <= 0.764848537245622)
      If (feature 354673 <= 0.857645588090542)
       Predict: 1.0
      Else (feature 354673 > 0.857645588090542)
       Predict: 0.0
     Else (feature 128486 > 0.764848537245622)
      Predict: 1.0
    Else (feature 483991 > 0.896918456200917)
     If (feature 288151 <= 0.800773153199541)
      If (feature 234729 <= 0.670335970797524)
       Predict: 1.0
      Else (feature 234729 > 0.670335970797524)
       If (feature 411013 <= 0.253006089088431)
        Predict: 0.0
       Else (feature 411013 > 0.253006089088431)
        Predict: 1.0
     Else (feature 288151 > 0.800773153199541)
      If (feature 29596 <= 0.131652491320635)
       If (feature 22942 <= 0.489477407333902)
        Predict: 0.0
       Else (feature 22942 > 0.489477407333902)
        Predict: 1.0
      Else (feature 29596 > 0.131652491320635)
       If (feature 274498 <= 0.841838878788408)
        Predict: 0.0
       Else (feature 274498 > 0.841838878788408)
        Predict: 1.0
  Tree 14:
    If (feature 98009 <= 0.301843217774534)
     If (feature 282332 <= 0.539593876695186)
      If (feature 462016 <= 0.0147945881216026)
       Predict: 0.0
      Else (feature 462016 > 0.0147945881216026)
       If (feature 191939 <= 0.987805184658781)
        Predict: 1.0
       Else (feature 191939 > 0.987805184658781)
        Predict: 0.0
     Else (feature 282332 > 0.539593876695186)
      If (feature 191457 <= 0.149596511489021)
       If (feature 202586 <= 0.230476925848237)
        Predict: 0.0
       Else (feature 202586 > 0.230476925848237)
        Predict: 1.0
      Else (feature 191457 > 0.149596511489021)
       Predict: 1.0
    Else (feature 98009 > 0.301843217774534)
     If (feature 382280 <= 0.797623378832394)
      If (feature 445357 <= 0.329947657115377)
       Predict: 1.0
      Else (feature 445357 > 0.329947657115377)
       Predict: 0.0
     Else (feature 382280 > 0.797623378832394)
      Predict: 1.0
  Tree 15:
    If (feature 464635 <= 0.817021049129715)
     If (feature 353925 <= 0.661867793306182)
      If (feature 209625 <= 0.951817954233614)
       Predict: 1.0
      Else (feature 209625 > 0.951817954233614)
       Predict: 0.0
     Else (feature 353925 > 0.661867793306182)
      If (feature 394460 <= 0.0628987877376094)
       If (feature 95172 <= 0.807904123241557)
        Predict: 1.0
       Else (feature 95172 > 0.807904123241557)
        Predict: 0.0
      Else (feature 394460 > 0.0628987877376094)
       Predict: 1.0
    Else (feature 464635 > 0.817021049129715)
     If (feature 421062 <= 0.68283325364882)
      If (feature 362363 <= 0.019962979863137)
       If (feature 396402 <= 0.00986945724909629)
        Predict: 0.0
       Else (feature 396402 > 0.00986945724909629)
        Predict: 1.0
      Else (feature 362363 > 0.019962979863137)
       Predict: 1.0
     Else (feature 421062 > 0.68283325364882)
      If (feature 168796 <= 0.679856111547785)
       Predict: 1.0
      Else (feature 168796 > 0.679856111547785)
       Predict: 0.0
  Tree 16:
    If (feature 107238 <= 0.69599608839676)
     If (feature 248787 <= 0.363262422590297)
      Predict: 1.0
     Else (feature 248787 > 0.363262422590297)
      If (feature 385595 <= 0.854273626747331)
       Predict: 1.0
      Else (feature 385595 > 0.854273626747331)
       If (feature 279252 <= 0.606270760159438)
        If (feature 267463 <= 0.674290131670813)
         Predict: 1.0
        Else (feature 267463 > 0.674290131670813)
         Predict: 0.0
       Else (feature 279252 > 0.606270760159438)
        If (feature 434893 <= 0.203637203036422)
         Predict: 1.0
        Else (feature 434893 > 0.203637203036422)
         Predict: 0.0
    Else (feature 107238 > 0.69599608839676)
     If (feature 164180 <= 0.722963794457051)
      If (feature 350104 <= 0.73333863878264)
       Predict: 1.0
      Else (feature 350104 > 0.73333863878264)
       Predict: 0.0
     Else (feature 164180 > 0.722963794457051)
      Predict: 1.0
  Tree 17:
    If (feature 64022 <= 0.890392707431453)
     If (feature 340763 <= 0.0131894352910797)
      If (feature 52503 <= 0.904055865806297)
       Predict: 1.0
      Else (feature 52503 > 0.904055865806297)
       Predict: 0.0
     Else (feature 340763 > 0.0131894352910797)
      If (feature 438770 <= 0.0801894643736309)
       Predict: 1.0
      Else (feature 438770 > 0.0801894643736309)
       If (feature 440679 <= 0.0352275605140138)
        Predict: 0.0
       Else (feature 440679 > 0.0352275605140138)
        Predict: 1.0
    Else (feature 64022 > 0.890392707431453)
     If (feature 197213 <= 0.404694086605715)
      If (feature 219816 <= 0.384881403503734)
       If (feature 469748 <= 0.117861851454382)
        If (feature 114088 <= 0.910733638842348)
         Predict: 0.0
        Else (feature 114088 > 0.910733638842348)
         Predict: 1.0
       Else (feature 469748 > 0.117861851454382)
        Predict: 1.0
      Else (feature 219816 > 0.384881403503734)
       Predict: 1.0
     Else (feature 197213 > 0.404694086605715)
      Predict: 1.0
  Tree 18:
    If (feature 284630 <= 0.767124348244207)
     If (feature 138947 <= 0.911282881581495)
      Predict: 1.0
     Else (feature 138947 > 0.911282881581495)
      If (feature 398136 <= 0.0359378720735264)
       Predict: 0.0
      Else (feature 398136 > 0.0359378720735264)
       Predict: 1.0
    Else (feature 284630 > 0.767124348244207)
     If (feature 451771 <= 0.306139808026304)
      If (feature 284289 <= 0.409516678382113)
       If (feature 422444 <= 0.165620672982769)
        Predict: 1.0
       Else (feature 422444 > 0.165620672982769)
        Predict: 0.0
      Else (feature 284289 > 0.409516678382113)
       Predict: 1.0
     Else (feature 451771 > 0.306139808026304)
      If (feature 468624 <= 0.819144321575723)
       Predict: 0.0
      Else (feature 468624 > 0.819144321575723)
       Predict: 1.0
  Tree 19:
    If (feature 33665 <= 0.11133799028582)
     If (feature 254737 <= 0.241004612255481)
      Predict: 1.0
     Else (feature 254737 > 0.241004612255481)
      If (feature 286330 <= 0.837854579329077)
       Predict: 0.0
      Else (feature 286330 > 0.837854579329077)
       Predict: 1.0
    Else (feature 33665 > 0.11133799028582)
     If (feature 310557 <= 0.225457511306656)
      If (feature 64688 <= 0.722724478619723)
       If (feature 173959 <= 0.0529861493126821)
        Predict: 1.0
       Else (feature 173959 > 0.0529861493126821)
        Predict: 0.0
      Else (feature 64688 > 0.722724478619723)
       Predict: 1.0
     Else (feature 310557 > 0.225457511306656)
      If (feature 63171 <= 0.947920860705227)
       If (feature 271906 <= 0.625889418115231)
        If (feature 96960 <= 0.900220059918338)
         Predict: 1.0
        Else (feature 96960 > 0.900220059918338)
         Predict: 0.0
       Else (feature 271906 > 0.625889418115231)
        Predict: 1.0
      Else (feature 63171 > 0.947920860705227)
       If (feature 244114 <= 0.740567862206423)
        Predict: 0.0
       Else (feature 244114 > 0.740567862206423)
        Predict: 1.0
