TreeEnsembleModel classifier with 10 trees

  Tree 0:
    If (feature 87738 <= 0.709901200991946)
     If (feature 321852 <= 0.832814238338161)
      If (feature 61287 <= 0.756073828391324)
       If (feature 217481 <= 0.560468929427968)
        Predict: 0.0
       Else (feature 217481 > 0.560468929427968)
        Predict: 1.0
      Else (feature 61287 > 0.756073828391324)
       Predict: 1.0
     Else (feature 321852 > 0.832814238338161)
      If (feature 161269 <= 0.00868189541256534)
       If (feature 384577 <= 0.774387144463463)
        Predict: 0.0
       Else (feature 384577 > 0.774387144463463)
        Predict: 1.0
      Else (feature 161269 > 0.00868189541256534)
       Predict: 1.0
    Else (feature 87738 > 0.709901200991946)
     If (feature 291406 <= 0.593060033728385)
      Predict: 1.0
     Else (feature 291406 > 0.593060033728385)
      If (feature 76200 <= 0.308044269301567)
       Predict: 0.0
      Else (feature 76200 > 0.308044269301567)
       Predict: 1.0
  Tree 1:
    If (feature 269455 <= 0.633621810269286)
     If (feature 142537 <= 0.67878956286303)
      If (feature 376266 <= 0.986190522220644)
       Predict: 1.0
      Else (feature 376266 > 0.986190522220644)
       Predict: 0.0
     Else (feature 142537 > 0.67878956286303)
      If (feature 281561 <= 0.867227728921408)
       Predict: 1.0
      Else (feature 281561 > 0.867227728921408)
       If (feature 103261 <= 0.144024948082282)
        Predict: 0.0
       Else (feature 103261 > 0.144024948082282)
        Predict: 1.0
    Else (feature 269455 > 0.633621810269286)
     If (feature 159507 <= 0.469897639375537)
      If (feature 3925 <= 0.685274037324796)
       Predict: 1.0
      Else (feature 3925 > 0.685274037324796)
       If (feature 141429 <= 0.976468036475084)
        Predict: 1.0
       Else (feature 141429 > 0.976468036475084)
        Predict: 0.0
     Else (feature 159507 > 0.469897639375537)
      If (feature 2572 <= 0.452766941534061)
       If (feature 466105 <= 0.440877584080501)
        Predict: 0.0
       Else (feature 466105 > 0.440877584080501)
        Predict: 1.0
      Else (feature 2572 > 0.452766941534061)
       Predict: 1.0
  Tree 2:
    If (feature 390561 <= 0.677722521911347)
     If (feature 270752 <= 0.944970095046764)
      Predict: 1.0
     Else (feature 270752 > 0.944970095046764)
      If (feature 223880 <= 0.446353396442668)
       Predict: 1.0
      Else (feature 223880 > 0.446353396442668)
       Predict: 0.0
    Else (feature 390561 > 0.677722521911347)
     If (feature 138330 <= 0.326536098710829)
      If (feature 32890 <= 0.712324941895691)
       If (feature 264568 <= 0.0266472515423901)
        Predict: 0.0
       Else (feature 264568 > 0.0266472515423901)
        Predict: 1.0
      Else (feature 32890 > 0.712324941895691)
       If (feature 420617 <= 0.780303322002137)
        Predict: 1.0
       Else (feature 420617 > 0.780303322002137)
        Predict: 0.0
     Else (feature 138330 > 0.326536098710829)
      If (feature 479850 <= 0.569753122552654)
       Predict: 1.0
      Else (feature 479850 > 0.569753122552654)
       If (feature 319164 <= 0.771962445885891)
        Predict: 0.0
       Else (feature 319164 > 0.771962445885891)
        Predict: 1.0
  Tree 3:
    If (feature 365991 <= 0.708141179572264)
     If (feature 417850 <= 0.784496156058112)
      If (feature 324490 <= 0.138719563079497)
       Predict: 1.0
      Else (feature 324490 > 0.138719563079497)
       Predict: 0.0
     Else (feature 417850 > 0.784496156058112)
      If (feature 434677 <= 0.925677113424723)
       If (feature 78127 <= 0.958856122701249)
        Predict: 1.0
       Else (feature 78127 > 0.958856122701249)
        Predict: 0.0
      Else (feature 434677 > 0.925677113424723)
       Predict: 1.0
    Else (feature 365991 > 0.708141179572264)
     If (feature 240046 <= 0.328066777822704)
      If (feature 387849 <= 0.051330118068309)
       Predict: 0.0
      Else (feature 387849 > 0.051330118068309)
       Predict: 1.0
     Else (feature 240046 > 0.328066777822704)
      If (feature 189520 <= 0.986198872114605)
       Predict: 1.0
      Else (feature 189520 > 0.986198872114605)
       Predict: 0.0
  Tree 4:
    If (feature 160331 <= 0.316962645589078)
     If (feature 247535 <= 0.701330127529723)
      Predict: 1.0
     Else (feature 247535 > 0.701330127529723)
      If (feature 334112 <= 0.153467848850003)
       If (feature 210674 <= 0.784197606598854)
        Predict: 0.0
       Else (feature 210674 > 0.784197606598854)
        Predict: 1.0
      Else (feature 334112 > 0.153467848850003)
       Predict: 1.0
    Else (feature 160331 > 0.316962645589078)
     If (feature 115204 <= 0.624710342424192)
      If (feature 164948 <= 0.944285743067094)
       Predict: 1.0
      Else (feature 164948 > 0.944285743067094)
       If (feature 378943 <= 0.0305317340495189)
        Predict: 0.0
       Else (feature 378943 > 0.0305317340495189)
        Predict: 1.0
     Else (feature 115204 > 0.624710342424192)
      If (feature 51746 <= 0.269466959101401)
       Predict: 1.0
      Else (feature 51746 > 0.269466959101401)
       Predict: 0.0
  Tree 5:
    If (feature 247571 <= 0.580866300731447)
     If (feature 241250 <= 0.537172688501174)
      If (feature 182993 <= 0.0680158491648864)
       Predict: 0.0
      Else (feature 182993 > 0.0680158491648864)
       Predict: 1.0
     Else (feature 241250 > 0.537172688501174)
      If (feature 130316 <= 0.944215717144327)
       Predict: 1.0
      Else (feature 130316 > 0.944215717144327)
       If (feature 290246 <= 0.491305760471969)
        Predict: 0.0
       Else (feature 290246 > 0.491305760471969)
        Predict: 1.0
    Else (feature 247571 > 0.580866300731447)
     If (feature 2276 <= 0.715609657662928)
      If (feature 432723 <= 0.627015104456415)
       Predict: 0.0
      Else (feature 432723 > 0.627015104456415)
       Predict: 1.0
     Else (feature 2276 > 0.715609657662928)
      If (feature 184941 <= 0.748142645479166)
       Predict: 1.0
      Else (feature 184941 > 0.748142645479166)
       If (feature 454102 <= 0.0967427297802916)
        Predict: 1.0
       Else (feature 454102 > 0.0967427297802916)
        Predict: 0.0
  Tree 6:
    If (feature 280576 <= 0.670206850124028)
     If (feature 87870 <= 0.562000306643316)
      If (feature 99472 <= 0.232463916575766)
       Predict: 1.0
      Else (feature 99472 > 0.232463916575766)
       Predict: 0.0
     Else (feature 87870 > 0.562000306643316)
      Predict: 1.0
    Else (feature 280576 > 0.670206850124028)
     If (feature 323060 <= 0.293712366211963)
      If (feature 390404 <= 0.94003518510713)
       Predict: 0.0
      Else (feature 390404 > 0.94003518510713)
       If (feature 430137 <= 0.0316145184793065)
        Predict: 1.0
       Else (feature 430137 > 0.0316145184793065)
        Predict: 0.0
     Else (feature 323060 > 0.293712366211963)
      If (feature 362039 <= 0.95085624455811)
       If (feature 368164 <= 0.0131270630642364)
        Predict: 0.0
       Else (feature 368164 > 0.0131270630642364)
        Predict: 1.0
      Else (feature 362039 > 0.95085624455811)
       If (feature 165737 <= 0.715385016251946)
        Predict: 1.0
       Else (feature 165737 > 0.715385016251946)
        Predict: 0.0
  Tree 7:
    If (feature 196777 <= 0.750210753441706)
     If (feature 197555 <= 0.608741463969142)
      Predict: 1.0
     Else (feature 197555 > 0.608741463969142)
      If (feature 147999 <= 0.0736797606583004)
       Predict: 0.0
      Else (feature 147999 > 0.0736797606583004)
       Predict: 1.0
    Else (feature 196777 > 0.750210753441706)
     If (feature 264361 <= 0.391589542802727)
      If (feature 178614 <= 0.918421362943413)
       If (feature 255503 <= 0.93292842674738)
        Predict: 1.0
       Else (feature 255503 > 0.93292842674738)
        Predict: 0.0
      Else (feature 178614 > 0.918421362943413)
       If (feature 444096 <= 0.566384091078829)
        Predict: 1.0
       Else (feature 444096 > 0.566384091078829)
        Predict: 0.0
     Else (feature 264361 > 0.391589542802727)
      If (feature 471360 <= 0.608729360438336)
       If (feature 397091 <= 0.013048411241173)
        Predict: 0.0
       Else (feature 397091 > 0.013048411241173)
        Predict: 1.0
      Else (feature 471360 > 0.608729360438336)
       Predict: 1.0
  Tree 8:
    If (feature 78272 <= 0.548389032437381)
     If (feature 283446 <= 0.93645615309291)
      If (feature 100953 <= 0.257144194027612)
       If (feature 44677 <= 0.92440899183988)
        Predict: 1.0
       Else (feature 44677 > 0.92440899183988)
        If (feature 32366 <= 0.505944536977604)
         Predict: 0.0
        Else (feature 32366 > 0.505944536977604)
         Predict: 1.0
      Else (feature 100953 > 0.257144194027612)
       Predict: 0.0
     Else (feature 283446 > 0.93645615309291)
      If (feature 240983 <= 0.0157702796034589)
       Predict: 0.0
      Else (feature 240983 > 0.0157702796034589)
       Predict: 1.0
    Else (feature 78272 > 0.548389032437381)
     If (feature 412479 <= 0.910640624810932)
      If (feature 414570 <= 0.609216394280859)
       Predict: 0.0
      Else (feature 414570 > 0.609216394280859)
       Predict: 1.0
     Else (feature 412479 > 0.910640624810932)
      If (feature 33702 <= 0.357253739795655)
       If (feature 411435 <= 0.654292159470731)
        Predict: 1.0
       Else (feature 411435 > 0.654292159470731)
        Predict: 0.0
      Else (feature 33702 > 0.357253739795655)
       Predict: 1.0
  Tree 9:
    If (feature 336784 <= 0.445733401448607)
     If (feature 228586 <= 0.0578956280569763)
      If (feature 435465 <= 0.567313658257928)
       Predict: 1.0
      Else (feature 435465 > 0.567313658257928)
       Predict: 0.0
     Else (feature 228586 > 0.0578956280569763)
      If (feature 433381 <= 0.868016926297331)
       If (feature 145852 <= 0.794528871630693)
        Predict: 1.0
       Else (feature 145852 > 0.794528871630693)
        Predict: 0.0
      Else (feature 433381 > 0.868016926297331)
       Predict: 1.0
    Else (feature 336784 > 0.445733401448607)
     If (feature 462594 <= 0.322008166008136)
      If (feature 137967 <= 0.811303477440334)
       Predict: 0.0
      Else (feature 137967 > 0.811303477440334)
       If (feature 129907 <= 0.565415424361244)
        Predict: 0.0
       Else (feature 129907 > 0.565415424361244)
        Predict: 1.0
     Else (feature 462594 > 0.322008166008136)
      If (feature 242683 <= 0.0854940957246667)
       Predict: 0.0
      Else (feature 242683 > 0.0854940957246667)
       If (feature 235682 <= 0.960620630417956)
        Predict: 1.0
       Else (feature 235682 > 0.960620630417956)
        If (feature 253952 <= 0.0432892412460869)
         Predict: 0.0
        Else (feature 253952 > 0.0432892412460869)
         Predict: 1.0
