TreeEnsembleModel classifier with 20 trees

  Tree 0:
    If (feature 207107 <= 0.638608432396757)
     If (feature 106061 <= 0.688084742419375)
      If (feature 424818 <= 0.622460029319495)
       Predict: 1.0
      Else (feature 424818 > 0.622460029319495)
       If (feature 467880 <= 0.955234679228261)
        Predict: 0.0
       Else (feature 467880 > 0.955234679228261)
        Predict: 1.0
     Else (feature 106061 > 0.688084742419375)
      Predict: 1.0
    Else (feature 207107 > 0.638608432396757)
     If (feature 23920 <= 0.756799890284732)
      If (feature 237500 <= 0.742802259285815)
       Predict: 0.0
      Else (feature 237500 > 0.742802259285815)
       If (feature 187655 <= 0.137514880304664)
        Predict: 0.0
       Else (feature 187655 > 0.137514880304664)
        Predict: 1.0
     Else (feature 23920 > 0.756799890284732)
      If (feature 358409 <= 0.683427094046243)
       Predict: 0.0
      Else (feature 358409 > 0.683427094046243)
       Predict: 1.0
  Tree 1:
    If (feature 78648 <= 0.18512911868981)
     If (feature 130745 <= 0.554518374271442)
      Predict: 1.0
     Else (feature 130745 > 0.554518374271442)
      If (feature 114558 <= 0.249162532735748)
       If (feature 68256 <= 0.809587265804178)
        Predict: 0.0
       Else (feature 68256 > 0.809587265804178)
        Predict: 1.0
      Else (feature 114558 > 0.249162532735748)
       Predict: 1.0
    Else (feature 78648 > 0.18512911868981)
     If (feature 77913 <= 0.623961148235524)
      If (feature 290936 <= 0.763178243074144)
       If (feature 256118 <= 0.404093440431946)
        Predict: 0.0
       Else (feature 256118 > 0.404093440431946)
        If (feature 109253 <= 0.118439776322126)
         Predict: 1.0
        Else (feature 109253 > 0.118439776322126)
         Predict: 0.0
      Else (feature 290936 > 0.763178243074144)
       If (feature 471404 <= 0.353370331327747)
        Predict: 0.0
       Else (feature 471404 > 0.353370331327747)
        Predict: 1.0
     Else (feature 77913 > 0.623961148235524)
      Predict: 1.0
  Tree 2:
    If (feature 228016 <= 0.0571961694564169)
     If (feature 359563 <= 0.787791716130082)
      If (feature 333249 <= 0.912591382582019)
       Predict: 1.0
      Else (feature 333249 > 0.912591382582019)
       Predict: 0.0
     Else (feature 359563 > 0.787791716130082)
      If (feature 7389 <= 0.640305937248619)
       If (feature 310160 <= 0.158665763746057)
        Predict: 1.0
       Else (feature 310160 > 0.158665763746057)
        Predict: 0.0
      Else (feature 7389 > 0.640305937248619)
       Predict: 1.0
    Else (feature 228016 > 0.0571961694564169)
     If (feature 434593 <= 0.233522940131316)
      If (feature 336715 <= 0.351613692677274)
       If (feature 302667 <= 0.378844379452328)
        Predict: 0.0
       Else (feature 302667 > 0.378844379452328)
        Predict: 1.0
      Else (feature 336715 > 0.351613692677274)
       Predict: 1.0
     Else (feature 434593 > 0.233522940131316)
      If (feature 200499 <= 0.949821553016392)
       If (feature 26463 <= 0.310407357921582)
        Predict: 0.0
       Else (feature 26463 > 0.310407357921582)
        Predict: 1.0
      Else (feature 200499 > 0.949821553016392)
       Predict: 0.0
  Tree 3:
    If (feature 446333 <= 0.663929406921956)
     If (feature 141683 <= 0.501850008869583)
      Predict: 1.0
     Else (feature 141683 > 0.501850008869583)
      If (feature 217456 <= 0.89790407151689)
       Predict: 1.0
      Else (feature 217456 > 0.89790407151689)
       If (feature 335866 <= 0.177540175663877)
        Predict: 1.0
       Else (feature 335866 > 0.177540175663877)
        Predict: 0.0
    Else (feature 446333 > 0.663929406921956)
     If (feature 16112 <= 0.403461483168741)
      If (feature 91205 <= 0.53747847808427)
       Predict: 1.0
      Else (feature 91205 > 0.53747847808427)
       Predict: 0.0
     Else (feature 16112 > 0.403461483168741)
      Predict: 1.0
  Tree 4:
    If (feature 165572 <= 0.545294138353308)
     If (feature 101842 <= 0.01714252849237)
      If (feature 297327 <= 0.93945475702842)
       If (feature 163607 <= 0.623933033981282)
        If (feature 318998 <= 0.0146678711817137)
         Predict: 0.0
        Else (feature 318998 > 0.0146678711817137)
         Predict: 1.0
       Else (feature 163607 > 0.623933033981282)
        Predict: 1.0
      Else (feature 297327 > 0.93945475702842)
       If (feature 144910 <= 0.477867500326514)
        Predict: 0.0
       Else (feature 144910 > 0.477867500326514)
        Predict: 1.0
     Else (feature 101842 > 0.01714252849237)
      If (feature 97124 <= 0.795356603838293)
       Predict: 1.0
      Else (feature 97124 > 0.795356603838293)
       Predict: 0.0
    Else (feature 165572 > 0.545294138353308)
     If (feature 211435 <= 0.802566056836013)
      If (feature 149 <= 0.956473115644971)
       Predict: 1.0
      Else (feature 149 > 0.956473115644971)
       If (feature 324541 <= 0.0517547174683906)
        Predict: 0.0
       Else (feature 324541 > 0.0517547174683906)
        Predict: 1.0
     Else (feature 211435 > 0.802566056836013)
      If (feature 419900 <= 0.563407055441124)
       If (feature 325080 <= 0.964587359859201)
        Predict: 0.0
       Else (feature 325080 > 0.964587359859201)
        Predict: 1.0
      Else (feature 419900 > 0.563407055441124)
       If (feature 446252 <= 0.243517189663661)
        If (feature 411495 <= 0.557353095958231)
         Predict: 1.0
        Else (feature 411495 > 0.557353095958231)
         Predict: 0.0
       Else (feature 446252 > 0.243517189663661)
        Predict: 1.0
  Tree 5:
    If (feature 111360 <= 0.628048634923452)
     If (feature 334762 <= 0.341956358478335)
      If (feature 274089 <= 0.937861981153679)
       Predict: 0.0
      Else (feature 274089 > 0.937861981153679)
       Predict: 1.0
     Else (feature 334762 > 0.341956358478335)
      If (feature 123673 <= 0.0459497684137633)
       If (feature 39293 <= 0.0449242735621156)
        Predict: 1.0
       Else (feature 39293 > 0.0449242735621156)
        Predict: 0.0
      Else (feature 123673 > 0.0459497684137633)
       Predict: 1.0
    Else (feature 111360 > 0.628048634923452)
     If (feature 90680 <= 0.339432348631349)
      If (feature 89208 <= 0.452713784035141)
       Predict: 1.0
      Else (feature 89208 > 0.452713784035141)
       If (feature 369195 <= 0.903489586681823)
        Predict: 0.0
       Else (feature 369195 > 0.903489586681823)
        Predict: 1.0
     Else (feature 90680 > 0.339432348631349)
      Predict: 1.0
  Tree 6:
    If (feature 145318 <= 0.380895108025472)
     If (feature 169989 <= 0.84340612313455)
      If (feature 177644 <= 0.256959897698)
       Predict: 0.0
      Else (feature 177644 > 0.256959897698)
       Predict: 1.0
     Else (feature 169989 > 0.84340612313455)
      If (feature 151698 <= 0.157243040577384)
       If (feature 57332 <= 0.699366535067561)
        Predict: 1.0
       Else (feature 57332 > 0.699366535067561)
        Predict: 0.0
      Else (feature 151698 > 0.157243040577384)
       Predict: 1.0
    Else (feature 145318 > 0.380895108025472)
     If (feature 281865 <= 0.182708256960437)
      If (feature 298018 <= 0.575380662831364)
       Predict: 1.0
      Else (feature 298018 > 0.575380662831364)
       If (feature 61644 <= 0.941597718445346)
        If (feature 231890 <= 0.0198808799227801)
         Predict: 1.0
        Else (feature 231890 > 0.0198808799227801)
         Predict: 0.0
       Else (feature 61644 > 0.941597718445346)
        Predict: 1.0
     Else (feature 281865 > 0.182708256960437)
      If (feature 353561 <= 0.990329732817416)
       If (feature 216593 <= 0.871963301679856)
        Predict: 1.0
       Else (feature 216593 > 0.871963301679856)
        Predict: 0.0
      Else (feature 353561 > 0.990329732817416)
       Predict: 0.0
  Tree 7:
    If (feature 421752 <= 0.313069893459667)
     If (feature 159008 <= 0.318450575202209)
      If (feature 414222 <= 0.440829806858611)
       Predict: 1.0
      Else (feature 414222 > 0.440829806858611)
       If (feature 329559 <= 0.83229969544926)
        Predict: 0.0
       Else (feature 329559 > 0.83229969544926)
        Predict: 1.0
     Else (feature 159008 > 0.318450575202209)
      If (feature 798 <= 0.894191851899196)
       Predict: 0.0
      Else (feature 798 > 0.894191851899196)
       Predict: 1.0
    Else (feature 421752 > 0.313069893459667)
     If (feature 147908 <= 0.840606771707646)
      Predict: 1.0
     Else (feature 147908 > 0.840606771707646)
      If (feature 302141 <= 0.894192328730558)
       If (feature 293066 <= 0.796257492023076)
        Predict: 0.0
       Else (feature 293066 > 0.796257492023076)
        Predict: 1.0
      Else (feature 302141 > 0.894192328730558)
       If (feature 123005 <= 0.218467137325643)
        Predict: 0.0
       Else (feature 123005 > 0.218467137325643)
        Predict: 1.0
  Tree 8:
    If (feature 177639 <= 0.0620522368762067)
     If (feature 111968 <= 0.763378791505647)
      Predict: 1.0
     Else (feature 111968 > 0.763378791505647)
      If (feature 464114 <= 0.559821051687205)
       Predict: 1.0
      Else (feature 464114 > 0.559821051687205)
       Predict: 0.0
    Else (feature 177639 > 0.0620522368762067)
     If (feature 140390 <= 0.83656778887391)
      If (feature 24457 <= 0.0134467051301801)
       If (feature 65646 <= 0.781807733709444)
        Predict: 1.0
       Else (feature 65646 > 0.781807733709444)
        Predict: 0.0
      Else (feature 24457 > 0.0134467051301801)
       If (feature 483248 <= 0.181319212844541)
        If (feature 220139 <= 0.604069581734482)
         Predict: 1.0
        Else (feature 220139 > 0.604069581734482)
         Predict: 0.0
       Else (feature 483248 > 0.181319212844541)
        Predict: 1.0
     Else (feature 140390 > 0.83656778887391)
      If (feature 417413 <= 0.927114794044165)
       Predict: 0.0
      Else (feature 417413 > 0.927114794044165)
       Predict: 1.0
  Tree 9:
    If (feature 284652 <= 0.494999971246212)
     If (feature 166208 <= 0.523121933606424)
      If (feature 214527 <= 0.590630815509155)
       If (feature 395661 <= 0.0672171028155376)
        Predict: 1.0
       Else (feature 395661 > 0.0672171028155376)
        Predict: 0.0
      Else (feature 214527 > 0.590630815509155)
       If (feature 309614 <= 0.544914360469979)
        Predict: 1.0
       Else (feature 309614 > 0.544914360469979)
        Predict: 0.0
     Else (feature 166208 > 0.523121933606424)
      If (feature 379733 <= 0.581450952381885)
       Predict: 1.0
      Else (feature 379733 > 0.581450952381885)
       If (feature 427403 <= 0.706863598861071)
        Predict: 0.0
       Else (feature 427403 > 0.706863598861071)
        Predict: 1.0
    Else (feature 284652 > 0.494999971246212)
     If (feature 167571 <= 0.674945879104183)
      If (feature 77869 <= 0.385277988936497)
       Predict: 0.0
      Else (feature 77869 > 0.385277988936497)
       Predict: 1.0
     Else (feature 167571 > 0.674945879104183)
      If (feature 40023 <= 0.234532244021835)
       If (feature 446479 <= 0.875682981486889)
        Predict: 1.0
       Else (feature 446479 > 0.875682981486889)
        Predict: 0.0
      Else (feature 40023 > 0.234532244021835)
       Predict: 1.0
  Tree 10:
    If (feature 53631 <= 0.412297620063842)
     If (feature 139013 <= 0.666010292915749)
      Predict: 1.0
     Else (feature 139013 > 0.666010292915749)
      If (feature 270858 <= 0.191225473673041)
       Predict: 0.0
      Else (feature 270858 > 0.191225473673041)
       If (feature 178982 <= 0.0742186628760057)
        Predict: 1.0
       Else (feature 178982 > 0.0742186628760057)
        Predict: 0.0
    Else (feature 53631 > 0.412297620063842)
     If (feature 171222 <= 0.319573324471477)
      If (feature 357823 <= 0.228478298382498)
       If (feature 408106 <= 0.738556012590051)
        Predict: 1.0
       Else (feature 408106 > 0.738556012590051)
        Predict: 0.0
      Else (feature 357823 > 0.228478298382498)
       Predict: 1.0
     Else (feature 171222 > 0.319573324471477)
      If (feature 431358 <= 0.0338679508599255)
       Predict: 0.0
      Else (feature 431358 > 0.0338679508599255)
       Predict: 1.0
  Tree 11:
    If (feature 262858 <= 0.666764902195252)
     If (feature 146027 <= 0.775841584645647)
      If (feature 279360 <= 0.718796250220835)
       Predict: 0.0
      Else (feature 279360 > 0.718796250220835)
       Predict: 1.0
     Else (feature 146027 > 0.775841584645647)
      If (feature 397998 <= 0.966998141578046)
       Predict: 1.0
      Else (feature 397998 > 0.966998141578046)
       If (feature 36297 <= 0.206487947870896)
        Predict: 0.0
       Else (feature 36297 > 0.206487947870896)
        Predict: 1.0
    Else (feature 262858 > 0.666764902195252)
     If (feature 143558 <= 0.126579608693909)
      If (feature 318139 <= 0.168812537657621)
       If (feature 128754 <= 0.869827508911)
        If (feature 121376 <= 0.317711082418904)
         Predict: 1.0
        Else (feature 121376 > 0.317711082418904)
         Predict: 0.0
       Else (feature 128754 > 0.869827508911)
        Predict: 1.0
      Else (feature 318139 > 0.168812537657621)
       Predict: 1.0
     Else (feature 143558 > 0.126579608693909)
      If (feature 408475 <= 0.686363042220057)
       Predict: 0.0
      Else (feature 408475 > 0.686363042220057)
       Predict: 1.0
  Tree 12:
    If (feature 62465 <= 0.057862129329278)
     If (feature 272888 <= 0.599092531641385)
      If (feature 171103 <= 0.255381494661493)
       Predict: 1.0
      Else (feature 171103 > 0.255381494661493)
       If (feature 43497 <= 0.927034114400529)
        Predict: 1.0
       Else (feature 43497 > 0.927034114400529)
        Predict: 0.0
     Else (feature 272888 > 0.599092531641385)
      If (feature 404943 <= 0.520685727454485)
       If (feature 453677 <= 0.897829051825074)
        Predict: 0.0
       Else (feature 453677 > 0.897829051825074)
        Predict: 1.0
      Else (feature 404943 > 0.520685727454485)
       If (feature 142926 <= 0.021826178255412)
        Predict: 0.0
       Else (feature 142926 > 0.021826178255412)
        Predict: 1.0
    Else (feature 62465 > 0.057862129329278)
     If (feature 468306 <= 0.735624024034906)
      If (feature 158087 <= 0.276554113662579)
       Predict: 0.0
      Else (feature 158087 > 0.276554113662579)
       Predict: 1.0
     Else (feature 468306 > 0.735624024034906)
      If (feature 372128 <= 0.742465610547753)
       If (feature 58705 <= 0.0169491376234093)
        If (feature 192168 <= 0.939872713356917)
         Predict: 0.0
        Else (feature 192168 > 0.939872713356917)
         Predict: 1.0
       Else (feature 58705 > 0.0169491376234093)
        Predict: 1.0
      Else (feature 372128 > 0.742465610547753)
       Predict: 1.0
  Tree 13:
    If (feature 253093 <= 0.778053102432786)
     If (feature 121323 <= 0.988426978959643)
      If (feature 342206 <= 0.0933010379086019)
       If (feature 61154 <= 0.0298937568249201)
        Predict: 1.0
       Else (feature 61154 > 0.0298937568249201)
        Predict: 0.0
      Else (feature 342206 > 0.0933010379086019)
       Predict: 1.0
     Else (feature 121323 > 0.988426978959643)
      If (feature 79046 <= 0.314807501610435)
       Predict: 1.0
      Else (feature 79046 > 0.314807501610435)
       Predict: 0.0
    Else (feature 253093 > 0.778053102432786)
     If (feature 407216 <= 0.286157655812369)
      If (feature 287713 <= 0.408315963686007)
       If (feature 81713 <= 0.479534323814574)
        Predict: 1.0
       Else (feature 81713 > 0.479534323814574)
        Predict: 0.0
      Else (feature 287713 > 0.408315963686007)
       If (feature 310361 <= 0.0228308568481046)
        Predict: 0.0
       Else (feature 310361 > 0.0228308568481046)
        Predict: 1.0
     Else (feature 407216 > 0.286157655812369)
      Predict: 1.0
  Tree 14:
    If (feature 130326 <= 0.554513954463428)
     If (feature 230337 <= 0.990954928421379)
      If (feature 331242 <= 0.0729075489120281)
       If (feature 358078 <= 0.844526761258395)
        Predict: 0.0
       Else (feature 358078 > 0.844526761258395)
        Predict: 1.0
      Else (feature 331242 > 0.0729075489120281)
       Predict: 1.0
     Else (feature 230337 > 0.990954928421379)
      If (feature 7443 <= 0.568372263124439)
       Predict: 0.0
      Else (feature 7443 > 0.568372263124439)
       Predict: 1.0
    Else (feature 130326 > 0.554513954463428)
     If (feature 155499 <= 0.903051159548093)
      If (feature 485054 <= 0.556647717818425)
       If (feature 336742 <= 0.0244776224593986)
        If (feature 45139 <= 0.0301133470290882)
         Predict: 0.0
        Else (feature 45139 > 0.0301133470290882)
         Predict: 1.0
       Else (feature 336742 > 0.0244776224593986)
        If (feature 320778 <= 0.0120020704098851)
         Predict: 0.0
        Else (feature 320778 > 0.0120020704098851)
         Predict: 1.0
      Else (feature 485054 > 0.556647717818425)
       If (feature 476461 <= 0.434403764021494)
        Predict: 0.0
       Else (feature 476461 > 0.434403764021494)
        Predict: 1.0
     Else (feature 155499 > 0.903051159548093)
      If (feature 257747 <= 0.118775011522653)
       If (feature 120964 <= 0.898574924790733)
        Predict: 1.0
       Else (feature 120964 > 0.898574924790733)
        Predict: 0.0
      Else (feature 257747 > 0.118775011522653)
       Predict: 1.0
  Tree 15:
    If (feature 19908 <= 0.746585270937995)
     If (feature 191860 <= 0.327848374546234)
      If (feature 231530 <= 0.901683316024046)
       Predict: 1.0
      Else (feature 231530 > 0.901683316024046)
       If (feature 205330 <= 0.333751449549008)
        Predict: 0.0
       Else (feature 205330 > 0.333751449549008)
        Predict: 1.0
     Else (feature 191860 > 0.327848374546234)
      If (feature 56569 <= 0.250191432408222)
       If (feature 407597 <= 0.978993825035087)
        Predict: 0.0
       Else (feature 407597 > 0.978993825035087)
        Predict: 1.0
      Else (feature 56569 > 0.250191432408222)
       Predict: 1.0
    Else (feature 19908 > 0.746585270937995)
     If (feature 351392 <= 0.303761658272378)
      If (feature 68605 <= 0.62387860452784)
       If (feature 468208 <= 0.964411077742008)
        Predict: 1.0
       Else (feature 468208 > 0.964411077742008)
        Predict: 0.0
      Else (feature 68605 > 0.62387860452784)
       If (feature 422658 <= 0.957646785292312)
        Predict: 0.0
       Else (feature 422658 > 0.957646785292312)
        Predict: 1.0
     Else (feature 351392 > 0.303761658272378)
      Predict: 1.0
  Tree 16:
    If (feature 241249 <= 0.547056879296866)
     If (feature 383896 <= 0.772837169790643)
      If (feature 98516 <= 0.378930189298375)
       Predict: 0.0
      Else (feature 98516 > 0.378930189298375)
       Predict: 1.0
     Else (feature 383896 > 0.772837169790643)
      Predict: 1.0
    Else (feature 241249 > 0.547056879296866)
     If (feature 191863 <= 0.366699891842257)
      If (feature 99272 <= 0.158686064887732)
       If (feature 290638 <= 0.686587881615307)
        If (feature 99086 <= 0.0251259652335784)
         Predict: 1.0
        Else (feature 99086 > 0.0251259652335784)
         Predict: 0.0
       Else (feature 290638 > 0.686587881615307)
        If (feature 51936 <= 0.0515586309455791)
         Predict: 0.0
        Else (feature 51936 > 0.0515586309455791)
         Predict: 1.0
      Else (feature 99272 > 0.158686064887732)
       If (feature 372052 <= 0.988688930236991)
        Predict: 1.0
       Else (feature 372052 > 0.988688930236991)
        Predict: 0.0
     Else (feature 191863 > 0.366699891842257)
      If (feature 161328 <= 0.743256481550897)
       Predict: 0.0
      Else (feature 161328 > 0.743256481550897)
       Predict: 1.0
  Tree 17:
    If (feature 157101 <= 0.198938902219792)
     If (feature 131866 <= 0.714525680201473)
      Predict: 1.0
     Else (feature 131866 > 0.714525680201473)
      If (feature 162622 <= 0.53470985081986)
       Predict: 0.0
      Else (feature 162622 > 0.53470985081986)
       Predict: 1.0
    Else (feature 157101 > 0.198938902219792)
     If (feature 403373 <= 0.783883683782623)
      If (feature 14247 <= 0.231926549941964)
       If (feature 52898 <= 0.711846983090251)
        If (feature 478361 <= 0.259589840960729)
         Predict: 1.0
        Else (feature 478361 > 0.259589840960729)
         Predict: 0.0
       Else (feature 52898 > 0.711846983090251)
        Predict: 1.0
      Else (feature 14247 > 0.231926549941964)
       If (feature 220582 <= 0.619038115393019)
        Predict: 1.0
       Else (feature 220582 > 0.619038115393019)
        Predict: 0.0
     Else (feature 403373 > 0.783883683782623)
      If (feature 407970 <= 0.703707458222819)
       If (feature 303716 <= 0.734565358047812)
        Predict: 1.0
       Else (feature 303716 > 0.734565358047812)
        Predict: 0.0
      Else (feature 407970 > 0.703707458222819)
       If (feature 18783 <= 0.809053575132903)
        If (feature 312348 <= 0.0637948578031584)
         Predict: 0.0
        Else (feature 312348 > 0.0637948578031584)
         Predict: 1.0
       Else (feature 18783 > 0.809053575132903)
        Predict: 1.0
  Tree 18:
    If (feature 34626 <= 0.373543676525828)
     If (feature 114753 <= 0.465699180736574)
      If (feature 344200 <= 0.0352031337080312)
       Predict: 1.0
      Else (feature 344200 > 0.0352031337080312)
       Predict: 0.0
     Else (feature 114753 > 0.465699180736574)
      If (feature 118219 <= 0.332511454410851)
       Predict: 1.0
      Else (feature 118219 > 0.332511454410851)
       If (feature 72677 <= 0.183892755562269)
        If (feature 80782 <= 0.483721153328889)
         Predict: 1.0
        Else (feature 80782 > 0.483721153328889)
         Predict: 0.0
       Else (feature 72677 > 0.183892755562269)
        If (feature 457336 <= 0.0500638975147145)
         Predict: 0.0
        Else (feature 457336 > 0.0500638975147145)
         Predict: 1.0
    Else (feature 34626 > 0.373543676525828)
     Predict: 1.0
  Tree 19:
    If (feature 459007 <= 0.445828836658861)
     If (feature 476621 <= 0.598333733576398)
      If (feature 178259 <= 0.576320049529447)
       Predict: 1.0
      Else (feature 178259 > 0.576320049529447)
       If (feature 91667 <= 0.896742313644939)
        Predict: 1.0
       Else (feature 91667 > 0.896742313644939)
        Predict: 0.0
     Else (feature 476621 > 0.598333733576398)
      If (feature 262701 <= 0.290102865954436)
       If (feature 218662 <= 0.667045112430196)
        If (feature 437924 <= 0.60350412566701)
         Predict: 1.0
        Else (feature 437924 > 0.60350412566701)
         Predict: 0.0
       Else (feature 218662 > 0.667045112430196)
        If (feature 302090 <= 0.894102476214723)
         Predict: 0.0
        Else (feature 302090 > 0.894102476214723)
         Predict: 1.0
      Else (feature 262701 > 0.290102865954436)
       Predict: 1.0
    Else (feature 459007 > 0.445828836658861)
     If (feature 389946 <= 0.604128756630828)
      If (feature 248184 <= 0.621199399084871)
       Predict: 1.0
      Else (feature 248184 > 0.621199399084871)
       Predict: 0.0
     Else (feature 389946 > 0.604128756630828)
      If (feature 216494 <= 0.957798809533081)
       If (feature 110060 <= 0.830749400266114)
        If (feature 38734 <= 0.951441096528821)
         Predict: 1.0
        Else (feature 38734 > 0.951441096528821)
         Predict: 1.0
       Else (feature 110060 > 0.830749400266114)
        If (feature 480619 <= 0.808716887341535)
         Predict: 1.0
        Else (feature 480619 > 0.808716887341535)
         Predict: 0.0
      Else (feature 216494 > 0.957798809533081)
       If (feature 138772 <= 0.376520712417263)
        Predict: 1.0
       Else (feature 138772 > 0.376520712417263)
        Predict: 0.0
