TreeEnsembleModel classifier with 10 trees

  Tree 0:
    If (feature 419926 <= 0.316387156730633)
     Predict: 1.0
    Else (feature 419926 > 0.316387156730633)
     If (feature 261740 <= 0.327080862064192)
      If (feature 124501 <= 0.697448306493024)
       If (feature 79046 <= 0.473003375371166)
        Predict: 1.0
       Else (feature 79046 > 0.473003375371166)
        Predict: 0.0
      Else (feature 124501 > 0.697448306493024)
       If (feature 428271 <= 0.656397419143146)
        Predict: 1.0
       Else (feature 428271 > 0.656397419143146)
        If (feature 317692 <= 0.49861670505062)
         Predict: 0.0
        Else (feature 317692 > 0.49861670505062)
         Predict: 1.0
     Else (feature 261740 > 0.327080862064192)
      If (feature 5077 <= 0.943386185531252)
       If (feature 143866 <= 0.470216445888827)
        If (feature 351418 <= 0.0947167994681031)
         Predict: 0.0
        Else (feature 351418 > 0.0947167994681031)
         Predict: 1.0
       Else (feature 143866 > 0.470216445888827)
        Predict: 1.0
      Else (feature 5077 > 0.943386185531252)
       If (feature 354915 <= 0.687474778121501)
        Predict: 1.0
       Else (feature 354915 > 0.687474778121501)
        Predict: 0.0
  Tree 1:
    If (feature 20726 <= 0.894210921341611)
     If (feature 261682 <= 0.947374084903798)
      If (feature 409001 <= 0.878674121527961)
       If (feature 437029 <= 0.835440073554981)
        Predict: 1.0
       Else (feature 437029 > 0.835440073554981)
        If (feature 58970 <= 0.260789703243623)
         Predict: 0.0
        Else (feature 58970 > 0.260789703243623)
         Predict: 1.0
      Else (feature 409001 > 0.878674121527961)
       Predict: 1.0
     Else (feature 261682 > 0.947374084903798)
      If (feature 273606 <= 0.754353667198284)
       Predict: 1.0
      Else (feature 273606 > 0.754353667198284)
       Predict: 0.0
    Else (feature 20726 > 0.894210921341611)
     If (feature 122136 <= 0.744550662650636)
      If (feature 424406 <= 0.778855669881165)
       Predict: 1.0
      Else (feature 424406 > 0.778855669881165)
       If (feature 158087 <= 0.276554113662579)
        If (feature 327034 <= 0.0638338124319538)
         Predict: 1.0
        Else (feature 327034 > 0.0638338124319538)
         Predict: 0.0
       Else (feature 158087 > 0.276554113662579)
        If (feature 191564 <= 0.938614731773139)
         Predict: 0.0
        Else (feature 191564 > 0.938614731773139)
         Predict: 1.0
     Else (feature 122136 > 0.744550662650636)
      If (feature 159979 <= 0.7733256416487)
       If (feature 447322 <= 0.0521393142055832)
        Predict: 0.0
       Else (feature 447322 > 0.0521393142055832)
        Predict: 1.0
      Else (feature 159979 > 0.7733256416487)
       Predict: 1.0
  Tree 2:
    If (feature 222806 <= 0.133973828473916)
     If (feature 202032 <= 0.195005347116019)
      If (feature 219371 <= 0.602690837811618)
       Predict: 1.0
      Else (feature 219371 > 0.602690837811618)
       Predict: 0.0
     Else (feature 202032 > 0.195005347116019)
      If (feature 439830 <= 0.00944558472728754)
       If (feature 327555 <= 0.465559960090742)
        Predict: 1.0
       Else (feature 327555 > 0.465559960090742)
        Predict: 0.0
      Else (feature 439830 > 0.00944558472728754)
       Predict: 1.0
    Else (feature 222806 > 0.133973828473916)
     If (feature 384128 <= 0.412587546218088)
      If (feature 353594 <= 0.937485291192819)
       If (feature 154634 <= 0.687793947950424)
        Predict: 1.0
       Else (feature 154634 > 0.687793947950424)
        If (feature 372086 <= 0.0137485879880934)
         Predict: 0.0
        Else (feature 372086 > 0.0137485879880934)
         Predict: 1.0
      Else (feature 353594 > 0.937485291192819)
       If (feature 282625 <= 0.280984559055491)
        Predict: 1.0
       Else (feature 282625 > 0.280984559055491)
        If (feature 318794 <= 0.0132887338808895)
         Predict: 0.0
        Else (feature 318794 > 0.0132887338808895)
         Predict: 1.0
     Else (feature 384128 > 0.412587546218088)
      If (feature 414732 <= 0.261272907677761)
       If (feature 309826 <= 0.510945712018846)
        Predict: 0.0
       Else (feature 309826 > 0.510945712018846)
        Predict: 1.0
      Else (feature 414732 > 0.261272907677761)
       Predict: 1.0
  Tree 3:
    If (feature 294807 <= 0.850870216864843)
     If (feature 341359 <= 0.332938830639737)
      If (feature 224567 <= 0.876953893336213)
       If (feature 388917 <= 0.778614031325618)
        Predict: 0.0
       Else (feature 388917 > 0.778614031325618)
        Predict: 1.0
      Else (feature 224567 > 0.876953893336213)
       If (feature 442243 <= 0.755250363337365)
        If (feature 34712 <= 0.954926283075153)
         Predict: 1.0
        Else (feature 34712 > 0.954926283075153)
         Predict: 0.0
       Else (feature 442243 > 0.755250363337365)
        Predict: 0.0
     Else (feature 341359 > 0.332938830639737)
      Predict: 1.0
    Else (feature 294807 > 0.850870216864843)
     If (feature 392683 <= 0.869912914305729)
      If (feature 194281 <= 0.0195248314042723)
       If (feature 81 <= 0.449978099582054)
        Predict: 1.0
       Else (feature 81 > 0.449978099582054)
        Predict: 0.0
      Else (feature 194281 > 0.0195248314042723)
       If (feature 218140 <= 0.92053804863714)
        Predict: 1.0
       Else (feature 218140 > 0.92053804863714)
        Predict: 0.0
     Else (feature 392683 > 0.869912914305729)
      If (feature 66401 <= 0.807111858375369)
       Predict: 1.0
      Else (feature 66401 > 0.807111858375369)
       Predict: 0.0
  Tree 4:
    If (feature 188052 <= 0.0428104706632269)
     If (feature 457369 <= 0.0323552094809362)
      Predict: 1.0
     Else (feature 457369 > 0.0323552094809362)
      If (feature 439177 <= 0.33492114573609)
       If (feature 200811 <= 0.829696894906977)
        If (feature 264390 <= 0.166007125284421)
         Predict: 1.0
        Else (feature 264390 > 0.166007125284421)
         Predict: 0.0
       Else (feature 200811 > 0.829696894906977)
        If (feature 237549 <= 0.450611628133706)
         Predict: 1.0
        Else (feature 237549 > 0.450611628133706)
         Predict: 0.0
      Else (feature 439177 > 0.33492114573609)
       If (feature 170657 <= 0.0123878911969529)
        Predict: 0.0
       Else (feature 170657 > 0.0123878911969529)
        Predict: 1.0
    Else (feature 188052 > 0.0428104706632269)
     If (feature 373087 <= 0.757302658327245)
      If (feature 379828 <= 0.53048398424162)
       Predict: 0.0
      Else (feature 379828 > 0.53048398424162)
       If (feature 304991 <= 0.963464161496659)
        Predict: 1.0
       Else (feature 304991 > 0.963464161496659)
        If (feature 9067 <= 0.713204843497744)
         Predict: 0.0
        Else (feature 9067 > 0.713204843497744)
         Predict: 1.0
     Else (feature 373087 > 0.757302658327245)
      If (feature 390638 <= 0.936960506789431)
       If (feature 257172 <= 0.525709639224122)
        Predict: 0.0
       Else (feature 257172 > 0.525709639224122)
        Predict: 1.0
      Else (feature 390638 > 0.936960506789431)
       If (feature 189586 <= 0.723612431865115)
        If (feature 192207 <= 0.785230592487552)
         Predict: 1.0
        Else (feature 192207 > 0.785230592487552)
         Predict: 0.0
       Else (feature 189586 > 0.723612431865115)
        Predict: 1.0
  Tree 5:
    If (feature 309203 <= 0.629656154497579)
     If (feature 267073 <= 0.0108003133147924)
      If (feature 270168 <= 0.959226034242638)
       Predict: 1.0
      Else (feature 270168 > 0.959226034242638)
       Predict: 0.0
     Else (feature 267073 > 0.0108003133147924)
      Predict: 1.0
    Else (feature 309203 > 0.629656154497579)
     If (feature 303634 <= 0.116427821166836)
      If (feature 144761 <= 0.114090043829677)
       If (feature 416468 <= 0.351809232562588)
        Predict: 1.0
       Else (feature 416468 > 0.351809232562588)
        Predict: 0.0
      Else (feature 144761 > 0.114090043829677)
       If (feature 113649 <= 0.0141187152981176)
        Predict: 0.0
       Else (feature 113649 > 0.0141187152981176)
        Predict: 1.0
     Else (feature 303634 > 0.116427821166836)
      If (feature 77110 <= 0.15286288218887)
       If (feature 234779 <= 0.0482302910157018)
        If (feature 34615 <= 0.790635634613534)
         Predict: 0.0
        Else (feature 34615 > 0.790635634613534)
         Predict: 1.0
       Else (feature 234779 > 0.0482302910157018)
        If (feature 386548 <= 0.431685381211577)
         Predict: 0.0
        Else (feature 386548 > 0.431685381211577)
         Predict: 1.0
      Else (feature 77110 > 0.15286288218887)
       If (feature 78763 <= 0.897989052738564)
        Predict: 0.0
       Else (feature 78763 > 0.897989052738564)
        Predict: 1.0
  Tree 6:
    If (feature 464693 <= 0.872470935107382)
     If (feature 271782 <= 0.990465458508416)
      If (feature 269466 <= 0.923231673584924)
       Predict: 1.0
      Else (feature 269466 > 0.923231673584924)
       If (feature 389098 <= 0.969070803008702)
        Predict: 1.0
       Else (feature 389098 > 0.969070803008702)
        Predict: 0.0
     Else (feature 271782 > 0.990465458508416)
      If (feature 93869 <= 0.931640435135138)
       Predict: 0.0
      Else (feature 93869 > 0.931640435135138)
       Predict: 1.0
    Else (feature 464693 > 0.872470935107382)
     If (feature 360722 <= 0.480586228004457)
      If (feature 333057 <= 0.0110861216483233)
       If (feature 275246 <= 0.270941812098385)
        Predict: 0.0
       Else (feature 275246 > 0.270941812098385)
        Predict: 1.0
      Else (feature 333057 > 0.0110861216483233)
       If (feature 120201 <= 0.129723184572123)
        If (feature 133773 <= 0.293053799021329)
         Predict: 0.0
        Else (feature 133773 > 0.293053799021329)
         Predict: 1.0
       Else (feature 120201 > 0.129723184572123)
        If (feature 52206 <= 0.0166510404527693)
         Predict: 1.0
        Else (feature 52206 > 0.0166510404527693)
         Predict: 1.0
     Else (feature 360722 > 0.480586228004457)
      If (feature 371578 <= 0.336961083483017)
       If (feature 235297 <= 0.777920797802955)
        If (feature 219479 <= 0.939972057851988)
         Predict: 1.0
        Else (feature 219479 > 0.939972057851988)
         Predict: 0.0
       Else (feature 235297 > 0.777920797802955)
        If (feature 99286 <= 0.653147562327749)
         Predict: 0.0
        Else (feature 99286 > 0.653147562327749)
         Predict: 1.0
      Else (feature 371578 > 0.336961083483017)
       If (feature 42363 <= 0.174145066573227)
        Predict: 0.0
       Else (feature 42363 > 0.174145066573227)
        Predict: 1.0
  Tree 7:
    If (feature 102144 <= 0.869819035578763)
     If (feature 324611 <= 0.766061786657728)
      Predict: 1.0
     Else (feature 324611 > 0.766061786657728)
      If (feature 291649 <= 0.903255490389516)
       Predict: 0.0
      Else (feature 291649 > 0.903255490389516)
       Predict: 1.0
    Else (feature 102144 > 0.869819035578763)
     If (feature 446970 <= 0.719017061225819)
      If (feature 455412 <= 0.655511487741046)
       Predict: 0.0
      Else (feature 455412 > 0.655511487741046)
       If (feature 275824 <= 0.989992042027907)
        Predict: 1.0
       Else (feature 275824 > 0.989992042027907)
        If (feature 89243 <= 0.849783961999469)
         Predict: 0.0
        Else (feature 89243 > 0.849783961999469)
         Predict: 1.0
     Else (feature 446970 > 0.719017061225819)
      If (feature 86680 <= 0.271505870442088)
       If (feature 428747 <= 0.196664539703108)
        If (feature 395398 <= 0.610534666812993)
         Predict: 0.0
        Else (feature 395398 > 0.610534666812993)
         Predict: 1.0
       Else (feature 428747 > 0.196664539703108)
        Predict: 1.0
      Else (feature 86680 > 0.271505870442088)
       If (feature 144853 <= 0.078828862345191)
        Predict: 0.0
       Else (feature 144853 > 0.078828862345191)
        If (feature 430136 <= 0.0237886835859921)
         Predict: 1.0
        Else (feature 430136 > 0.0237886835859921)
         Predict: 0.0
  Tree 8:
    If (feature 78774 <= 0.648394870196165)
     If (feature 191980 <= 0.652860432139759)
      If (feature 301258 <= 0.923696256411809)
       Predict: 1.0
      Else (feature 301258 > 0.923696256411809)
       Predict: 0.0
     Else (feature 191980 > 0.652860432139759)
      If (feature 27299 <= 0.661633560023666)
       If (feature 95279 <= 0.912155638794963)
        If (feature 438486 <= 0.881179888097192)
         Predict: 0.0
        Else (feature 438486 > 0.881179888097192)
         Predict: 1.0
       Else (feature 95279 > 0.912155638794963)
        If (feature 222061 <= 0.16193337904584)
         Predict: 0.0
        Else (feature 222061 > 0.16193337904584)
         Predict: 1.0
      Else (feature 27299 > 0.661633560023666)
       Predict: 1.0
    Else (feature 78774 > 0.648394870196165)
     If (feature 389398 <= 0.982835768672749)
      If (feature 103563 <= 0.196995910686172)
       If (feature 388223 <= 0.872972753077624)
        Predict: 1.0
       Else (feature 388223 > 0.872972753077624)
        Predict: 0.0
      Else (feature 103563 > 0.196995910686172)
       Predict: 1.0
     Else (feature 389398 > 0.982835768672749)
      If (feature 141683 <= 0.464461043299321)
       Predict: 1.0
      Else (feature 141683 > 0.464461043299321)
       If (feature 154528 <= 0.0474652709328424)
        Predict: 1.0
       Else (feature 154528 > 0.0474652709328424)
        Predict: 0.0
  Tree 9:
    If (feature 268396 <= 0.811951383531392)
     If (feature 329476 <= 0.201884769072238)
      If (feature 57073 <= 0.327968351197176)
       If (feature 450226 <= 0.0840141208377118)
        Predict: 0.0
       Else (feature 450226 > 0.0840141208377118)
        Predict: 1.0
      Else (feature 57073 > 0.327968351197176)
       Predict: 1.0
     Else (feature 329476 > 0.201884769072238)
      If (feature 47312 <= 0.567373703509288)
       Predict: 1.0
      Else (feature 47312 > 0.567373703509288)
       Predict: 0.0
    Else (feature 268396 > 0.811951383531392)
     If (feature 29233 <= 0.130300716639524)
      If (feature 414434 <= 0.526059095657307)
       Predict: 1.0
      Else (feature 414434 > 0.526059095657307)
       If (feature 2261 <= 0.763172132098797)
        If (feature 255080 <= 0.894754720484917)
         Predict: 0.0
        Else (feature 255080 > 0.894754720484917)
         Predict: 1.0
       Else (feature 2261 > 0.763172132098797)
        Predict: 1.0
     Else (feature 29233 > 0.130300716639524)
      If (feature 443138 <= 0.0845120782797939)
       If (feature 341627 <= 0.0384774445264708)
        Predict: 1.0
       Else (feature 341627 > 0.0384774445264708)
        Predict: 0.0
      Else (feature 443138 > 0.0845120782797939)
       Predict: 1.0
