TreeEnsembleModel classifier with 20 trees

  Tree 0:
    If (feature 449663 <= 0.470168592098499)
     If (feature 253922 <= 0.89295870661719)
      If (feature 24098 <= 0.595121026716744)
       If (feature 317988 <= 0.448644735138876)
        Predict: 1.0
       Else (feature 317988 > 0.448644735138876)
        Predict: 0.0
      Else (feature 24098 > 0.595121026716744)
       If (feature 56620 <= 0.9387467372355)
        Predict: 1.0
       Else (feature 56620 > 0.9387467372355)
        Predict: 0.0
     Else (feature 253922 > 0.89295870661719)
      If (feature 250324 <= 0.952949884134667)
       Predict: 1.0
      Else (feature 250324 > 0.952949884134667)
       If (feature 82064 <= 0.653659838688982)
        If (feature 215555 <= 0.231536372796685)
         Predict: 0.0
        Else (feature 215555 > 0.231536372796685)
         Predict: 1.0
       Else (feature 82064 > 0.653659838688982)
        If (feature 398946 <= 0.385060207502993)
         Predict: 1.0
        Else (feature 398946 > 0.385060207502993)
         Predict: 0.0
    Else (feature 449663 > 0.470168592098499)
     If (feature 66129 <= 0.0704678114003807)
      If (feature 464371 <= 0.419046108530609)
       Predict: 1.0
      Else (feature 464371 > 0.419046108530609)
       Predict: 0.0
     Else (feature 66129 > 0.0704678114003807)
      Predict: 1.0
  Tree 1:
    If (feature 130088 <= 0.102680767928428)
     If (feature 365460 <= 0.708088639091297)
      If (feature 142529 <= 0.0174643645928497)
       If (feature 178509 <= 0.136389493334933)
        Predict: 0.0
       Else (feature 178509 > 0.136389493334933)
        Predict: 1.0
      Else (feature 142529 > 0.0174643645928497)
       Predict: 1.0
     Else (feature 365460 > 0.708088639091297)
      If (feature 147316 <= 0.28515840956309)
       If (feature 401317 <= 0.330270626887685)
        Predict: 1.0
       Else (feature 401317 > 0.330270626887685)
        Predict: 0.0
      Else (feature 147316 > 0.28515840956309)
       Predict: 1.0
    Else (feature 130088 > 0.102680767928428)
     If (feature 247181 <= 0.715412577226766)
      If (feature 348093 <= 0.027571146113631)
       If (feature 375797 <= 0.0125960605858481)
        Predict: 1.0
       Else (feature 375797 > 0.0125960605858481)
        Predict: 0.0
      Else (feature 348093 > 0.027571146113631)
       Predict: 1.0
     Else (feature 247181 > 0.715412577226766)
      If (feature 276191 <= 0.94087543897237)
       Predict: 1.0
      Else (feature 276191 > 0.94087543897237)
       If (feature 381680 <= 0.3462482581034)
        Predict: 0.0
       Else (feature 381680 > 0.3462482581034)
        Predict: 1.0
  Tree 2:
    If (feature 70086 <= 0.383563963112423)
     If (feature 383926 <= 0.374726224818607)
      If (feature 160688 <= 0.604205603439923)
       Predict: 1.0
      Else (feature 160688 > 0.604205603439923)
       If (feature 434551 <= 0.484821229054049)
        If (feature 103092 <= 0.0217936853613692)
         Predict: 0.0
        Else (feature 103092 > 0.0217936853613692)
         Predict: 1.0
       Else (feature 434551 > 0.484821229054049)
        Predict: 0.0
     Else (feature 383926 > 0.374726224818607)
      Predict: 1.0
    Else (feature 70086 > 0.383563963112423)
     If (feature 51981 <= 0.0110694250538483)
      If (feature 456688 <= 0.665186946153666)
       Predict: 0.0
      Else (feature 456688 > 0.665186946153666)
       Predict: 1.0
     Else (feature 51981 > 0.0110694250538483)
      If (feature 229372 <= 0.0433100874187203)
       If (feature 124684 <= 0.520323444519799)
        Predict: 1.0
       Else (feature 124684 > 0.520323444519799)
        Predict: 0.0
      Else (feature 229372 > 0.0433100874187203)
       If (feature 461392 <= 0.867787087283836)
        If (feature 169279 <= 0.771568119925708)
         Predict: 1.0
        Else (feature 169279 > 0.771568119925708)
         Predict: 1.0
       Else (feature 461392 > 0.867787087283836)
        Predict: 0.0
  Tree 3:
    If (feature 219601 <= 0.831441652510528)
     If (feature 184851 <= 0.339854695646329)
      If (feature 71669 <= 0.748682775588465)
       If (feature 283404 <= 0.826112325812656)
        Predict: 0.0
       Else (feature 283404 > 0.826112325812656)
        Predict: 1.0
      Else (feature 71669 > 0.748682775588465)
       Predict: 1.0
     Else (feature 184851 > 0.339854695646329)
      Predict: 1.0
    Else (feature 219601 > 0.831441652510528)
     If (feature 381726 <= 0.404175489743173)
      If (feature 97107 <= 0.782519713484287)
       Predict: 1.0
      Else (feature 97107 > 0.782519713484287)
       Predict: 0.0
     Else (feature 381726 > 0.404175489743173)
      If (feature 244542 <= 0.958322744309927)
       If (feature 243615 <= 0.0325772258882769)
        If (feature 190049 <= 0.949833325192321)
         Predict: 1.0
        Else (feature 190049 > 0.949833325192321)
         Predict: 0.0
       Else (feature 243615 > 0.0325772258882769)
        If (feature 264434 <= 0.0484866821776032)
         Predict: 0.0
        Else (feature 264434 > 0.0484866821776032)
         Predict: 1.0
      Else (feature 244542 > 0.958322744309927)
       If (feature 147543 <= 0.682634903717592)
        Predict: 0.0
       Else (feature 147543 > 0.682634903717592)
        Predict: 1.0
  Tree 4:
    If (feature 296040 <= 0.014810174164115)
     If (feature 37257 <= 0.103702615813329)
      If (feature 422360 <= 0.252521278738176)
       If (feature 395858 <= 0.12111262203787)
        Predict: 1.0
       Else (feature 395858 > 0.12111262203787)
        Predict: 0.0
      Else (feature 422360 > 0.252521278738176)
       Predict: 1.0
     Else (feature 37257 > 0.103702615813329)
      Predict: 1.0
    Else (feature 296040 > 0.014810174164115)
     If (feature 375014 <= 0.778259828794431)
      If (feature 118731 <= 0.89396028029608)
       If (feature 280504 <= 0.0147368915881965)
        Predict: 0.0
       Else (feature 280504 > 0.0147368915881965)
        Predict: 1.0
      Else (feature 118731 > 0.89396028029608)
       If (feature 153727 <= 0.0968162553606211)
        Predict: 1.0
       Else (feature 153727 > 0.0968162553606211)
        Predict: 0.0
     Else (feature 375014 > 0.778259828794431)
      If (feature 348249 <= 0.979918815245395)
       If (feature 18569 <= 0.0114116408053366)
        If (feature 11068 <= 0.139595631843152)
         Predict: 1.0
        Else (feature 11068 > 0.139595631843152)
         Predict: 0.0
       Else (feature 18569 > 0.0114116408053366)
        If (feature 123221 <= 0.834985581691128)
         Predict: 1.0
        Else (feature 123221 > 0.834985581691128)
         Predict: 1.0
      Else (feature 348249 > 0.979918815245395)
       If (feature 327173 <= 0.770276354491989)
        Predict: 0.0
       Else (feature 327173 > 0.770276354491989)
        Predict: 1.0
  Tree 5:
    If (feature 334805 <= 0.277843259116597)
     If (feature 46866 <= 0.486923999020103)
      If (feature 148086 <= 0.446434815434679)
       If (feature 24163 <= 0.754457640012717)
        Predict: 0.0
       Else (feature 24163 > 0.754457640012717)
        Predict: 1.0
      Else (feature 148086 > 0.446434815434679)
       If (feature 123110 <= 0.915239035735831)
        If (feature 449206 <= 0.236891608633416)
         Predict: 1.0
        Else (feature 449206 > 0.236891608633416)
         Predict: 0.0
       Else (feature 123110 > 0.915239035735831)
        Predict: 1.0
     Else (feature 46866 > 0.486923999020103)
      If (feature 325719 <= 0.947836672532304)
       Predict: 1.0
      Else (feature 325719 > 0.947836672532304)
       If (feature 434259 <= 0.0125104177275914)
        Predict: 1.0
       Else (feature 434259 > 0.0125104177275914)
        Predict: 0.0
    Else (feature 334805 > 0.277843259116597)
     If (feature 120620 <= 0.600482788299064)
      Predict: 1.0
     Else (feature 120620 > 0.600482788299064)
      If (feature 249746 <= 0.935731904514027)
       Predict: 0.0
      Else (feature 249746 > 0.935731904514027)
       Predict: 1.0
  Tree 6:
    If (feature 295276 <= 0.390482072714594)
     If (feature 328640 <= 0.182190157920483)
      If (feature 97420 <= 0.65591376380884)
       Predict: 1.0
      Else (feature 97420 > 0.65591376380884)
       If (feature 301710 <= 0.679460256838566)
        Predict: 1.0
       Else (feature 301710 > 0.679460256838566)
        If (feature 260311 <= 0.519021306536336)
         Predict: 1.0
        Else (feature 260311 > 0.519021306536336)
         Predict: 0.0
     Else (feature 328640 > 0.182190157920483)
      Predict: 1.0
    Else (feature 295276 > 0.390482072714594)
     If (feature 179557 <= 0.953506665744765)
      Predict: 1.0
     Else (feature 179557 > 0.953506665744765)
      If (feature 345424 <= 0.831061467437285)
       Predict: 0.0
      Else (feature 345424 > 0.831061467437285)
       Predict: 1.0
  Tree 7:
    If (feature 446419 <= 0.832042919596631)
     If (feature 49564 <= 0.443895134330183)
      Predict: 1.0
     Else (feature 49564 > 0.443895134330183)
      If (feature 297961 <= 0.905347791032805)
       Predict: 1.0
      Else (feature 297961 > 0.905347791032805)
       Predict: 0.0
    Else (feature 446419 > 0.832042919596631)
     If (feature 420186 <= 0.381185522058971)
      If (feature 484824 <= 0.680368773297105)
       Predict: 1.0
      Else (feature 484824 > 0.680368773297105)
       If (feature 425947 <= 0.235860970937558)
        Predict: 1.0
       Else (feature 425947 > 0.235860970937558)
        If (feature 104091 <= 0.241899037444933)
         Predict: 0.0
        Else (feature 104091 > 0.241899037444933)
         Predict: 1.0
     Else (feature 420186 > 0.381185522058971)
      If (feature 50282 <= 0.954796370631233)
       If (feature 380979 <= 0.0573154630202849)
        If (feature 100488 <= 0.813592063302748)
         Predict: 0.0
        Else (feature 100488 > 0.813592063302748)
         Predict: 1.0
       Else (feature 380979 > 0.0573154630202849)
        Predict: 1.0
      Else (feature 50282 > 0.954796370631233)
       Predict: 0.0
  Tree 8:
    If (feature 31056 <= 0.268251460504625)
     If (feature 391827 <= 0.730635156436201)
      If (feature 182201 <= 0.039997182254723)
       Predict: 1.0
      Else (feature 182201 > 0.039997182254723)
       If (feature 273858 <= 0.920145794396481)
        Predict: 1.0
       Else (feature 273858 > 0.920145794396481)
        Predict: 0.0
     Else (feature 391827 > 0.730635156436201)
      If (feature 271336 <= 0.873209051703224)
       If (feature 360977 <= 0.65736365444744)
        Predict: 1.0
       Else (feature 360977 > 0.65736365444744)
        Predict: 0.0
      Else (feature 271336 > 0.873209051703224)
       Predict: 1.0
    Else (feature 31056 > 0.268251460504625)
     If (feature 469601 <= 0.0203491859283879)
      If (feature 340059 <= 0.0536233069824913)
       Predict: 1.0
      Else (feature 340059 > 0.0536233069824913)
       If (feature 46104 <= 0.879776083498613)
        Predict: 1.0
       Else (feature 46104 > 0.879776083498613)
        Predict: 0.0
     Else (feature 469601 > 0.0203491859283879)
      Predict: 1.0
  Tree 9:
    If (feature 439270 <= 0.646445977195858)
     If (feature 192641 <= 0.786347311002609)
      If (feature 215796 <= 0.837643022589062)
       Predict: 1.0
      Else (feature 215796 > 0.837643022589062)
       If (feature 323669 <= 0.189466372664614)
        Predict: 0.0
       Else (feature 323669 > 0.189466372664614)
        Predict: 1.0
     Else (feature 192641 > 0.786347311002609)
      If (feature 168115 <= 0.579404863725566)
       Predict: 1.0
      Else (feature 168115 > 0.579404863725566)
       Predict: 0.0
    Else (feature 439270 > 0.646445977195858)
     If (feature 278866 <= 0.116373844583763)
      If (feature 100845 <= 0.151457103425321)
       If (feature 32258 <= 0.940023132562914)
        Predict: 0.0
       Else (feature 32258 > 0.940023132562914)
        Predict: 1.0
      Else (feature 100845 > 0.151457103425321)
       Predict: 1.0
     Else (feature 278866 > 0.116373844583763)
      If (feature 469911 <= 0.899468163594035)
       Predict: 0.0
      Else (feature 469911 > 0.899468163594035)
       Predict: 1.0
  Tree 10:
    If (feature 217816 <= 0.347566434872131)
     If (feature 215477 <= 0.535073794070119)
      Predict: 1.0
     Else (feature 215477 > 0.535073794070119)
      If (feature 358703 <= 0.421137524165057)
       Predict: 1.0
      Else (feature 358703 > 0.421137524165057)
       If (feature 316216 <= 0.929375033793971)
        If (feature 351169 <= 0.804639735545061)
         Predict: 1.0
        Else (feature 351169 > 0.804639735545061)
         Predict: 0.0
       Else (feature 316216 > 0.929375033793971)
        Predict: 1.0
    Else (feature 217816 > 0.347566434872131)
     If (feature 388623 <= 0.981985441472698)
      If (feature 73227 <= 0.483322630517756)
       If (feature 166395 <= 0.867090737018938)
        Predict: 0.0
       Else (feature 166395 > 0.867090737018938)
        If (feature 310948 <= 0.965458491277506)
         Predict: 1.0
        Else (feature 310948 > 0.965458491277506)
         Predict: 0.0
      Else (feature 73227 > 0.483322630517756)
       Predict: 1.0
     Else (feature 388623 > 0.981985441472698)
      If (feature 31555 <= 0.922261160356482)
       Predict: 0.0
      Else (feature 31555 > 0.922261160356482)
       Predict: 1.0
  Tree 11:
    If (feature 196021 <= 0.644164254948786)
     If (feature 3255 <= 0.658450771004577)
      If (feature 6020 <= 0.380737115231792)
       If (feature 219308 <= 0.977644151130847)
        Predict: 1.0
       Else (feature 219308 > 0.977644151130847)
        Predict: 0.0
      Else (feature 6020 > 0.380737115231792)
       If (feature 141337 <= 0.851308181985924)
        Predict: 0.0
       Else (feature 141337 > 0.851308181985924)
        Predict: 1.0
     Else (feature 3255 > 0.658450771004577)
      If (feature 144625 <= 0.551926659503105)
       If (feature 142809 <= 0.917382509380947)
        Predict: 0.0
       Else (feature 142809 > 0.917382509380947)
        Predict: 1.0
      Else (feature 144625 > 0.551926659503105)
       Predict: 1.0
    Else (feature 196021 > 0.644164254948786)
     If (feature 413204 <= 0.665204944865084)
      If (feature 179400 <= 0.491794957234539)
       Predict: 1.0
      Else (feature 179400 > 0.491794957234539)
       Predict: 0.0
     Else (feature 413204 > 0.665204944865084)
      If (feature 338791 <= 0.604408494804967)
       Predict: 1.0
      Else (feature 338791 > 0.604408494804967)
       If (feature 87574 <= 0.242306398197541)
        Predict: 1.0
       Else (feature 87574 > 0.242306398197541)
        Predict: 0.0
  Tree 12:
    If (feature 152585 <= 0.10294354284445)
     If (feature 427073 <= 0.0228062162732364)
      If (feature 405710 <= 0.270507598045054)
       If (feature 192641 <= 0.700794870303661)
        Predict: 1.0
       Else (feature 192641 > 0.700794870303661)
        Predict: 0.0
      Else (feature 405710 > 0.270507598045054)
       Predict: 1.0
     Else (feature 427073 > 0.0228062162732364)
      If (feature 277755 <= 0.93609606114034)
       If (feature 93150 <= 0.0296370460533081)
        Predict: 0.0
       Else (feature 93150 > 0.0296370460533081)
        Predict: 1.0
      Else (feature 277755 > 0.93609606114034)
       If (feature 482572 <= 0.429465196403191)
        Predict: 1.0
       Else (feature 482572 > 0.429465196403191)
        Predict: 0.0
    Else (feature 152585 > 0.10294354284445)
     If (feature 121006 <= 0.908706520567055)
      If (feature 75070 <= 0.0171928699630015)
       If (feature 352320 <= 0.932827860059991)
        Predict: 0.0
       Else (feature 352320 > 0.932827860059991)
        Predict: 1.0
      Else (feature 75070 > 0.0171928699630015)
       If (feature 142616 <= 0.263841780942119)
        If (feature 68788 <= 0.0582095956906359)
         Predict: 1.0
        Else (feature 68788 > 0.0582095956906359)
         Predict: 0.0
       Else (feature 142616 > 0.263841780942119)
        Predict: 1.0
     Else (feature 121006 > 0.908706520567055)
      If (feature 343715 <= 0.212839521788961)
       If (feature 419629 <= 0.881279977423753)
        Predict: 0.0
       Else (feature 419629 > 0.881279977423753)
        Predict: 1.0
      Else (feature 343715 > 0.212839521788961)
       Predict: 1.0
  Tree 13:
    If (feature 74637 <= 0.0211034006823149)
     If (feature 128550 <= 0.449660913054487)
      Predict: 1.0
     Else (feature 128550 > 0.449660913054487)
      If (feature 342365 <= 0.813520754915084)
       If (feature 387090 <= 0.444966870875314)
        Predict: 0.0
       Else (feature 387090 > 0.444966870875314)
        Predict: 1.0
      Else (feature 342365 > 0.813520754915084)
       Predict: 1.0
    Else (feature 74637 > 0.0211034006823149)
     If (feature 274719 <= 0.817230407144734)
      If (feature 83908 <= 0.388275661747406)
       Predict: 1.0
      Else (feature 83908 > 0.388275661747406)
       If (feature 94652 <= 0.0252974991306195)
        Predict: 0.0
       Else (feature 94652 > 0.0252974991306195)
        Predict: 1.0
     Else (feature 274719 > 0.817230407144734)
      If (feature 211887 <= 0.782384265382023)
       Predict: 1.0
      Else (feature 211887 > 0.782384265382023)
       If (feature 26764 <= 0.0344408010913501)
        Predict: 0.0
       Else (feature 26764 > 0.0344408010913501)
        Predict: 1.0
  Tree 14:
    If (feature 318746 <= 0.0527921952236887)
     If (feature 120515 <= 0.0783872501332943)
      If (feature 245072 <= 0.918395876856703)
       Predict: 1.0
      Else (feature 245072 > 0.918395876856703)
       Predict: 0.0
     Else (feature 120515 > 0.0783872501332943)
      Predict: 1.0
    Else (feature 318746 > 0.0527921952236887)
     If (feature 77512 <= 0.794246858289523)
      If (feature 429365 <= 0.893838958849655)
       If (feature 141615 <= 0.0187306407983462)
        If (feature 143785 <= 0.565114934322589)
         Predict: 1.0
        Else (feature 143785 > 0.565114934322589)
         Predict: 0.0
       Else (feature 141615 > 0.0187306407983462)
        Predict: 1.0
      Else (feature 429365 > 0.893838958849655)
       Predict: 1.0
     Else (feature 77512 > 0.794246858289523)
      If (feature 328668 <= 0.301152690244419)
       If (feature 459439 <= 0.174646375308783)
        Predict: 0.0
       Else (feature 459439 > 0.174646375308783)
        Predict: 1.0
      Else (feature 328668 > 0.301152690244419)
       Predict: 1.0
  Tree 15:
    If (feature 410487 <= 0.608393153096184)
     If (feature 91812 <= 0.68506187269186)
      Predict: 1.0
     Else (feature 91812 > 0.68506187269186)
      If (feature 334062 <= 0.922619905294882)
       Predict: 1.0
      Else (feature 334062 > 0.922619905294882)
       Predict: 0.0
    Else (feature 410487 > 0.608393153096184)
     If (feature 223590 <= 0.926539442760787)
      If (feature 404134 <= 0.542187733601039)
       If (feature 461519 <= 0.273346794246058)
        If (feature 152493 <= 0.601270150733164)
         Predict: 0.0
        Else (feature 152493 > 0.601270150733164)
         Predict: 1.0
       Else (feature 461519 > 0.273346794246058)
        Predict: 1.0
      Else (feature 404134 > 0.542187733601039)
       If (feature 17776 <= 0.991787472144587)
        Predict: 1.0
       Else (feature 17776 > 0.991787472144587)
        If (feature 221830 <= 0.928118329411984)
         Predict: 1.0
        Else (feature 221830 > 0.928118329411984)
         Predict: 0.0
     Else (feature 223590 > 0.926539442760787)
      If (feature 221236 <= 0.731483746107482)
       Predict: 0.0
      Else (feature 221236 > 0.731483746107482)
       Predict: 1.0
  Tree 16:
    If (feature 289679 <= 0.678200028188714)
     If (feature 5353 <= 0.296691392393906)
      If (feature 251369 <= 0.809665296559285)
       If (feature 179337 <= 0.920329691625204)
        Predict: 0.0
       Else (feature 179337 > 0.920329691625204)
        Predict: 1.0
      Else (feature 251369 > 0.809665296559285)
       If (feature 395435 <= 0.852293224000719)
        Predict: 1.0
       Else (feature 395435 > 0.852293224000719)
        Predict: 0.0
     Else (feature 5353 > 0.296691392393906)
      If (feature 408738 <= 0.950512324604408)
       Predict: 1.0
      Else (feature 408738 > 0.950512324604408)
       Predict: 0.0
    Else (feature 289679 > 0.678200028188714)
     If (feature 33045 <= 0.592747215301815)
      If (feature 60936 <= 0.474221085519565)
       Predict: 1.0
      Else (feature 60936 > 0.474221085519565)
       If (feature 416016 <= 0.56021815109007)
        Predict: 0.0
       Else (feature 416016 > 0.56021815109007)
        Predict: 1.0
     Else (feature 33045 > 0.592747215301815)
      If (feature 111296 <= 0.76022036733614)
       If (feature 101248 <= 0.366327156613394)
        If (feature 15899 <= 0.044528516766313)
         Predict: 0.0
        Else (feature 15899 > 0.044528516766313)
         Predict: 1.0
       Else (feature 101248 > 0.366327156613394)
        Predict: 1.0
      Else (feature 111296 > 0.76022036733614)
       If (feature 364452 <= 0.493094686098892)
        Predict: 0.0
       Else (feature 364452 > 0.493094686098892)
        Predict: 1.0
  Tree 17:
    If (feature 51773 <= 0.818179139774611)
     If (feature 356822 <= 0.137114136684292)
      If (feature 415783 <= 0.936183518461063)
       Predict: 1.0
      Else (feature 415783 > 0.936183518461063)
       Predict: 0.0
     Else (feature 356822 > 0.137114136684292)
      If (feature 197109 <= 0.856368009273277)
       If (feature 300782 <= 0.913335882281529)
        Predict: 1.0
       Else (feature 300782 > 0.913335882281529)
        If (feature 426952 <= 0.0795816063846628)
         Predict: 0.0
        Else (feature 426952 > 0.0795816063846628)
         Predict: 1.0
      Else (feature 197109 > 0.856368009273277)
       If (feature 166793 <= 0.565605210486222)
        Predict: 0.0
       Else (feature 166793 > 0.565605210486222)
        Predict: 1.0
    Else (feature 51773 > 0.818179139774611)
     If (feature 372683 <= 0.358613816806686)
      If (feature 52449 <= 0.5977665678756)
       Predict: 1.0
      Else (feature 52449 > 0.5977665678756)
       If (feature 457082 <= 0.220918752285106)
        Predict: 0.0
       Else (feature 457082 > 0.220918752285106)
        Predict: 1.0
     Else (feature 372683 > 0.358613816806686)
      If (feature 421278 <= 0.0340710676204674)
       If (feature 192160 <= 0.641072507972901)
        Predict: 1.0
       Else (feature 192160 > 0.641072507972901)
        Predict: 0.0
      Else (feature 421278 > 0.0340710676204674)
       If (feature 437694 <= 0.131469501947291)
        If (feature 24132 <= 0.0245025893008018)
         Predict: 0.0
        Else (feature 24132 > 0.0245025893008018)
         Predict: 1.0
       Else (feature 437694 > 0.131469501947291)
        Predict: 1.0
  Tree 18:
    If (feature 386638 <= 0.782330602027917)
     If (feature 341500 <= 0.116676757651153)
      If (feature 341276 <= 0.409649176856313)
       Predict: 1.0
      Else (feature 341276 > 0.409649176856313)
       If (feature 467737 <= 0.954472277916775)
        Predict: 0.0
       Else (feature 467737 > 0.954472277916775)
        Predict: 1.0
     Else (feature 341500 > 0.116676757651153)
      If (feature 313769 <= 0.892036416751048)
       If (feature 229852 <= 0.16572363655504)
        Predict: 1.0
       Else (feature 229852 > 0.16572363655504)
        Predict: 0.0
      Else (feature 313769 > 0.892036416751048)
       Predict: 0.0
    Else (feature 386638 > 0.782330602027917)
     If (feature 188699 <= 0.958069210507359)
      If (feature 329536 <= 0.943902935476905)
       If (feature 272156 <= 0.596772888162188)
        Predict: 1.0
       Else (feature 272156 > 0.596772888162188)
        If (feature 401955 <= 0.717840250214244)
         Predict: 0.0
        Else (feature 401955 > 0.717840250214244)
         Predict: 1.0
      Else (feature 329536 > 0.943902935476905)
       If (feature 405489 <= 0.881010200486073)
        Predict: 0.0
       Else (feature 405489 > 0.881010200486073)
        Predict: 1.0
     Else (feature 188699 > 0.958069210507359)
      If (feature 252049 <= 0.711191998312886)
       Predict: 1.0
      Else (feature 252049 > 0.711191998312886)
       Predict: 0.0
  Tree 19:
    If (feature 440184 <= 0.0204303459970219)
     If (feature 134822 <= 0.750189781682022)
      If (feature 371596 <= 0.882889857855398)
       If (feature 120921 <= 0.941800334659076)
        Predict: 1.0
       Else (feature 120921 > 0.941800334659076)
        Predict: 0.0
      Else (feature 371596 > 0.882889857855398)
       Predict: 0.0
     Else (feature 134822 > 0.750189781682022)
      If (feature 97434 <= 0.467701003965801)
       If (feature 459783 <= 0.340923571525983)
        Predict: 0.0
       Else (feature 459783 > 0.340923571525983)
        Predict: 1.0
      Else (feature 97434 > 0.467701003965801)
       Predict: 1.0
    Else (feature 440184 > 0.0204303459970219)
     If (feature 228486 <= 0.376517875542932)
      If (feature 432320 <= 0.72148400514378)
       If (feature 473261 <= 0.462348126790614)
        If (feature 414714 <= 0.778743617798547)
         Predict: 1.0
        Else (feature 414714 > 0.778743617798547)
         Predict: 0.0
       Else (feature 473261 > 0.462348126790614)
        Predict: 1.0
      Else (feature 432320 > 0.72148400514378)
       If (feature 25262 <= 0.0127638159494306)
        If (feature 257071 <= 0.880963028325963)
         Predict: 0.0
        Else (feature 257071 > 0.880963028325963)
         Predict: 1.0
       Else (feature 25262 > 0.0127638159494306)
        Predict: 1.0
     Else (feature 228486 > 0.376517875542932)
      If (feature 418882 <= 0.898504966590448)
       Predict: 0.0
      Else (feature 418882 > 0.898504966590448)
       Predict: 1.0
