TreeEnsembleModel classifier with 20 trees

  Tree 0:
    If (feature 53944 <= 0.239318065366116)
     If (feature 276043 <= 0.533554392944772)
      If (feature 153295 <= 0.970519090690749)
       Predict: 1.0
      Else (feature 153295 > 0.970519090690749)
       If (feature 194439 <= 0.0406306941204253)
        Predict: 1.0
       Else (feature 194439 > 0.0406306941204253)
        Predict: 0.0
     Else (feature 276043 > 0.533554392944772)
      If (feature 147231 <= 0.595818287057607)
       Predict: 1.0
      Else (feature 147231 > 0.595818287057607)
       If (feature 441081 <= 0.519487472592511)
        Predict: 0.0
       Else (feature 441081 > 0.519487472592511)
        Predict: 1.0
    Else (feature 53944 > 0.239318065366116)
     If (feature 191972 <= 0.92309212876977)
      If (feature 53840 <= 0.362447870778446)
       Predict: 1.0
      Else (feature 53840 > 0.362447870778446)
       If (feature 479331 <= 0.460521160729186)
        Predict: 1.0
       Else (feature 479331 > 0.460521160729186)
        Predict: 0.0
     Else (feature 191972 > 0.92309212876977)
      If (feature 296002 <= 0.558929974808537)
       Predict: 0.0
      Else (feature 296002 > 0.558929974808537)
       Predict: 1.0
  Tree 1:
    If (feature 402918 <= 0.212163755876429)
     If (feature 363751 <= 0.0571873939901194)
      If (feature 185270 <= 0.25010928596233)
       Predict: 1.0
      Else (feature 185270 > 0.25010928596233)
       Predict: 0.0
     Else (feature 363751 > 0.0571873939901194)
      If (feature 294040 <= 0.395035659476768)
       If (feature 427014 <= 0.805402363862258)
        Predict: 0.0
       Else (feature 427014 > 0.805402363862258)
        If (feature 205225 <= 0.947772243070136)
         Predict: 1.0
        Else (feature 205225 > 0.947772243070136)
         Predict: 0.0
      Else (feature 294040 > 0.395035659476768)
       Predict: 1.0
    Else (feature 402918 > 0.212163755876429)
     If (feature 196328 <= 0.330426788255416)
      If (feature 89201 <= 0.69092633098883)
       Predict: 1.0
      Else (feature 89201 > 0.69092633098883)
       If (feature 34166 <= 0.760666081472319)
        Predict: 0.0
       Else (feature 34166 > 0.760666081472319)
        Predict: 1.0
     Else (feature 196328 > 0.330426788255416)
      If (feature 150026 <= 0.856228379390029)
       Predict: 1.0
      Else (feature 150026 > 0.856228379390029)
       Predict: 0.0
  Tree 2:
    If (feature 266856 <= 0.726127731943647)
     If (feature 46732 <= 0.820755696803499)
      Predict: 1.0
     Else (feature 46732 > 0.820755696803499)
      If (feature 227704 <= 0.472744882205445)
       Predict: 0.0
      Else (feature 227704 > 0.472744882205445)
       Predict: 1.0
    Else (feature 266856 > 0.726127731943647)
     If (feature 316136 <= 0.51265658921498)
      If (feature 160333 <= 0.234656560302165)
       If (feature 298215 <= 0.0967859709564815)
        Predict: 1.0
       Else (feature 298215 > 0.0967859709564815)
        Predict: 0.0
      Else (feature 160333 > 0.234656560302165)
       If (feature 385341 <= 0.942674011954789)
        Predict: 1.0
       Else (feature 385341 > 0.942674011954789)
        Predict: 0.0
     Else (feature 316136 > 0.51265658921498)
      If (feature 35460 <= 0.0149238458090108)
       If (feature 5208 <= 0.130380993568776)
        Predict: 0.0
       Else (feature 5208 > 0.130380993568776)
        Predict: 1.0
      Else (feature 35460 > 0.0149238458090108)
       Predict: 1.0
  Tree 3:
    If (feature 322194 <= 0.242079650189168)
     If (feature 43424 <= 0.794684799601582)
      If (feature 30593 <= 0.9449362507379)
       If (feature 326473 <= 0.925396424747646)
        If (feature 163165 <= 0.060724624689003)
         Predict: 1.0
        Else (feature 163165 > 0.060724624689003)
         Predict: 0.0
       Else (feature 326473 > 0.925396424747646)
        Predict: 1.0
      Else (feature 30593 > 0.9449362507379)
       If (feature 407885 <= 0.329239158521081)
        Predict: 1.0
       Else (feature 407885 > 0.329239158521081)
        Predict: 0.0
     Else (feature 43424 > 0.794684799601582)
      If (feature 380942 <= 0.444658383447445)
       If (feature 308115 <= 0.985949893463507)
        Predict: 1.0
       Else (feature 308115 > 0.985949893463507)
        Predict: 0.0
      Else (feature 380942 > 0.444658383447445)
       If (feature 459149 <= 0.0746517607499581)
        Predict: 0.0
       Else (feature 459149 > 0.0746517607499581)
        Predict: 1.0
    Else (feature 322194 > 0.242079650189168)
     If (feature 385446 <= 0.916000982246485)
      Predict: 1.0
     Else (feature 385446 > 0.916000982246485)
      If (feature 386587 <= 0.0419416087125919)
       Predict: 0.0
      Else (feature 386587 > 0.0419416087125919)
       Predict: 1.0
  Tree 4:
    If (feature 480838 <= 0.78021952176482)
     If (feature 292283 <= 0.123981975798754)
      Predict: 1.0
     Else (feature 292283 > 0.123981975798754)
      If (feature 102570 <= 0.573065504546187)
       Predict: 1.0
      Else (feature 102570 > 0.573065504546187)
       Predict: 0.0
    Else (feature 480838 > 0.78021952176482)
     If (feature 44605 <= 0.409846434169302)
      If (feature 216705 <= 0.798085571089647)
       Predict: 1.0
      Else (feature 216705 > 0.798085571089647)
       If (feature 233511 <= 0.157551410723925)
        Predict: 1.0
       Else (feature 233511 > 0.157551410723925)
        If (feature 348059 <= 0.764368511919822)
         Predict: 1.0
        Else (feature 348059 > 0.764368511919822)
         Predict: 0.0
     Else (feature 44605 > 0.409846434169302)
      If (feature 40433 <= 0.174243397693673)
       If (feature 377268 <= 0.0181300642789168)
        Predict: 0.0
       Else (feature 377268 > 0.0181300642789168)
        If (feature 439881 <= 0.116830789018292)
         Predict: 1.0
        Else (feature 439881 > 0.116830789018292)
         Predict: 0.0
      Else (feature 40433 > 0.174243397693673)
       If (feature 272049 <= 0.0863188350364302)
        Predict: 0.0
       Else (feature 272049 > 0.0863188350364302)
        Predict: 1.0
  Tree 5:
    If (feature 241759 <= 0.0890809586649361)
     If (feature 104150 <= 0.428630072192508)
      If (feature 222575 <= 0.317502341356162)
       Predict: 1.0
      Else (feature 222575 > 0.317502341356162)
       If (feature 9484 <= 0.767569420704991)
        Predict: 0.0
       Else (feature 9484 > 0.767569420704991)
        Predict: 1.0
     Else (feature 104150 > 0.428630072192508)
      Predict: 1.0
    Else (feature 241759 > 0.0890809586649361)
     If (feature 133634 <= 0.835926409211679)
      If (feature 445761 <= 0.0463915577099324)
       Predict: 0.0
      Else (feature 445761 > 0.0463915577099324)
       Predict: 1.0
     Else (feature 133634 > 0.835926409211679)
      If (feature 56276 <= 0.930864296498158)
       Predict: 1.0
      Else (feature 56276 > 0.930864296498158)
       If (feature 414952 <= 0.499269060569076)
        Predict: 1.0
       Else (feature 414952 > 0.499269060569076)
        Predict: 0.0
  Tree 6:
    If (feature 9788 <= 0.752168917189355)
     If (feature 430131 <= 0.0488315631434581)
      If (feature 250372 <= 0.541304924147818)
       Predict: 1.0
      Else (feature 250372 > 0.541304924147818)
       If (feature 110673 <= 0.0986874274733334)
        Predict: 0.0
       Else (feature 110673 > 0.0986874274733334)
        Predict: 1.0
     Else (feature 430131 > 0.0488315631434581)
      If (feature 441031 <= 0.448091810474771)
       If (feature 87872 <= 0.351025811264611)
        Predict: 0.0
       Else (feature 87872 > 0.351025811264611)
        Predict: 1.0
      Else (feature 441031 > 0.448091810474771)
       If (feature 372658 <= 0.874389510363929)
        Predict: 1.0
       Else (feature 372658 > 0.874389510363929)
        If (feature 434393 <= 0.842855393778229)
         Predict: 0.0
        Else (feature 434393 > 0.842855393778229)
         Predict: 1.0
    Else (feature 9788 > 0.752168917189355)
     If (feature 394859 <= 0.702080829228591)
      If (feature 66229 <= 0.45247720082299)
       If (feature 196362 <= 0.230823289183473)
        If (feature 370435 <= 0.135322053748158)
         Predict: 1.0
        Else (feature 370435 > 0.135322053748158)
         Predict: 0.0
       Else (feature 196362 > 0.230823289183473)
        If (feature 350436 <= 0.842126746722296)
         Predict: 1.0
        Else (feature 350436 > 0.842126746722296)
         Predict: 0.0
      Else (feature 66229 > 0.45247720082299)
       Predict: 1.0
     Else (feature 394859 > 0.702080829228591)
      If (feature 383947 <= 0.0439259335474604)
       Predict: 0.0
      Else (feature 383947 > 0.0439259335474604)
       Predict: 1.0
  Tree 7:
    If (feature 63170 <= 0.473002797149769)
     If (feature 151683 <= 0.715034756555318)
      If (feature 444841 <= 0.612695359718267)
       If (feature 66518 <= 0.8900931066243)
        Predict: 1.0
       Else (feature 66518 > 0.8900931066243)
        Predict: 0.0
      Else (feature 444841 > 0.612695359718267)
       Predict: 1.0
     Else (feature 151683 > 0.715034756555318)
      If (feature 76175 <= 0.333068731698983)
       If (feature 242588 <= 0.629703887676083)
        Predict: 1.0
       Else (feature 242588 > 0.629703887676083)
        Predict: 0.0
      Else (feature 76175 > 0.333068731698983)
       If (feature 351614 <= 0.98220232456629)
        Predict: 1.0
       Else (feature 351614 > 0.98220232456629)
        Predict: 0.0
    Else (feature 63170 > 0.473002797149769)
     If (feature 266839 <= 0.39526378211339)
      If (feature 346715 <= 0.0769970493759808)
       Predict: 0.0
      Else (feature 346715 > 0.0769970493759808)
       Predict: 1.0
     Else (feature 266839 > 0.39526378211339)
      If (feature 128984 <= 0.629726811720052)
       If (feature 339463 <= 0.0327091824237975)
        Predict: 0.0
       Else (feature 339463 > 0.0327091824237975)
        Predict: 1.0
      Else (feature 128984 > 0.629726811720052)
       Predict: 1.0
  Tree 8:
    If (feature 200891 <= 0.650856886472267)
     Predict: 1.0
    Else (feature 200891 > 0.650856886472267)
     If (feature 257249 <= 0.82724322429015)
      If (feature 265890 <= 0.535359190571242)
       Predict: 0.0
      Else (feature 265890 > 0.535359190571242)
       Predict: 1.0
     Else (feature 257249 > 0.82724322429015)
      If (feature 265890 <= 0.393876003311516)
       If (feature 188580 <= 0.959355779344065)
        Predict: 1.0
       Else (feature 188580 > 0.959355779344065)
        Predict: 0.0
      Else (feature 265890 > 0.393876003311516)
       If (feature 188745 <= 0.583405953771936)
        If (feature 239253 <= 0.0111535181713278)
         Predict: 0.0
        Else (feature 239253 > 0.0111535181713278)
         Predict: 1.0
       Else (feature 188745 > 0.583405953771936)
        Predict: 1.0
  Tree 9:
    If (feature 214022 <= 0.850729293871468)
     If (feature 99349 <= 0.679763757577421)
      If (feature 280351 <= 0.615997827834773)
       Predict: 1.0
      Else (feature 280351 > 0.615997827834773)
       Predict: 0.0
     Else (feature 99349 > 0.679763757577421)
      If (feature 289621 <= 0.0268538054051722)
       If (feature 96119 <= 0.925552279854219)
        Predict: 1.0
       Else (feature 96119 > 0.925552279854219)
        Predict: 0.0
      Else (feature 289621 > 0.0268538054051722)
       If (feature 301525 <= 0.953052640216204)
        Predict: 1.0
       Else (feature 301525 > 0.953052640216204)
        If (feature 110462 <= 0.0233752233713691)
         Predict: 1.0
        Else (feature 110462 > 0.0233752233713691)
         Predict: 0.0
    Else (feature 214022 > 0.850729293871468)
     If (feature 745 <= 0.341240269963809)
      If (feature 365940 <= 0.280506953728722)
       If (feature 60618 <= 0.488050478803863)
        Predict: 1.0
       Else (feature 60618 > 0.488050478803863)
        Predict: 0.0
      Else (feature 365940 > 0.280506953728722)
       If (feature 484585 <= 0.146770169252207)
        Predict: 1.0
       Else (feature 484585 > 0.146770169252207)
        Predict: 0.0
     Else (feature 745 > 0.341240269963809)
      If (feature 389658 <= 0.0172204987357286)
       If (feature 369482 <= 0.0211174151141382)
        Predict: 1.0
       Else (feature 369482 > 0.0211174151141382)
        Predict: 0.0
      Else (feature 389658 > 0.0172204987357286)
       If (feature 109795 <= 0.861482157823099)
        If (feature 401463 <= 0.954283866903738)
         Predict: 0.0
        Else (feature 401463 > 0.954283866903738)
         Predict: 1.0
       Else (feature 109795 > 0.861482157823099)
        Predict: 1.0
  Tree 10:
    If (feature 235116 <= 0.409081009392559)
     If (feature 420845 <= 0.75885654411458)
      If (feature 330726 <= 0.0204775248557899)
       Predict: 0.0
      Else (feature 330726 > 0.0204775248557899)
       Predict: 1.0
     Else (feature 420845 > 0.75885654411458)
      If (feature 408956 <= 0.681185891933792)
       If (feature 124647 <= 0.0777786706836023)
        Predict: 0.0
       Else (feature 124647 > 0.0777786706836023)
        Predict: 1.0
      Else (feature 408956 > 0.681185891933792)
       Predict: 1.0
    Else (feature 235116 > 0.409081009392559)
     If (feature 312336 <= 0.745990511876508)
      If (feature 382014 <= 0.599289028372516)
       Predict: 1.0
      Else (feature 382014 > 0.599289028372516)
       If (feature 196895 <= 0.221035392572104)
        Predict: 1.0
       Else (feature 196895 > 0.221035392572104)
        If (feature 254056 <= 0.32233714287587)
         Predict: 1.0
        Else (feature 254056 > 0.32233714287587)
         Predict: 0.0
     Else (feature 312336 > 0.745990511876508)
      If (feature 41142 <= 0.861977824322856)
       If (feature 19096 <= 0.245009857384665)
        If (feature 121654 <= 0.0582606625661975)
         Predict: 1.0
        Else (feature 121654 > 0.0582606625661975)
         Predict: 0.0
       Else (feature 19096 > 0.245009857384665)
        If (feature 485120 <= 0.029861597220137)
         Predict: 1.0
        Else (feature 485120 > 0.029861597220137)
         Predict: 0.0
      Else (feature 41142 > 0.861977824322856)
       Predict: 0.0
  Tree 11:
    If (feature 482391 <= 0.660594458806295)
     If (feature 381601 <= 0.599167650315312)
      If (feature 442243 <= 0.629062837295595)
       Predict: 1.0
      Else (feature 442243 > 0.629062837295595)
       If (feature 28297 <= 0.606163928062785)
        Predict: 0.0
       Else (feature 28297 > 0.606163928062785)
        Predict: 1.0
     Else (feature 381601 > 0.599167650315312)
      If (feature 54855 <= 0.503191508798742)
       If (feature 15644 <= 0.845710859582915)
        Predict: 0.0
       Else (feature 15644 > 0.845710859582915)
        Predict: 1.0
      Else (feature 54855 > 0.503191508798742)
       If (feature 387875 <= 0.0168047676101735)
        If (feature 27760 <= 0.452089754729668)
         Predict: 1.0
        Else (feature 27760 > 0.452089754729668)
         Predict: 0.0
       Else (feature 387875 > 0.0168047676101735)
        Predict: 1.0
    Else (feature 482391 > 0.660594458806295)
     If (feature 71372 <= 0.205494958209034)
      If (feature 476028 <= 0.445395877397062)
       Predict: 1.0
      Else (feature 476028 > 0.445395877397062)
       Predict: 0.0
     Else (feature 71372 > 0.205494958209034)
      If (feature 74361 <= 0.843786980047946)
       If (feature 78866 <= 0.76732440629124)
        Predict: 1.0
       Else (feature 78866 > 0.76732440629124)
        Predict: 0.0
      Else (feature 74361 > 0.843786980047946)
       If (feature 166783 <= 0.699108871480934)
        Predict: 0.0
       Else (feature 166783 > 0.699108871480934)
        Predict: 1.0
  Tree 12:
    If (feature 395730 <= 0.0114477168141981)
     If (feature 60402 <= 0.678456378863769)
      If (feature 62917 <= 0.848762614672364)
       If (feature 53112 <= 0.884052255344299)
        Predict: 0.0
       Else (feature 53112 > 0.884052255344299)
        Predict: 1.0
      Else (feature 62917 > 0.848762614672364)
       Predict: 0.0
     Else (feature 60402 > 0.678456378863769)
      If (feature 103574 <= 0.0133267856631686)
       Predict: 0.0
      Else (feature 103574 > 0.0133267856631686)
       Predict: 1.0
    Else (feature 395730 > 0.0114477168141981)
     If (feature 282933 <= 0.433425161964703)
      If (feature 432867 <= 0.318101013072131)
       If (feature 414606 <= 0.520849055342613)
        If (feature 390027 <= 0.483158836435314)
         Predict: 1.0
        Else (feature 390027 > 0.483158836435314)
         Predict: 0.0
       Else (feature 414606 > 0.520849055342613)
        If (feature 244749 <= 0.841757106196269)
         Predict: 1.0
        Else (feature 244749 > 0.841757106196269)
         Predict: 0.0
      Else (feature 432867 > 0.318101013072131)
       If (feature 135779 <= 0.0815344909934974)
        If (feature 131058 <= 0.0179749092379995)
         Predict: 0.0
        Else (feature 131058 > 0.0179749092379995)
         Predict: 1.0
       Else (feature 135779 > 0.0815344909934974)
        Predict: 0.0
     Else (feature 282933 > 0.433425161964703)
      If (feature 98673 <= 0.892119511324841)
       If (feature 227089 <= 0.0606690131651123)
        Predict: 1.0
       Else (feature 227089 > 0.0606690131651123)
        If (feature 68545 <= 0.749324587052029)
         Predict: 0.0
        Else (feature 68545 > 0.749324587052029)
         Predict: 1.0
      Else (feature 98673 > 0.892119511324841)
       If (feature 80341 <= 0.0122866845763551)
        Predict: 0.0
       Else (feature 80341 > 0.0122866845763551)
        Predict: 1.0
  Tree 13:
    If (feature 359429 <= 0.79734450776808)
     If (feature 121641 <= 0.616250934273582)
      If (feature 392038 <= 0.779123669762973)
       If (feature 297344 <= 0.0230922608791078)
        Predict: 1.0
       Else (feature 297344 > 0.0230922608791078)
        Predict: 0.0
      Else (feature 392038 > 0.779123669762973)
       Predict: 1.0
     Else (feature 121641 > 0.616250934273582)
      If (feature 205421 <= 0.282604266138303)
       Predict: 1.0
      Else (feature 205421 > 0.282604266138303)
       Predict: 0.0
    Else (feature 359429 > 0.79734450776808)
     If (feature 257066 <= 0.811221567678702)
      If (feature 195921 <= 0.499288236555303)
       If (feature 190443 <= 0.217402251698911)
        Predict: 1.0
       Else (feature 190443 > 0.217402251698911)
        Predict: 0.0
      Else (feature 195921 > 0.499288236555303)
       If (feature 109431 <= 0.791716967165413)
        If (feature 320621 <= 0.0135093477227229)
         Predict: 0.0
        Else (feature 320621 > 0.0135093477227229)
         Predict: 1.0
       Else (feature 109431 > 0.791716967165413)
        Predict: 1.0
     Else (feature 257066 > 0.811221567678702)
      If (feature 221438 <= 0.300423761108966)
       If (feature 271128 <= 0.77724079471513)
        Predict: 1.0
       Else (feature 271128 > 0.77724079471513)
        Predict: 0.0
      Else (feature 221438 > 0.300423761108966)
       Predict: 1.0
  Tree 14:
    If (feature 218755 <= 0.878433384458127)
     If (feature 210467 <= 0.583024036792607)
      If (feature 282697 <= 0.682430066904419)
       If (feature 53543 <= 0.609271586421246)
        Predict: 0.0
       Else (feature 53543 > 0.609271586421246)
        Predict: 1.0
      Else (feature 282697 > 0.682430066904419)
       If (feature 147219 <= 0.940137108369756)
        Predict: 1.0
       Else (feature 147219 > 0.940137108369756)
        Predict: 0.0
     Else (feature 210467 > 0.583024036792607)
      If (feature 239558 <= 0.0148977027684558)
       If (feature 453939 <= 0.869250597108873)
        Predict: 1.0
       Else (feature 453939 > 0.869250597108873)
        Predict: 0.0
      Else (feature 239558 > 0.0148977027684558)
       Predict: 1.0
    Else (feature 218755 > 0.878433384458127)
     If (feature 259140 <= 0.477857220689694)
      If (feature 350955 <= 0.284526007138969)
       If (feature 358133 <= 0.924476869395817)
        Predict: 0.0
       Else (feature 358133 > 0.924476869395817)
        Predict: 1.0
      Else (feature 350955 > 0.284526007138969)
       Predict: 0.0
     Else (feature 259140 > 0.477857220689694)
      If (feature 477449 <= 0.920690872538936)
       Predict: 0.0
      Else (feature 477449 > 0.920690872538936)
       Predict: 1.0
  Tree 15:
    If (feature 309203 <= 0.641148821790296)
     If (feature 453579 <= 0.958616215700991)
      If (feature 392499 <= 0.584432303933182)
       If (feature 328051 <= 0.0377298732792185)
        Predict: 1.0
       Else (feature 328051 > 0.0377298732792185)
        Predict: 0.0
      Else (feature 392499 > 0.584432303933182)
       Predict: 1.0
     Else (feature 453579 > 0.958616215700991)
      If (feature 37410 <= 0.831277223779569)
       Predict: 0.0
      Else (feature 37410 > 0.831277223779569)
       Predict: 1.0
    Else (feature 309203 > 0.641148821790296)
     If (feature 70416 <= 0.493001561763364)
      If (feature 158134 <= 0.733389501164815)
       If (feature 89239 <= 0.198636789183423)
        Predict: 0.0
       Else (feature 89239 > 0.198636789183423)
        Predict: 1.0
      Else (feature 158134 > 0.733389501164815)
       If (feature 247775 <= 0.312129151177718)
        If (feature 305941 <= 0.738145525322143)
         Predict: 1.0
        Else (feature 305941 > 0.738145525322143)
         Predict: 0.0
       Else (feature 247775 > 0.312129151177718)
        If (feature 452514 <= 0.792715322271927)
         Predict: 1.0
        Else (feature 452514 > 0.792715322271927)
         Predict: 0.0
     Else (feature 70416 > 0.493001561763364)
      If (feature 274157 <= 0.958552442473553)
       If (feature 144205 <= 0.562720733316024)
        If (feature 297555 <= 0.0616955293359394)
         Predict: 1.0
        Else (feature 297555 > 0.0616955293359394)
         Predict: 0.0
       Else (feature 144205 > 0.562720733316024)
        Predict: 1.0
      Else (feature 274157 > 0.958552442473553)
       Predict: 0.0
  Tree 16:
    If (feature 282982 <= 0.827080613966114)
     If (feature 185700 <= 0.0532595350486362)
      If (feature 30897 <= 0.446262200620213)
       Predict: 1.0
      Else (feature 30897 > 0.446262200620213)
       If (feature 213936 <= 0.874218733675246)
        Predict: 1.0
       Else (feature 213936 > 0.874218733675246)
        Predict: 0.0
     Else (feature 185700 > 0.0532595350486362)
      Predict: 1.0
    Else (feature 282982 > 0.827080613966114)
     If (feature 43368 <= 0.842774994037263)
      If (feature 186690 <= 0.636823959546263)
       If (feature 231182 <= 0.0568722480185548)
        Predict: 1.0
       Else (feature 231182 > 0.0568722480185548)
        Predict: 0.0
      Else (feature 186690 > 0.636823959546263)
       If (feature 14869 <= 0.921706856012323)
        Predict: 1.0
       Else (feature 14869 > 0.921706856012323)
        Predict: 0.0
     Else (feature 43368 > 0.842774994037263)
      If (feature 56894 <= 0.786108324311101)
       Predict: 0.0
      Else (feature 56894 > 0.786108324311101)
       If (feature 55635 <= 0.683675828276915)
        If (feature 424529 <= 0.984342323741345)
         Predict: 1.0
        Else (feature 424529 > 0.984342323741345)
         Predict: 0.0
       Else (feature 55635 > 0.683675828276915)
        If (feature 196389 <= 0.246123137349357)
         Predict: 0.0
        Else (feature 196389 > 0.246123137349357)
         Predict: 1.0
  Tree 17:
    If (feature 142266 <= 0.361458953405413)
     If (feature 257145 <= 0.291636406916204)
      Predict: 1.0
     Else (feature 257145 > 0.291636406916204)
      If (feature 296140 <= 0.0498563021851589)
       If (feature 344664 <= 0.019012251282547)
        Predict: 1.0
       Else (feature 344664 > 0.019012251282547)
        Predict: 0.0
      Else (feature 296140 > 0.0498563021851589)
       If (feature 115526 <= 0.555081696638777)
        Predict: 0.0
       Else (feature 115526 > 0.555081696638777)
        Predict: 1.0
    Else (feature 142266 > 0.361458953405413)
     If (feature 269639 <= 0.923081909464431)
      If (feature 301157 <= 0.908638483822517)
       If (feature 135905 <= 0.506052878010801)
        Predict: 0.0
       Else (feature 135905 > 0.506052878010801)
        Predict: 1.0
      Else (feature 301157 > 0.908638483822517)
       Predict: 1.0
     Else (feature 269639 > 0.923081909464431)
      If (feature 69562 <= 0.800464890130853)
       If (feature 35888 <= 0.0543804326797037)
        Predict: 1.0
       Else (feature 35888 > 0.0543804326797037)
        Predict: 0.0
      Else (feature 69562 > 0.800464890130853)
       Predict: 1.0
  Tree 18:
    If (feature 398634 <= 0.847265769476125)
     If (feature 422030 <= 0.909282584503017)
      If (feature 232796 <= 0.853861880508544)
       Predict: 1.0
      Else (feature 232796 > 0.853861880508544)
       Predict: 0.0
     Else (feature 422030 > 0.909282584503017)
      If (feature 180488 <= 0.936670706021118)
       If (feature 196595 <= 0.902204719451687)
        Predict: 1.0
       Else (feature 196595 > 0.902204719451687)
        If (feature 171663 <= 0.0121296956826657)
         Predict: 0.0
        Else (feature 171663 > 0.0121296956826657)
         Predict: 1.0
      Else (feature 180488 > 0.936670706021118)
       If (feature 214478 <= 0.365962342983469)
        Predict: 1.0
       Else (feature 214478 > 0.365962342983469)
        Predict: 0.0
    Else (feature 398634 > 0.847265769476125)
     If (feature 290628 <= 0.906339299664023)
      If (feature 229921 <= 0.42209250953028)
       Predict: 1.0
      Else (feature 229921 > 0.42209250953028)
       If (feature 481610 <= 0.410097491224893)
        Predict: 1.0
       Else (feature 481610 > 0.410097491224893)
        Predict: 0.0
     Else (feature 290628 > 0.906339299664023)
      If (feature 207764 <= 0.867421805636898)
       If (feature 400506 <= 0.103773275644627)
        Predict: 1.0
       Else (feature 400506 > 0.103773275644627)
        Predict: 0.0
      Else (feature 207764 > 0.867421805636898)
       If (feature 129338 <= 0.853544540411617)
        Predict: 0.0
       Else (feature 129338 > 0.853544540411617)
        Predict: 1.0
  Tree 19:
    If (feature 479635 <= 0.511458764066827)
     If (feature 34919 <= 0.869475410986018)
      If (feature 371043 <= 0.284682460888124)
       Predict: 1.0
      Else (feature 371043 > 0.284682460888124)
       Predict: 0.0
     Else (feature 34919 > 0.869475410986018)
      If (feature 353670 <= 0.805909529019372)
       If (feature 269744 <= 0.933208608104476)
        Predict: 1.0
       Else (feature 269744 > 0.933208608104476)
        If (feature 226773 <= 0.373554788768444)
         Predict: 1.0
        Else (feature 226773 > 0.373554788768444)
         Predict: 0.0
      Else (feature 353670 > 0.805909529019372)
       Predict: 1.0
    Else (feature 479635 > 0.511458764066827)
     If (feature 320429 <= 0.715437484537298)
      If (feature 39488 <= 0.0359853090848983)
       Predict: 0.0
      Else (feature 39488 > 0.0359853090848983)
       If (feature 336691 <= 0.85917368435799)
        Predict: 1.0
       Else (feature 336691 > 0.85917368435799)
        Predict: 0.0
     Else (feature 320429 > 0.715437484537298)
      If (feature 412263 <= 0.375481927896678)
       If (feature 74914 <= 0.62363489879632)
        Predict: 0.0
       Else (feature 74914 > 0.62363489879632)
        Predict: 1.0
      Else (feature 412263 > 0.375481927896678)
       Predict: 1.0
