TreeEnsembleModel classifier with 10 trees

  Tree 0:
    If (feature 197053 <= 0.812212597710717)
     If (feature 336144 <= 0.712838490454621)
      Predict: 0.0
     Else (feature 336144 > 0.712838490454621)
      Predict: 1.0
    Else (feature 197053 > 0.812212597710717)
     If (feature 185213 <= 0.849854737542831)
      If (feature 45667 <= 0.575124974304603)
       If (feature 160604 <= 0.890730204259495)
        Predict: 1.0
       Else (feature 160604 > 0.890730204259495)
        If (feature 169898 <= 0.823019803786588)
         Predict: 0.0
        Else (feature 169898 > 0.823019803786588)
         Predict: 1.0
      Else (feature 45667 > 0.575124974304603)
       If (feature 144057 <= 0.450154283828643)
        If (feature 99319 <= 0.245475656999926)
         Predict: 0.0
        Else (feature 99319 > 0.245475656999926)
         Predict: 1.0
       Else (feature 144057 > 0.450154283828643)
        Predict: 1.0
     Else (feature 185213 > 0.849854737542831)
      If (feature 323715 <= 0.423703656387128)
       If (feature 68255 <= 0.35661308357675)
        Predict: 1.0
       Else (feature 68255 > 0.35661308357675)
        Predict: 0.0
      Else (feature 323715 > 0.423703656387128)
       Predict: 1.0
  Tree 1:
    If (feature 61437 <= 0.598195992175626)
     If (feature 72396 <= 0.459437244452242)
      Predict: 1.0
     Else (feature 72396 > 0.459437244452242)
      If (feature 126127 <= 0.0156060230738915)
       Predict: 1.0
      Else (feature 126127 > 0.0156060230738915)
       Predict: 0.0
    Else (feature 61437 > 0.598195992175626)
     If (feature 386017 <= 0.214356026343357)
      If (feature 101468 <= 0.487479834647118)
       If (feature 93475 <= 0.035297374047162)
        Predict: 0.0
       Else (feature 93475 > 0.035297374047162)
        Predict: 1.0
      Else (feature 101468 > 0.487479834647118)
       Predict: 1.0
     Else (feature 386017 > 0.214356026343357)
      If (feature 349134 <= 0.010044146469441)
       If (feature 60508 <= 0.48028497650767)
        Predict: 0.0
       Else (feature 60508 > 0.48028497650767)
        Predict: 1.0
      Else (feature 349134 > 0.010044146469441)
       Predict: 1.0
  Tree 2:
    If (feature 21635 <= 0.767639934133345)
     If (feature 285008 <= 0.602822566284827)
      If (feature 476163 <= 0.538322480961861)
       If (feature 218413 <= 0.953087541376993)
        Predict: 1.0
       Else (feature 218413 > 0.953087541376993)
        Predict: 0.0
      Else (feature 476163 > 0.538322480961861)
       Predict: 1.0
     Else (feature 285008 > 0.602822566284827)
      If (feature 276840 <= 0.20548305051517)
       Predict: 0.0
      Else (feature 276840 > 0.20548305051517)
       Predict: 1.0
    Else (feature 21635 > 0.767639934133345)
     If (feature 366594 <= 0.279120338517837)
      If (feature 268988 <= 0.479591971232628)
       If (feature 456652 <= 0.419531218615473)
        Predict: 1.0
       Else (feature 456652 > 0.419531218615473)
        Predict: 0.0
      Else (feature 268988 > 0.479591971232628)
       Predict: 0.0
     Else (feature 366594 > 0.279120338517837)
      If (feature 323665 <= 0.0762954373949597)
       Predict: 0.0
      Else (feature 323665 > 0.0762954373949597)
       Predict: 1.0
  Tree 3:
    If (feature 283285 <= 0.790697350346012)
     If (feature 303362 <= 0.885029206951935)
      If (feature 174109 <= 0.0492622558051719)
       If (feature 54698 <= 0.811769538662154)
        Predict: 1.0
       Else (feature 54698 > 0.811769538662154)
        Predict: 0.0
      Else (feature 174109 > 0.0492622558051719)
       Predict: 1.0
     Else (feature 303362 > 0.885029206951935)
      If (feature 202362 <= 0.0111207537419738)
       If (feature 215851 <= 0.697291451310856)
        Predict: 1.0
       Else (feature 215851 > 0.697291451310856)
        Predict: 0.0
      Else (feature 202362 > 0.0111207537419738)
       Predict: 1.0
    Else (feature 283285 > 0.790697350346012)
     If (feature 61920 <= 0.615345146222363)
      If (feature 57796 <= 0.4515633630611)
       Predict: 1.0
      Else (feature 57796 > 0.4515633630611)
       If (feature 404258 <= 0.70769868525603)
        Predict: 0.0
       Else (feature 404258 > 0.70769868525603)
        Predict: 1.0
     Else (feature 61920 > 0.615345146222363)
      If (feature 364512 <= 0.378708361441433)
       Predict: 0.0
      Else (feature 364512 > 0.378708361441433)
       Predict: 1.0
  Tree 4:
    If (feature 256791 <= 0.411386444715651)
     If (feature 260929 <= 0.202727595104583)
      If (feature 62790 <= 0.869875978925474)
       If (feature 47336 <= 0.942841062307354)
        Predict: 1.0
       Else (feature 47336 > 0.942841062307354)
        Predict: 0.0
      Else (feature 62790 > 0.869875978925474)
       Predict: 0.0
     Else (feature 260929 > 0.202727595104583)
      If (feature 147994 <= 0.219602962511189)
       Predict: 0.0
      Else (feature 147994 > 0.219602962511189)
       Predict: 1.0
    Else (feature 256791 > 0.411386444715651)
     If (feature 252051 <= 0.929870965973522)
      If (feature 223380 <= 0.961382881544983)
       Predict: 1.0
      Else (feature 223380 > 0.961382881544983)
       If (feature 238120 <= 0.641729406096016)
        Predict: 0.0
       Else (feature 238120 > 0.641729406096016)
        Predict: 1.0
     Else (feature 252051 > 0.929870965973522)
      If (feature 254512 <= 0.812947956090914)
       Predict: 0.0
      Else (feature 254512 > 0.812947956090914)
       Predict: 1.0
  Tree 5:
    If (feature 180886 <= 0.894994291658824)
     If (feature 405391 <= 0.010694396906757)
      If (feature 160 <= 0.579675975208848)
       Predict: 0.0
      Else (feature 160 > 0.579675975208848)
       Predict: 1.0
     Else (feature 405391 > 0.010694396906757)
      Predict: 1.0
    Else (feature 180886 > 0.894994291658824)
     If (feature 193441 <= 0.422325291300025)
      If (feature 54338 <= 0.622928545559721)
       If (feature 164801 <= 0.952728093515344)
        Predict: 1.0
       Else (feature 164801 > 0.952728093515344)
        Predict: 0.0
      Else (feature 54338 > 0.622928545559721)
       If (feature 362389 <= 0.840545625872741)
        Predict: 1.0
       Else (feature 362389 > 0.840545625872741)
        Predict: 0.0
     Else (feature 193441 > 0.422325291300025)
      If (feature 337639 <= 0.754480161588413)
       Predict: 0.0
      Else (feature 337639 > 0.754480161588413)
       If (feature 100787 <= 0.50868774430052)
        Predict: 0.0
       Else (feature 100787 > 0.50868774430052)
        Predict: 1.0
  Tree 6:
    If (feature 221383 <= 0.469026242455343)
     If (feature 338136 <= 0.848277436995659)
      If (feature 395983 <= 0.0631572103800026)
       Predict: 0.0
      Else (feature 395983 > 0.0631572103800026)
       Predict: 1.0
     Else (feature 338136 > 0.848277436995659)
      Predict: 1.0
    Else (feature 221383 > 0.469026242455343)
     If (feature 154086 <= 0.292478978860345)
      If (feature 457961 <= 0.648027042685018)
       If (feature 300508 <= 0.889880904490701)
        If (feature 170598 <= 0.95817007275919)
         Predict: 0.0
        Else (feature 170598 > 0.95817007275919)
         Predict: 1.0
       Else (feature 300508 > 0.889880904490701)
        Predict: 1.0
      Else (feature 457961 > 0.648027042685018)
       Predict: 1.0
     Else (feature 154086 > 0.292478978860345)
      Predict: 1.0
  Tree 7:
    If (feature 186525 <= 0.800430501527049)
     If (feature 453353 <= 0.382227660289768)
      If (feature 219256 <= 0.845767967361093)
       Predict: 1.0
      Else (feature 219256 > 0.845767967361093)
       If (feature 337524 <= 0.368224061821954)
        Predict: 0.0
       Else (feature 337524 > 0.368224061821954)
        If (feature 405096 <= 0.192736008333928)
         Predict: 0.0
        Else (feature 405096 > 0.192736008333928)
         Predict: 1.0
     Else (feature 453353 > 0.382227660289768)
      If (feature 216621 <= 0.98846862766746)
       Predict: 1.0
      Else (feature 216621 > 0.98846862766746)
       Predict: 0.0
    Else (feature 186525 > 0.800430501527049)
     If (feature 127610 <= 0.0785185693062512)
      If (feature 97409 <= 0.594879427188752)
       Predict: 1.0
      Else (feature 97409 > 0.594879427188752)
       Predict: 0.0
     Else (feature 127610 > 0.0785185693062512)
      If (feature 471360 <= 0.561414088035675)
       If (feature 307543 <= 0.0559444416792179)
        Predict: 0.0
       Else (feature 307543 > 0.0559444416792179)
        Predict: 1.0
      Else (feature 471360 > 0.561414088035675)
       If (feature 356286 <= 0.254272483738938)
        Predict: 1.0
       Else (feature 356286 > 0.254272483738938)
        If (feature 149753 <= 0.01276785640407)
         Predict: 0.0
        Else (feature 149753 > 0.01276785640407)
         Predict: 1.0
  Tree 8:
    If (feature 134918 <= 0.579904416422664)
     If (feature 211846 <= 0.931473567947881)
      Predict: 1.0
     Else (feature 211846 > 0.931473567947881)
      If (feature 187587 <= 0.0553035662236891)
       Predict: 0.0
      Else (feature 187587 > 0.0553035662236891)
       Predict: 1.0
    Else (feature 134918 > 0.579904416422664)
     If (feature 215597 <= 0.215451008278261)
      If (feature 308864 <= 0.551292186764867)
       If (feature 34096 <= 0.020210531376446)
        Predict: 1.0
       Else (feature 34096 > 0.020210531376446)
        Predict: 0.0
      Else (feature 308864 > 0.551292186764867)
       If (feature 161621 <= 0.0568864100105251)
        Predict: 0.0
       Else (feature 161621 > 0.0568864100105251)
        Predict: 1.0
     Else (feature 215597 > 0.215451008278261)
      If (feature 368670 <= 0.7795800485305)
       Predict: 0.0
      Else (feature 368670 > 0.7795800485305)
       Predict: 1.0
  Tree 9:
    If (feature 172473 <= 0.725094091985353)
     Predict: 1.0
    Else (feature 172473 > 0.725094091985353)
     If (feature 217836 <= 0.396132573020249)
      If (feature 420373 <= 0.751034918030312)
       If (feature 272835 <= 0.962576804613388)
        Predict: 1.0
       Else (feature 272835 > 0.962576804613388)
        Predict: 0.0
      Else (feature 420373 > 0.751034918030312)
       If (feature 404543 <= 0.660387227076002)
        If (feature 400628 <= 0.00862555388529591)
         Predict: 0.0
        Else (feature 400628 > 0.00862555388529591)
         Predict: 1.0
       Else (feature 404543 > 0.660387227076002)
        Predict: 0.0
     Else (feature 217836 > 0.396132573020249)
      Predict: 1.0
